-0.42427325 0.0047249277 -0.42961535 -0.19152573 -0.09227567 0.32904378 0.20824663 -0.02157594 0.12770812 -0.25808167 0.16107897 -0.40345433 0.058810145 -0.18254459 -0.12955627 -0.39305294 -0.13524015 -0.25036117 0.16171333 -0.0024952153 -0.08432224 0.22555467 -0.1292414 0.12010403 0.16630888 0.1407876 -0.34804872 -0.09987561 -0.09506243 -0.13768262
-0.21839404 -0.3135111 -0.16929434 0.26419428 0.12534244 -0.05900803 -0.14220671 -0.012721235 -0.07996067 0.13806461 0.005665463 -0.4366408 -0.03487227 -0.10028514 -0.34578034 0.095762625 0.082948886 0.1091966 0.35579664 -0.21624936 0.04611037 -0.08997565 -0.058385 0.14165206 0.20097715 0.18857566 -0.3278724 0.22546095 0.3683444 0.274036
-0.24089117 -0.05497714 -0.028461538 -0.090810835 -0.043243315 0.037411638 -0.067275904 -0.19384623 0.11372291 0.24144335 -0.087455936 -0.08767612 0.20916198 -0.16193534 0.056394983 -0.0003718756 -0.024560208 -0.07321273 0.096252665 0.20641024 0.19692655 0.12586658 0.11986398 -0.008417499 -0.2766223 -0.2686191 0.039131023 0.25979167 -0.11457374 -0.28542617
0.1178585 0.0924679 0.08199594 -0.20782273 0.090492845 -0.1432053 -0.11205162 0.101162374 -0.07038586 -0.091110095 -0.18276612 -0.18933602 -0.16109408 0.17022926 -0.054974142 0.19069885 0.0061074165 -0.027649269 0.17094728 -0.009777566 -0.19610035 -0.04932404 0.189609 0.19396345 -0.0061628423 -0.36664185 0.29415584 0.10861618 -0.049139317 -0.6042639
-0.013214467 -0.15725216 0.25309303 -0.13425584 0.1584614 0.22227809 -0.11951561 0.05756361 0.29398698 -0.108940534 0.009737058 0.0853201 -0.07747328 -0.12265617 0.21905263 -0.21392588 0.15266228 -0.08434196 -0.03722224 -0.2451765 -0.01656093 -0.17026782 -0.17847568 -0.22574931 0.28975925 0.13962016 -0.16691507 -0.18841384 -0.033315618 0.27700505
0.48536384 0.28144944 0.121348925 0.01203884 0.15709223 0.053660844 0.03671701 0.08606877 -0.20227844 -0.08426146 0.18987802 -0.14779988 -0.18396422 0.08108738 0.07537597 -0.24650528 0.033528104 -0.26097843 0.33912757 0.027596792 -0.18705074 -0.09402538 -0.23346867 -0.089790344 -0.072489806 -0.114931874 -0.0027073093 -0.12222873 -0.1397777 -0.26945812
0.06352903 -0.058332402 -0.15641274 0.17614318 0.2920711 0.119272724 0.29005322 -0.10638767 -0.04419795 -0.108583085 0.17490965 0.04143185 -0.12996331 0.010283779 -0.10752713 -0.17779379 0.1439086 -0.25502276 -0.09758452 0.047174506 -0.27648306 -0.038784266 -0.25343177 0.13958758 -0.016930237 -0.17385298 -0.14322044 -0.3313149 -0.05536146 -0.16518411
0.18436204 0.21281141 0.115908094 -0.22308126 -0.024794014 0.06307135 -0.22455047 -0.062009916 0.27484366 -0.18359223 0.23347504 -0.20409605 0.03244957 0.06411455 0.013616061 0.08843223 -0.19616961 0.091427885 -0.17380853 0.13916546 -0.055930816 -0.16099532 0.29597136 -0.06862677 0.18603803 -0.0750108 -0.17719927 -0.028687447 0.101873145 0.04216241
-0.20727053 -0.06894364 -0.29682094 0.09301289 0.065504156 -0.2383171 0.11917047 -0.2780279 -0.20563513 -0.2809831 -0.10181937 -0.30558163 -0.20393516 -0.006662993 0.2111618 0.076631375 0.2350324 -0.28800318 -0.33658195 0.09655022 -0.14921148 0.24872138 -0.36505243 0.07692877 0.11712788 -0.021878522 0.17429899 -0.01001072 -0.10816722 -0.23525016
-0.14569882 -0.09573821 0.15197231 -0.2798356 -0.112320326 -0.06173908 0.01197326 0.0510067 0.034906756 -0.13272429 -0.2891592 -0.06844768 -0.059777055 0.0906418 0.16410716 -0.24152638 0.084910184 -0.44487453 0.095850475 -0.029596295 -0.16603877 0.16868137 -0.25227648 -0.10061499 0.12965408 -0.01629819 0.09092638 -0.043685272 0.31937316 -0.33561644
0.16751595 0.1525475 0.32373357 0.02881463 0.15020874 -0.2676863 -0.0050739567 0.31825766 -0.2744897 -0.25440437 0.268785 0.11574335 -0.12058716 0.021168454 -0.11447026 -0.07333487 -0.2213094 -0.14252838 -0.06565436 -0.26743376 0.13815105 -0.38640803 -0.15675999 -0.11182973 0.222434 0.24963051 -0.27443552 0.26418325 0.116952956 0.062410824
0.19428211 0.1111442 0.23834181 -0.054670308 -0.14867939 -0.113422506 -0.09799584 -0.109426536 -0.1608989 -0.077274695 0.098864846 0.20444655 -0.061960325 0.22885977 -0.14011161 -0.20080815 -0.016260095 -0.28388533 0.28580907 -0.05696503 -0.0006128859 -0.2538885 0.23123921 0.13181168 -0.23251095 -0.12236109 -0.1711635 -0.23460653 -0.09470124 -0.20900585
-0.23959278 -0.26845202 -0.12577307 0.20144585 -0.11648238 -0.17160195 0.00318855 -0.23419003 -0.18683544 -0.048097115 -0.22137262 -0.35958776 0.36198863 -0.14715607 -0.14964935 0.20029698 -0.014233197 0.16492096 0.23687859 0.0057736123 -0.08838494 -0.2781827 0.26022115 0.12858014 0.18080267 0.09451155 -0.36115834 -0.1169603 0.2919077 0.112205096
-0.04049217 -0.060706448 0.0068578487 0.08405077 -0.02524028 -0.007004005 0.21522361 -0.13436264 -0.2869152 -0.17731535 -0.15241304 0.010922246 -0.069221586 0.3502118 -0.20982291 -0.36198846 -0.06313942 -0.31636623 0.15541582 0.0399421 0.26352772 -0.069084 0.1390539 0.052749652 -0.2295593 0.0073674875 -0.31998068 -0.06075858 0.021893779 -0.2616965
-0.22682211 -0.07702207 -0.090788364 0.106394604 -0.46656772 0.2981205 0.16052303 -0.28964344 0.2763352 -0.14582948 -0.08562411 0.22712597 0.26235756 -0.049406085 -0.03130983 -0.109404735 -0.16512753 0.18030936 -0.05760157 -0.19356284 -0.04596435 -0.1547982 -0.10624048 -0.20962733 0.048934627 -0.16200729 -0.12969512 -0.10643984 -0.07939291 0.119715534
-0.015993133 0.04945425 0.015860057 0.1463446 -0.21517977 -0.46300894 -0.15757418 -0.17120685 -0.28729635 0.06287849 0.04533061 0.17172407 -0.45187572 -0.03239298 0.11815042 0.20382105 0.26631597 0.21344496 -0.12541619 -0.09004948 0.063231826 -0.34416696 -0.17801648 0.11055821 -0.22168595 0.24513637 0.22284819 0.034207325 -0.114667766 0.10428871
-0.23162532 -0.16231903 0.10666631 0.079587 -0.2996438 0.11583571 0.15301737 0.33863005 0.12057326 0.14807986 0.006913003 -0.10239656 0.30310285 -0.09255263 0.22224994 -0.029549524 -0.12785414 0.020195842 -0.29338363 0.03814661 -0.018221153 -0.17442729 -0.51239455 -0.3114445 0.27057222 0.1550317 0.091586314 -0.12289008 0.17170271 -0.12136225
0.062186208 0.35841364 0.24549067 0.03376519 -0.19166449 -0.1485779 -0.17091806 -0.13602214 0.22411959 0.24784414 0.08609881 -0.18117104 -0.008213632 -0.34634084 -0.09368779 0.1244835 -0.13378917 0.26714423 -0.08890275 -0.05542993 0.24661958 0.1679196 0.09449344 0.13110168 -0.29727474 -0.3312603 0.0685012 0.073781885 -0.219658 -0.2548054
