
#ifndef ARRAY_DEFINITIONS
#define ARRAY_DEFINITIONS_H

int fc1_bias[] = {13, -308, 574, 159, -299, 1126, -404, 71, 1013, 578, -474, 986, 708, -1446, 629, 381, 412, 952, 54, 22, -559, -32, 975, -210, 645, 500, 4, -163, 681, 408};

int fc2_bias[] = {343, -423, -214, -4, 438, -126, 175, 103, 73, 173, -447, -794, 343, -1674, 576, 151, 525, 85};

int fc1_weights[30][784] ={{284, 120, 242, 254, 453, 254, 686, 268, 166, 471, -103, -299, -26, -307, -219, -12, -238, -1, -276, 285, 201, -58, -10, -181, 224, 691, 378, 307, 155, 117, 201, 158, 334, 508, 265, 49, 180, -116, 189, 215, -150, -169, 53, 43, 192, -38, 354, 322, 528, 180, 439, 446, -56, 108, 221, 440, 95, 391, 341, 307, 80, 274, 331, 379, 372, 199, 136, 401, -155, -161, 46, 18, 100, 110, 149, 48, 329, -80, 239, 369, 127, 333, 626, 360, 180, -6, -92, 325, -154, 233, 329, 191, 9, 331, 98, 413, -27, 69, 88, 162, 300, 312, 111, 100, 170, 154, 252, -20, 444, -77, 427, 268, 159, 248, -55, 327, 89, 232, 349, 384, 126, 198, -36, 95, -104, -177, 399, 471, 317, 384, 95, 442, 483, 431, 609, 148, 642, 506, 133, 310, 256, 284, 45, 214, 38, 47, 197, 139, 361, 241, 395, 346, 98, 99, 49, 96, 110, 421, 449, 597, 539, 482, 191, 170, 342, 200, 168, 755, 34, 68, -107, 168, 51, 103, -11, 201, 291, 32, 75, 120, 259, 407, 379, 35, 76, 166, 234, 31, 146, 90, 278, 76, 89, 175, 369, 398, -138, -95, -219, 55, 248, 172, 287, 118, -7, -45, -271, -628, -396, -232, -383, 140, -527, -383, -537, -513, -337, -47, 186, 47, -171, 75, -139, 77, 269, -254, -146, 47, 120, -121, 60, -39, -149, -348, -113, -134, -295, -446, -419, -534, -473, -690, -733, -980, -696, -698, -781, -476, -743, -489, -507, 322, 83, -46, -158, 36, -141, -151, -155, -227, 88, -313, -112, -315, -258, -293, -457, -630, -613, -606, -533, -988, -804, -1394, -902, -1096, -772, -828, -410, 240, -61, -269, 146, -91, -75, -37, -304, -128, -102, -68, -113, -493, 206, 37, -98, 160, 79, -106, -223, -200, -864, -823, -865, -635, -470, -570, -544, -97, -30, -200, -23, 178, 159, -188, -43, -16, -140, -293, -221, -285, -88, -154, -58, -1, -1, 111, -376, 96, -227, -106, -137, -371, -258, -544, -469, -213, -93, -231, -35, 0, 131, 35, 85, -181, -229, 5, -96, -115, -126, 314, 143, 186, 135, -62, 54, -156, -103, 160, -500, -575, -367, -420, -234, 255, -172, -102, -267, -192, -72, -288, -110, -380, 199, 120, -98, -109, -271, -57, 167, 13, 20, -1, 252, 212, 200, 7, 78, -19, -52, -97, -32, 258, 54, 28, 113, -142, -279, -150, -574, 150, -126, -149, -82, 460, -67, 51, 276, -75, -96, 208, -138, 477, 66, -5, 18, 108, 158, 371, 49, 420, 109, -78, -337, 57, 218, -151, 10, -27, 128, -2, 344, 42, 18, -18, 17, -57, 60, -198, 14, -239, 5, -66, 206, 187, -290, -4, -144, 428, 204, -160, 0, 144, -234, -52, -80, 131, 256, 312, 166, -80, -26, 30, 364, 404, -33, -71, 123, 112, 371, 371, -217, 64, -101, -28, 74, 345, -26, -473, -213, -227, -301, -57, 238, 170, 7, 122, 512, 447, 280, -50, -19, -73, 96, 120, 407, -238, -89, 77, 9, -20, 181, -59, 123, 499, -108, -338, -618, -310, -252, -188, 184, -303, -18, -231, 92, 69, 114, 84, 62, 293, 50, 231, 390, 227, 205, 251, 58, -172, 33, 49, 127, 353, -99, -170, -559, -346, -135, -463, -295, -186, -360, -435, -344, -467, 32, -64, -64, -80, 82, 344, 170, -77, -194, 24, 16, 280, 652, -135, 93, 159, -64, -293, -679, -262, -247, -345, -508, -166, -295, -483, -204, -204, -169, -343, -265, 188, 258, -76, -431, -192, 125, -65, -25, -126, -152, 72, -142, 384, 405, 244, -600, -720, -178, -354, -370, -167, -395, -138, -142, -253, -69, -117, 176, -36, -248, 79, 119, -102, -146, -310, 21, 81, -425, -75, -25, 128, 459, 483, -11, 91, 40, 225, 152, -20, -96, -91, 28, 57, -16, -35, -50, 157, 7, -198, -211, -157, -177, -371, -214, -52, -241, 309, 424, 79, 521, 579, -75, 458, 79, 181, 395, 315, 370, 94, 115, -50, 35, -131, -270, -128, -157, 21, -223, -79, -33, 119, -189, -347, 254, -76, 15, 38, 490, 603, -15, 0, 156, -147, -15, -2, -64, -145, -337, -308, -272, -279, 109, 130, 49, -37, -75, 145, -345, 146, -30, -23, 254, -298, -38, -34, 237, 23, 19, 207, 347, 55, -83, -312, -189, -76, -167, -43, -219, -168, 24, 54, -21, -83, -106, 309, -173, 105, -27, -76, -90, -114, -10, 217, 291, 87, -28, 132, 349, 156, 250, -101, 9, -259, -154, 128, -149, 71, -107, 41, -197, -287, -310, -190, -415, -39, -454, -331, -9, -266, -86, 159, 321, 163, 411, 560, 29, -122, -11, 43, 193, -39, 188, -145, 324, 528, 260, 482, 492, 396, -223, 141, 29, -37, -147, 187, -276, 57, 173, 273},
{178, 136, 22, 289, 5, 31, -62, -8, -194, -314, 34, -75, -192, -421, -601, -169, 452, 764, -348, -251, -169, -175, -141, -183, -34, 227, 258, 136, 166, -106, 291, 286, 31, 191, 495, -11, -201, -120, -277, -128, -117, -610, -717, -350, -389, 95, -9, -623, -557, -545, -554, -454, -120, 37, 204, 254, -30, 138, 221, 136, 142, -345, 78, 91, 108, 121, -128, -211, -678, -88, -480, -396, -677, -285, -266, -668, -227, -249, 1, -50, 168, 47, -37, 231, -102, -141, 405, -289, 81, 578, 70, -153, 235, 101, 150, -285, 140, -16, -352, -581, -55, -103, -70, -214, -30, 182, 0, 89, 112, -98, -76, -96, 89, 501, 150, 16, -16, 320, 312, 462, 100, 501, 618, 196, -368, -117, -459, -41, -78, 111, 172, -172, 171, 276, -49, -122, -319, 245, 201, -187, 69, 294, 303, 379, 143, 492, 239, 84, 122, 325, -110, -36, 163, 452, -327, -13, -219, -320, -5, 338, 33, 131, 239, 391, -65, -67, 200, 130, 314, 0, 570, 266, 399, 155, -178, 54, 80, 368, 369, 127, 127, -189, 202, 272, 460, 336, 278, 291, 309, 175, 570, 87, 311, -105, 72, 802, -286, -22, -320, 686, 36, -110, 345, 40, 206, 157, 215, 438, 302, 95, 207, 186, 71, 199, 166, 477, 0, 258, 336, 170, 314, 83, 503, 514, -65, -484, -27, -50, 104, 296, 189, 681, 222, 183, 193, 339, 235, 455, 3, 423, 369, 246, 218, 442, 531, 246, 501, 657, 279, 524, 472, 390, 222, -502, 357, 145, 48, 354, 262, 282, 83, 213, 245, 78, 60, -83, 161, 308, 347, 42, 277, -70, 267, 379, 47, -38, 91, 34, 171, 331, -288, -356, -44, 43, 324, 345, 344, 246, 531, 186, -171, 258, 142, -27, -22, 148, 308, -117, -405, 6, -9, 134, -29, -190, -190, 211, -101, -43, 240, -173, -45, -311, 154, 65, 272, -663, -361, -50, -113, -125, -271, -133, 31, -383, 228, 354, -192, -345, 94, 160, -309, -426, -258, -531, -355, -160, 119, -263, -82, 92, -375, -111, -39, -66, 186, -168, -139, -88, -312, 25, -10, -96, -258, 179, 66, -414, -75, -424, -522, -300, -362, -707, -770, -56, 148, -611, 166, -325, -788, 85, -151, 21, 144, -152, -71, -351, 42, -329, -191, -139, 0, -488, -424, -352, -542, -334, -343, -479, -373, -387, -669, -131, 99, -147, 159, 12, -21, -62, 67, -213, -220, -57, 25, -136, -387, -55, -21, -418, -334, -383, -319, -419, -208, -82, -205, -165, 188, -42, -197, -63, 19, -422, -115, -48, -70, -120, -190, -211, -429, -64, 297, -172, -256, -138, -209, -6, -151, -123, -286, -338, -605, -279, -204, -106, -196, -293, -451, -46, 288, 28, -134, -209, 37, 52, -151, -555, -312, 89, -2, 55, -29, -30, 69, 3, -268, -51, -66, 64, -6, 12, -98, 450, 39, -12, 151, 183, 24, -532, -191, 96, -147, -485, -200, 44, 195, -137, 104, 165, -274, -53, -202, 73, -180, 105, -419, 59, -26, -126, 64, 34, -18, 317, 252, 354, 283, 116, 255, -65, 147, 145, -130, 66, -125, -93, 86, -85, 206, 214, 148, -48, 62, 36, -331, -117, 254, 217, 220, 307, 256, 59, 408, 285, 285, 264, 89, 265, 272, 11, -251, 130, -265, 17, 58, -30, 44, -63, 15, 68, 144, 346, 93, 254, 402, 217, 281, 164, 868, -82, -213, 203, 285, 336, 472, 218, 93, 70, -108, 51, 149, 214, 110, -93, -109, -53, 314, -78, 283, 93, 485, 163, -81, 127, 212, -341, 53, -6, 68, 555, 67, 20, 31, 57, -201, 16, -258, -97, 379, -188, 180, 118, -114, -30, 56, 75, 192, 26, 470, 35, -90, 113, -83, -252, -210, 164, -104, 20, 63, -21, 290, 253, -85, 105, -234, -118, -162, -24, 212, 54, 142, -79, -386, -137, 40, 175, 232, 49, -41, -362, 147, -170, -79, -24, -129, 101, 98, 154, 47, 258, 206, -63, -63, -43, 215, -220, 1, -222, 259, 128, -36, -43, -173, 143, 21, 100, 335, 476, -395, -398, -352, -6, 90, 177, 97, -247, 150, -21, -140, -101, 197, -102, 139, -252, -70, -8, -212, -261, -5, -100, -60, 84, -18, 31, -111, -407, -457, -75, 409, 235, 82, 64, -107, -104, -379, -543, -242, -149, -15, -151, -228, 350, -58, -415, -201, -79, -373, -231, -240, 163, 63, 190, -620, -135, 19, -313, 507, 299, -82, 436, -113, -333, -98, -155, -352, -492, 281, -19, 120, 181, -42, -191, -174, -331, -234, -63, -154, -81, -136, -262, 111, 334, 98, 152, 475, 99, -81, 65, 180, -65, 136, 12, 94, -245, -220, 211, 171, 144, 137, -161, 94, -22, 433, 262, 31, 356, 24, 293, 238, 307, 315, 416, -376, 237, -11, 231},
{341, 368, 277, 91, 347, 526, 548, 457, -7, 76, 403, 83, -45, 196, 368, 26, -52, 158, 67, -10, 227, 382, 119, 443, 422, 383, 207, 415, 333, 254, 59, -105, -169, 280, 4, -86, 319, -64, 102, 86, -461, -111, 205, 65, 137, -137, 90, -21, 47, -28, 62, 340, 256, 11, -83, 331, 265, 280, 284, -443, -162, -164, -390, 162, 99, 171, -94, -65, -217, 93, -154, -70, 25, -55, 24, -143, -97, -56, -219, 7, 132, 127, 169, 197, 226, 207, -176, -466, -82, 266, -166, -195, 182, 172, -173, 57, -274, -95, -48, -90, -288, 41, -368, -139, -89, -257, 60, -274, 6, 6, 15, 243, 186, 142, -291, -258, 283, -257, -469, -260, -46, -74, 136, 92, -13, 45, -89, -165, 45, -90, -427, -14, -48, -5, 350, -56, 154, -77, -71, 305, 303, 337, -378, 54, 19, 5, -457, 71, 89, 492, -40, -450, 246, -115, -339, 96, -91, -81, 153, -57, -90, -316, -496, -278, 47, 406, 377, 373, 272, -30, -13, -242, -228, 28, -120, 139, 221, -143, 18, -135, 145, -150, -150, -206, -363, -187, -269, -104, 101, 155, 143, -150, 264, 70, -125, 223, 346, 70, -238, -240, 175, 3, 196, 137, 15, -113, 177, -138, -466, -61, -78, -47, -280, -285, -123, -145, 163, 334, -193, 19, 415, -124, -292, 18, 247, 302, -196, -131, 148, -71, -43, 112, 239, -90, 90, -46, -70, 391, 274, 137, 157, 130, -178, -48, 41, 41, 12, 329, 42, -219, 25, 134, 569, 239, 355, 168, 256, 61, 449, 227, 101, 9, 192, -9, 176, -65, 352, 368, 462, 494, 232, -187, 249, -34, 179, 563, 574, -413, 273, 223, 472, 98, 254, -79, 260, 26, -84, -167, 244, -116, 361, 45, 332, 545, 325, 225, -162, 132, -2, 245, 624, 445, 421, 170, 170, 238, 143, 400, 44, -43, 160, 211, 550, 243, 46, -45, 58, 90, 127, 227, 279, 414, 315, 333, 424, 23, 249, 668, 89, 180, 420, 168, 13, -71, 178, 338, 350, 228, 694, -91, -169, 107, -77, -116, 25, 135, 208, 214, 231, -44, 57, 323, 3, 254, 58, 56, 106, 201, 376, 294, 137, -195, 17, 348, 437, 220, 54, 592, 181, 422, 250, -16, -63, 1, -39, 496, -21, 163, 265, 210, 245, 115, 27, 122, 377, 173, -43, -43, -72, -162, -190, 190, 885, -193, 83, 763, 228, 650, 62, -141, 163, 286, 102, 307, 350, 501, 271, 224, 252, -33, 88, 140, -33, 40, -26, -337, -129, -70, -372, -8, 615, -59, -44, 83, 9, -221, -6, 116, 241, 421, 345, 580, 288, 197, 188, -113, 63, -58, 43, -88, -37, 43, 42, -345, 202, -13, -332, 185, 329, 65, -125, -229, -270, -195, -458, -117, -216, -376, 140, -267, -172, -349, -217, -123, 107, 62, 29, -318, -57, -211, 217, -43, -35, -289, -130, 27, 90, 2, -247, -588, -546, -605, -416, -719, -838, -665, -1015, -724, -536, -369, -296, -374, 200, -86, -549, -139, -212, -12, -324, -606, -498, -467, -101, -119, -119, -155, -486, -588, -822, -674, -596, -766, -1153, -652, -697, -496, -540, -347, -665, -660, -596, -172, -334, 286, -130, -121, -508, -244, -245, -387, 12, 102, -322, -521, -594, -645, -636, -667, -561, -519, -371, -108, -314, -464, -657, -597, -671, -244, -193, -601, -134, 109, -109, -325, -375, -277, -360, -567, -323, 292, -90, -345, -611, -589, -675, -619, -446, -96, -418, -351, -64, -276, -73, -426, -378, -47, 211, -181, -94, 80, -84, -296, -285, -270, -105, -287, -194, 331, 195, -227, -443, -438, -534, -140, -56, -98, -322, -129, -5, -246, 113, 90, 66, -37, 12, -120, -193, -155, -93, -100, -77, -206, -231, -148, -449, 233, 185, -45, -183, -268, -359, -174, -270, -80, -302, 59, -234, -31, -70, 101, 202, 388, 218, 16, 315, 38, 156, -99, -191, -166, -357, -196, 364, 345, 458, 218, 89, -106, -20, 94, -25, -77, 140, 26, 229, 355, 316, 263, 174, 170, -94, -313, 71, 70, -199, 597, 459, -173, -566, 100, 359, 427, 207, 305, -40, -328, 37, 150, 92, -103, 597, 10, 171, 74, -63, -28, 32, -23, 45, -61, -119, -170, -3, -94, 306, 415, -14, 183, 158, 416, 457, 284, 205, -296, -347, -110, -29, 11, -17, -61, 268, 76, 311, 105, 144, -143, 240, 52, -74, -214, 315, 429, -91, -291, -414, 30, 315, 330, 412, 452, 291, -62, -122, -58, 29, 153, 420, 274, 179, 77, 164, 130, 104, -105, -143, -10, 30, -118, 331, 57, 234, 127, -250, 184, 269, 454, 330, 365, 357, 168, 229, 170, 229, 233, 341, -36, 447, 443, 390, -183, 75, 253, -14, -71, -431, 94, -117, 382, 117, 302, 131, 187, 372, 315},
{-98, 34, -166, 79, -143, 26, 201, -65, -153, -181, 106, -567, -609, -346, -140, -298, -598, -331, -245, -428, 3, -82, 262, -20, 28, 154, 162, -46, -36, 180, 224, 269, 119, -52, -104, -323, -288, -261, -438, -504, -329, -422, -460, -300, -381, -424, -361, -337, 102, 96, 33, -99, -274, -134, -96, -156, -44, 99, 242, 110, -76, -243, -508, 157, -100, 7, -230, -320, -327, -385, -326, -364, -537, -354, -80, -30, -240, -26, 264, 243, 50, 152, -1, -231, 95, -28, -301, -387, -447, -30, -128, -158, -38, -387, -143, -210, -407, -500, -443, -330, -413, -28, -82, 161, 216, 229, 403, 379, 606, 196, 213, 114, 228, 29, -147, -101, -60, -261, -453, -190, -188, -34, -103, -152, -169, -284, -249, -184, -61, 120, 249, 167, -3, 183, 240, 417, 435, 143, 317, 61, -255, -31, -119, 240, 138, -196, -137, -217, -51, -59, 174, -502, -119, -351, 34, -216, -277, 38, 0, 102, 337, -9, 77, 41, 58, 436, 222, -188, 125, -208, -99, -114, 123, -77, -288, -62, 11, 281, -248, -143, -233, -132, -203, 30, 39, 77, 31, 156, 280, 55, 84, -10, -304, -210, 73, -122, -156, -167, -93, -112, -130, -302, -101, 126, 209, -146, 45, 120, -103, 63, 31, -15, -182, 11, 339, 0, 102, 173, -62, -156, 200, 39, -81, 252, 137, -131, -353, -157, -317, -84, -131, -215, -386, -230, -26, -156, -128, 239, 442, 106, -172, -81, 114, -41, 204, -89, -324, -301, 33, -20, -302, -92, -204, -487, -615, -203, -251, 228, -473, -396, -121, 76, 114, -236, -173, 232, 105, 200, 42, -202, -351, -249, 42, -91, -281, 0, -99, -315, -321, 34, -312, -387, -243, 92, 204, -4, -135, 52, 31, 159, 109, -135, 89, 417, 299, 287, 64, -293, -195, -203, -192, -45, -415, -54, 86, -381, -654, -105, 192, -458, 80, 154, 14, 334, 442, 70, -40, 161, -99, -188, 215, 227, 591, 60, 165, -38, -83, 77, 144, -294, 145, -53, 49, -259, -182, -219, 26, -129, 109, -285, -166, 502, 332, 135, -22, 66, -89, -75, 83, 241, 178, 355, 1, -111, -92, -78, -193, 124, 320, -92, 33, -192, -49, 18, -259, 19, 109, 51, 420, -172, 141, 422, 467, -81, 12, 259, -49, 229, -55, 204, 51, 185, 91, -23, -380, 34, 88, -6, 54, 118, -50, -238, 271, -23, 131, 340, 183, 286, 341, 114, 10, -177, -189, -167, -77, 201, 239, 34, 158, -180, 195, 54, -416, -202, -109, 97, 326, -227, -347, -468, 323, -335, 166, 447, 90, -82, 156, 144, -2, 234, -136, 109, -93, 450, 370, 153, -43, 143, 21, -134, -88, -113, -36, 20, -67, 0, -402, -94, -300, -288, -151, 315, 261, 219, 272, -15, -535, -162, -182, 109, 218, 367, 229, 284, 2, 39, -118, -172, 38, -190, -505, -146, -145, -160, 106, -159, 213, -201, 36, 165, 168, -226, -183, -410, -411, -251, -181, 116, 160, 277, 63, -209, -207, -71, -87, 255, 286, 62, -421, 105, -194, -178, -1, 331, 60, 270, -88, 161, 109, -72, 23, -304, -9, -195, 91, 256, 188, 565, -32, -67, -32, -87, -254, -147, -70, 86, -382, -330, 217, -272, -40, 54, 229, -58, -68, 154, -204, -385, 340, -240, -213, -224, 59, 121, 325, -15, -50, 111, 302, -326, 187, -261, 16, 63, 63, 232, -104, -498, 106, 32, 112, 26, -258, 105, 104, 161, 236, 108, -208, 31, 230, 44, 86, 158, 10, 173, 275, 75, -307, 57, -233, 537, 159, 292, -163, -77, -20, 126, 90, -14, -180, -87, -321, -253, -56, -242, -1, 7, 14, -39, 215, 55, 344, -127, 363, 190, -208, 27, -352, 91, -137, 99, 68, 36, -30, -151, 101, 166, -160, -109, -18, 280, 159, -138, -176, 154, 126, 159, 32, 225, 245, 433, 105, 326, 490, 238, 35, 314, -85, 213, 234, -210, -42, -26, -265, 328, 131, -58, -38, 165, 84, -240, 206, 116, 225, 216, 403, 159, 586, 282, 216, -304, 389, 139, 38, 341, 180, 336, 209, -1, -362, -159, -201, -170, 55, 74, -286, -65, -174, -197, 290, 56, 285, 299, 135, 250, 364, 74, 367, 8, 408, 0, 184, 340, 290, 203, 79, 219, -413, -267, 103, 22, 142, 243, 3, 110, -287, 13, 56, -40, 336, 195, 353, 105, 471, 183, 284, 143, 31, 45, 325, 213, 449, 335, 274, 91, 12, -6, -92, 463, 464, 55, -57, -67, 99, 50, -12, -62, 387, 99, 4, 66, 484, 295, 321, 69, 71, 196, 312, 183, 14, 228, 356, 375, 257, -1, -146, -18, 118, 273, -285, -403, 82, 55, -260, 19, -274, 376, 101, 299, 176, 304, 90, -190, -275, -92, -83, -80, -507, 191, -141, 518, 218, -73},
{500, 385, 296, 23, -334, -220, 0, 184, -89, 116, 194, 518, 578, 315, 487, 190, 41, 155, 283, 35, 590, 521, 361, 296, 240, 373, 440, 489, 452, 37, -93, -396, -693, -154, -260, -266, 4, 272, 144, 184, 249, 453, 464, 213, 417, 539, 200, 244, 445, 20, 80, 72, 182, 213, 290, 375, 242, 65, -126, -489, -234, -371, -172, -683, 32, -61, -37, -38, 132, 274, -88, 322, 25, -100, -71, -168, -79, -319, -223, -293, -93, -109, -214, 314, 193, -153, 77, -337, 15, -51, -167, -179, -281, -181, 164, 5, 94, -141, 349, -254, -9, -157, -429, -491, -97, -605, -346, 52, 92, 136, -13, 275, 17, -362, -307, -312, 51, 193, 159, 178, 363, -2, 286, 198, 433, -185, -314, -443, -700, -393, -734, -530, -516, -774, -268, -177, -122, -161, -271, 102, -44, -730, 120, -142, -352, -88, 345, -16, 321, 199, 5, 192, -65, -61, 69, -359, -642, -788, -717, -784, -264, -306, -442, -187, -389, -733, -420, -52, -213, -445, -185, 397, -515, 16, 340, 251, -1, 70, 37, 22, -92, 205, -316, -243, -422, -768, -454, -328, -128, -882, -687, -365, -261, -533, -522, -23, 72, -427, -14, 136, -20, 270, 117, 73, 25, -179, -182, -113, -112, 72, -324, -341, -200, -251, -592, -313, -220, -533, -735, -593, -329, -493, -353, -42, 127, 197, 46, -168, 268, 148, 78, -131, 51, -64, -299, 108, 164, -73, -386, -459, 97, -215, -82, -186, -636, -203, -345, -582, -514, -756, -193, -125, 85, -154, 73, -119, -179, -473, -278, -425, -80, -258, -353, -103, -180, -202, 207, 139, 62, -2, -453, -186, -69, -402, -599, -90, -107, -693, -317, 160, 72, -526, -279, 235, -59, -443, -10, 17, -106, -93, -22, -142, -113, 83, 314, 22, 135, 82, -86, -346, -164, -40, -311, -336, -80, -157, -282, 28, 29, -404, -61, -218, 13, -204, -33, -267, -81, 263, 53, 354, 66, 87, -244, -172, 248, -90, 166, -69, 257, 123, -41, 217, -363, 100, -349, -83, -50, -119, -429, -114, 66, -192, 175, 91, 123, -142, -13, -9, 294, -220, 50, 123, 7, -65, -121, 182, -182, 95, 90, -62, -6, -3, -518, -264, 203, -112, 0, -98, -181, 66, 35, 200, -192, 88, -255, 205, 69, -37, 42, -57, 32, 4, 56, 196, -124, 95, -158, 129, 219, -192, -248, 168, 128, -203, 12, -63, -212, 326, 197, 0, 287, -151, -54, -152, -36, 180, -73, 98, 73, -101, 22, -6, 71, 241, 64, -60, 127, -397, -34, 8, 37, -91, 339, 80, -149, 316, -110, 74, -47, -83, -30, -60, 202, -196, -61, 112, 13, -165, 157, -19, 384, -204, 120, -96, -95, 176, -202, 98, -59, 234, 274, -118, -260, 343, -21, 315, 103, -19, 262, 441, -73, 64, 24, 31, 71, 319, -156, 63, -165, 144, 424, 103, -8, -252, -26, 344, -121, -43, 135, -283, -132, 137, -8, 203, 35, 187, 208, -278, 63, 161, -36, 100, -10, 75, -339, 85, -77, 188, 46, 70, 70, 153, -45, 260, 232, -40, 153, 350, 287, -9, 46, 461, 26, 102, 301, 20, 23, 117, 286, 143, 98, 150, -59, -355, 210, -267, 246, -208, 184, 116, 79, 591, 392, -36, -170, -71, 124, -53, 10, 83, 69, 366, 317, 106, 78, 304, 166, 257, -6, 47, 72, 65, 204, -134, 210, 415, -344, 97, 360, 531, 286, -114, -218, 217, 153, 272, -251, 215, -31, 24, -136, -35, 318, 164, 84, 77, -28, 58, 46, -101, 105, -57, 1, 347, 308, 285, 399, 129, 549, 279, 168, 575, -22, -139, 218, 72, -244, 313, 85, -30, 71, 197, 194, 168, -305, 26, 140, 323, -95, 204, -79, -105, -11, 490, 62, 184, 224, 2, -41, -156, 221, -191, 344, 187, -101, 153, 380, -140, -39, 52, 301, 9, 46, 156, -195, -101, 33, 183, 414, 96, -154, 110, 362, 524, 334, -249, -308, -444, 11, -180, 109, 281, -15, 197, 59, -96, 138, 285, -88, 39, -77, 354, 168, 332, 27, -68, 255, 23, 236, 182, 228, 266, 287, 157, -39, 124, 124, -133, 16, -124, 13, -167, 1, 517, 210, 352, 328, 13, 177, 139, 425, 43, 163, 233, 59, 213, -177, -129, 99, 446, 350, 453, -158, -170, -291, -232, -133, -187, 222, 73, -206, 114, 2, 217, -121, 189, 163, -111, -140, -106, 192, -20, 56, -34, 103, 86, 496, 151, 565, 553, 29, -76, -91, -68, -376, 54, -239, -91, -39, -243, 48, -4, 95, 21, 453, 122, 92, 203, -119, -132, 371, 235, 161, 208, 47, 205, 579, 506, 200, -94, 224, -88, -451, -369, 95, -209, 92, 174, 430, 415, 114, 148, 591, 210, 508, 396, 131, 382, 476, 381, 590, 230, 323, 434},
{-262, -280, -103, -118, 73, -203, 95, 141, -59, -308, -125, -185, 127, -297, -348, -144, 268, 208, -65, -40, -267, -282, -30, -113, 37, -110, -350, -264, -382, -130, -227, 187, -82, 92, -207, 18, 147, -234, -219, -324, -312, -230, -307, -12, 105, 289, -29, -210, -186, 174, -158, -25, -43, 123, 214, -206, -83, -211, -233, -310, -210, 7, -439, -138, -273, -169, -88, -117, -232, -641, -381, -197, -341, -242, -22, -198, -111, -184, -199, -56, -70, 143, 166, -132, -237, -101, -2, 98, -233, 198, 111, 1, 113, -310, -376, -288, -332, -248, -349, -26, -286, -347, -38, 75, -99, -299, -101, -69, 35, -148, 95, -126, -49, -173, -497, 89, -81, 7, 176, -35, -130, -208, -375, -155, -216, 61, -31, -121, -302, -127, -50, -87, -251, -224, -231, -116, -139, 290, 504, 30, 171, -84, -93, -87, -295, 96, -16, 238, 89, 117, -34, -123, 151, 252, 75, -208, 139, -92, 236, 206, 128, 31, 339, 155, -2, 55, -118, -44, 211, -36, 362, -400, 142, -35, -262, -120, 402, 20, -263, -356, -300, -80, -104, -21, 123, -469, -8, -99, 117, 222, 309, 189, -151, 281, -100, -161, -129, 10, 69, -167, -62, 14, -193, -266, -238, 24, -258, -109, 66, -333, -321, -127, 95, -434, -146, -394, -16, -249, -141, -110, 272, 273, 437, 150, -71, 204, 399, -267, 91, 114, 92, -26, 179, -70, -169, -177, 164, 252, -158, -192, 39, -300, -396, -206, -158, -169, 70, -106, -54, 349, 98, 136, 134, 91, -256, -128, 145, 99, -177, 193, -67, -156, -270, 100, -83, -146, -75, -44, -28, -342, -489, 30, -28, 42, 171, 200, 86, 87, 193, 283, 143, 424, -99, -161, 257, -48, 80, -287, 164, -41, -104, -62, 61, -93, 42, -139, -342, -362, -592, -39, -223, -101, 255, 354, -23, 146, 145, 51, -33, 74, -68, -78, -123, 102, 336, 326, 280, -167, 308, -110, -376, -213, -82, 161, 24, -242, -712, 167, 59, 166, 186, -216, 387, 405, -47, 39, -213, 139, 57, 86, -27, 250, 152, -21, -50, -91, -50, -10, 80, 4, -264, -46, -164, -572, -472, -133, 108, -91, 282, 251, 387, 141, 263, 109, -113, 121, 246, -78, 14, 73, 37, 3, -6, 41, -461, -189, 26, -95, -125, 72, -333, -228, -480, 6, 127, 45, 496, 22, 242, 175, 82, 206, 213, 160, -254, 5, 200, 206, 452, 12, -87, -204, -180, -250, -261, -119, 38, 52, 21, -396, -660, 28, 301, 269, 433, 406, 204, 445, 50, 360, 117, 293, 184, -12, -215, 86, 160, -29, 41, -304, -302, -178, -88, -448, -56, 177, -107, -583, -250, -5, 703, 337, 237, 218, -60, 306, 16, 84, 331, 331, 173, -2, 162, 145, 77, -230, 111, 24, -103, -104, 324, -233, -41, -347, -331, -569, -146, -109, 642, 503, 291, 70, 217, -84, 378, 60, 111, 142, -431, -110, 233, -156, 120, -244, 6, 39, -239, 114, -263, -263, -101, -137, -651, -210, -88, 443, 433, 125, 160, 388, 409, 431, 323, 148, -129, 337, -82, 172, 89, 202, 110, 192, -137, -326, -478, 8, -692, -300, 87, -91, -25, -254, 540, 364, 373, 295, 194, -13, 285, 196, 145, 197, -108, -226, -85, 1, 338, 229, 38, -120, 8, 57, -71, -268, -279, -193, 63, -55, -160, 74, 446, 306, 294, 294, 241, 85, -163, 134, -15, -22, 55, 183, -374, 247, -4, 36, 11, 45, 132, 113, 85, -12, -21, -127, 182, 60, -4, -143, 504, 312, 313, 235, 267, 174, 52, 222, 251, 259, -171, 146, -31, -60, 305, -4, -125, -80, 115, 210, 126, -264, 5, 111, 20, 349, -52, 316, 332, 392, 255, 24, 298, 433, 453, -28, -239, -231, 41, 200, -344, -65, -49, 169, 68, 72, -62, 84, 204, -164, -254, 212, 66, -147, 58, 278, 493, 108, 435, 144, 154, 673, 196, -133, -305, -333, -182, 272, 142, 9, 60, 202, 192, 393, -93, 49, -89, 158, -309, -85, -38, -321, 343, 401, -138, 175, 204, 7, 67, 327, 249, -311, -559, -184, -104, 104, 92, -232, -176, 218, -66, -188, -151, 91, 288, -654, -155, -190, 171, 43, 383, 387, 291, 533, -3, 3, 139, 183, -405, -511, -334, -226, -179, -166, -136, 149, 4, -281, -13, 406, 235, 49, 167, -238, -325, 26, 35, 202, 266, 335, 220, 119, 72, 51, 91, 164, -63, -529, -298, -425, -299, 191, 240, -213, 154, 419, 263, -38, -116, -119, 57, 489, 55, 58, 165, 405, 335, 234, -8, -6, -154, 264, 161, -152, -159, 94, -303, -165, -286, -202, -99, 139, 181, -168, -204, 148, 200, -16, -211, -106, -261, 120, -21, 359, 173, 658, 480, 343, 345, 241, -171, -115, -19, -148, -293, -302},
{-1, -13, 150, -137, 174, 600, 415, 103, -79, 254, -35, 64, -154, -94, -357, -198, 238, -170, 29, 32, 131, -121, 95, -209, -254, -383, -142, -36, -98, 68, -50, 122, 181, 210, -4, -77, -53, -177, -486, -326, -451, -34, -232, 6, 135, 100, -55, -25, -246, 62, -238, -127, -181, -224, 31, 104, 65, 39, 0, 386, -200, 9, -157, -72, -316, 142, -190, -546, -107, -273, -184, 1, 49, 0, 13, 0, -151, -259, -39, -95, -351, -97, -27, -5, -41, -160, 147, -116, -186, -77, 31, -31, -68, 12, -136, -235, 28, -355, -125, -106, 8, 73, -32, 123, -36, 14, 338, 327, 191, -91, -29, -43, -35, -354, 331, -167, 182, 141, -123, 50, -28, 214, -84, -190, -56, -198, -346, 63, -151, -115, 7, 98, -408, -96, -212, 133, 190, -96, 61, 123, 11, -167, -68, 136, -11, -108, 22, -257, 116, -70, -179, 61, 160, -472, 44, -198, 145, -253, -112, 40, -114, -189, -467, 60, -121, 50, 419, 0, 155, -193, -458, 110, 142, 77, 65, -120, -178, 95, 81, 23, 107, 60, -90, 56, 220, -472, -338, -221, 81, -25, 48, 211, -506, 32, 717, 204, 160, -73, -155, 113, 65, 147, 80, 139, 170, 372, 35, -81, -87, 47, 39, 18, 27, 1, 63, -44, -31, 75, 428, 445, -97, -85, 576, 257, 426, 260, -54, 29, -244, 21, 80, 457, 9, 99, 46, -160, -46, -119, 162, 367, -99, 218, 142, 194, 271, 153, 27, 51, -34, -33, 337, 534, 245, 127, -115, -330, -52, -72, 184, 5, 92, -156, 46, -57, -22, 0, 372, 198, 248, -103, -66, 118, -165, 20, 49, 158, -232, 203, 547, 183, 65, 327, -173, 351, 180, 154, -102, -114, -89, -45, 184, -337, -222, 312, -152, 65, 193, 39, -111, -191, -114, 76, 181, 187, -92, 49, 157, 611, -119, 104, 288, -35, 279, -127, -93, 374, 163, -86, -165, -76, 144, 19, 164, 42, 0, -30, 29, 295, -7, 5, -125, -5, -206, -253, 122, 414, 11, 506, 147, 271, -228, -203, 289, -58, -22, -147, -30, 113, -76, 32, 61, -13, 147, -35, 257, -112, -92, 101, 106, 192, -359, -37, -112, 187, -98, 373, 371, 155, -111, 14, -69, -131, 113, -272, -40, -54, 49, 147, 110, -31, 176, 42, 43, 186, 404, 169, -83, -231, -171, 379, 466, 52, 569, 204, 37, -25, 17, 124, -40, 60, 118, -159, 79, -184, 84, -64, -198, 149, 30, 183, 29, -71, 123, -90, -71, -109, 3, -162, -69, -77, 289, 4, 106, -86, -297, 51, -208, -16, 203, 130, 103, 6, -133, -86, 87, -141, -9, 22, -158, 161, -229, -138, 153, 55, -372, 236, 26, -180, 165, 73, -191, -32, 26, -384, -23, -2, 55, 79, -109, 100, -69, -410, 238, -189, -80, 104, -96, 127, 92, -198, -150, -107, 26, -56, -115, -87, 215, -134, 232, -126, -52, -66, 86, 171, 67, 83, 126, 108, -276, -322, -288, 36, -128, -23, 257, 2, -78, 109, 104, -147, -32, 68, -216, -46, -16, 263, 3, 443, -7, 25, 268, 33, 340, 104, -89, -4, -543, 77, -73, -107, -101, 123, 404, -223, 86, -269, -63, -173, 114, 5, -134, -128, -47, 22, 145, -147, -411, 101, 157, 190, 126, 44, -9, 53, -329, -232, -152, 95, -39, 23, 155, -18, 124, -50, -434, -25, -247, -334, -496, -405, 98, 152, 19, -85, 9, 288, 36, 443, 393, -56, 39, -128, -260, 277, 151, -53, 328, 249, 166, 61, 112, 24, -312, 166, -146, -371, -486, -440, 106, 111, 31, 59, 49, -311, 560, 340, 118, 69, 99, -280, 261, -65, -157, 92, 182, -125, -144, 157, -55, -363, -77, -168, -210, -387, -774, -524, 18, 13, -254, 43, 80, -75, -170, 118, 400, 242, -41, 16, -1, -242, 61, 118, 120, 179, 362, 78, 43, 30, -28, -643, -693, -903, -881, -284, 370, -13, 209, 36, -176, 236, 125, -98, 243, 375, 114, 481, 184, 66, 79, 353, -9, -24, 56, 3, 8, 3, -27, -486, -630, -857, -640, -230, 79, -78, 119, -492, -16, 133, 127, 267, 129, 323, 368, 322, 428, 259, 42, -145, -181, -190, -191, 93, -64, -356, -415, -514, -986, -644, -480, -224, 128, -199, 144, 101, -92, 110, -69, 491, 275, 176, 239, 266, 351, -23, -8, -149, -217, 7, -106, -283, -178, -602, -1175, -1130, -738, -491, -107, -33, 15, 257, -61, 81, 69, 320, 0, 533, 731, 708, 383, 717, 515, 683, 398, 313, 412, 436, -182, -595, -977, -1209, -1118, -778, -382, -208, -193, -78, -103, 216, -16, -23, 91, 464, 116, 492, 377, 423, 565, 400, 522, 270, 452, 320, 215, -139, -207, -76, -536, -352, -281, -129, -145, -175, -133, -24},
{519, 507, 475, 340, 195, 460, 92, -166, -401, 456, -192, 335, -230, -271, 105, 122, -159, 276, 182, -244, -192, 222, 94, 1, 192, 354, 221, 478, 486, 427, 181, -185, -151, -158, 70, 317, 166, 64, -82, -142, -351, -343, -266, -91, -54, 91, 113, -5, 149, -174, -143, -91, -103, 140, 106, 325, 493, 263, 226, -308, -309, -468, -239, -203, 146, -341, -38, -341, -451, -435, -229, -368, -160, 99, 273, -125, 272, -26, 168, 48, 64, 83, 152, 158, 419, 40, -183, -303, -55, -151, 208, 9, 103, 89, -403, 24, 63, -455, -775, -500, -150, 285, 285, 144, -169, 130, 339, 140, -263, -246, 186, 504, 271, -53, -331, -84, -290, -169, -273, -5, -256, -175, 124, -367, -231, -382, -680, -120, -138, 246, 20, 342, 237, -26, -411, 233, -201, -91, -86, 438, 386, 36, -178, -95, -20, 31, 78, -104, -445, -21, -162, 33, -111, -670, -527, -364, 292, 358, 34, 610, 17, 18, 10, 134, -142, -70, 149, 307, 466, -28, -427, -418, -165, -522, -20, -441, -160, -307, -337, -146, -319, -376, -455, -75, 642, 510, 315, -73, 72, 0, 282, 259, 4, 60, 46, 3, 553, -219, -201, -384, -71, -399, -469, -280, -550, -665, -243, -248, -96, -468, -299, 197, 309, 8, 245, 391, 80, -227, 162, -139, 121, -96, -25, 104, 572, -192, -338, -186, -170, -249, -402, -287, 126, -50, -124, 21, -25, -298, -385, -106, 293, 259, -25, 410, 224, -158, 27, -414, -401, -82, 80, 114, 397, -112, -466, -318, 90, -181, 276, -195, -365, -313, 91, 160, -399, -248, -517, -463, 313, 186, 42, 66, 12, -159, -40, 93, 141, 202, 173, 94, 363, -361, -52, 62, 453, -264, -707, 65, -88, 189, 43, -240, -185, -782, -80, -360, 12, 375, 183, 113, 168, 588, 127, -324, -126, 150, -27, 28, 329, -386, -608, 246, 24, -52, -187, 134, -278, 328, -241, -146, -168, -316, -36, -115, -126, 522, 188, 208, 67, 318, 234, -119, -127, -257, 250, 107, 57, -323, -349, -245, -396, -84, -151, 15, -244, -316, -184, -250, -222, -133, -205, -58, -236, 219, 124, 491, -25, -115, 60, 336, -39, -348, -282, 153, 223, -175, -408, -189, -331, -62, 7, 142, -92, -161, 169, -41, -38, 24, -152, -73, -339, 4, -124, 164, 221, -106, 267, -72, 59, -93, 173, 189, -10, -176, -512, -535, -130, -32, -208, 143, 112, 120, 57, -105, 38, -140, -195, -115, 19, -105, 235, 156, 68, -202, 393, 225, 488, 84, -148, 52, 107, 72, -122, -196, -262, -65, 135, 275, -39, -255, -86, 210, -124, -78, -106, -395, -240, -5, -157, 257, 88, 294, 113, 57, -17, 26, 191, 79, 310, -318, -473, -161, -388, 26, -90, -60, 55, 189, 24, -132, 5, 111, 321, -111, -274, 142, 344, 257, -254, 380, -44, 85, 103, -112, 260, 285, 0, -407, -139, -423, -326, -123, -57, 2, 80, 15, 18, -59, 7, 7, -255, 43, -102, 197, 442, 58, 194, 140, -140, 54, 198, 44, 195, 103, 228, -600, -255, -140, -498, -116, -86, -57, -94, -40, 148, -63, 315, -93, -391, -179, 9, 140, 231, 217, 408, 206, 114, 5, 281, 134, 108, 650, 343, -387, -345, -37, -357, -125, -290, -325, -365, -72, -45, -448, -211, -299, -356, 129, 389, 197, 436, 221, 367, -140, 0, 69, 641, 197, 303, 745, 125, 65, 67, -195, -246, -365, -366, -643, -308, -524, -160, -259, -311, 214, 195, -359, -13, 789, 343, 132, 110, 775, 26, 305, 302, 62, 55, 464, 234, 316, 198, 195, -144, 248, -208, -241, -317, -409, -295, 10, -351, 29, -92, -481, 37, 227, 15, 408, 159, 446, -116, -9, 117, 53, 92, 311, 106, -180, -142, 51, 234, 128, -210, -84, -285, -479, -463, -293, -555, 8, -312, -42, 34, 124, 275, 184, 65, 211, 134, 342, 390, 225, 77, 272, 234, -95, -139, 15, 9, -5, 23, -169, -146, -186, -197, -140, -65, -339, 46, 121, 418, 289, 116, -32, 279, 462, -96, 675, 44, -163, -320, 272, 312, 128, -121, -217, 56, -173, 231, -149, -138, 72, 32, 58, 27, 90, 453, 555, 226, 166, 161, 195, 280, 63, 132, 551, 57, -267, -214, 195, 116, 260, -249, -20, 34, -296, -164, 160, 46, -117, -73, -80, 341, 298, 247, 569, 418, 437, 158, 101, 27, 128, 248, -210, -168, 52, -243, 218, 405, 210, 151, -232, -231, -73, -50, 71, 23, -316, 20, 255, 398, 431, 560, 331, 353, 366, 401, 279, 250, 87, -576, -497, -41, -310, 298, 406, 443, 334, 337, 369, 528, 497, 38, -57, 472, 12, 78, 0, 226, 358, 663, 349, 201, 400, 423, 580, 591, -145, -23, 601, 199, 248, 476, 458},
{398, 410, 366, 72, 447, 320, 585, 843, 495, 90, 468, 140, 156, 143, -77, 20, -153, 13, -29, 38, 182, 290, 325, 782, 548, -3, -13, 255, 367, 48, -79, 149, 49, 294, 27, -254, 279, 91, -321, 30, 353, 252, -267, -380, -539, -323, -43, -257, -11, 79, 279, 169, 303, -120, 31, 275, 205, -42, -312, -74, -194, -126, 104, -52, 107, 85, 236, 348, 543, 105, 55, -489, -352, -182, -175, -106, -143, 201, 465, 122, 6, -147, 271, 164, 63, -132, -99, 233, -365, -51, 274, 282, 452, 537, 64, 284, 114, 174, -577, -127, -371, -251, 13, -102, -439, 149, 225, -97, -188, 274, 2, 149, 140, -62, 107, 221, 139, -143, 409, 201, 205, -97, 456, 212, -10, -185, -442, -243, -431, 5, -72, 67, 6, 116, -288, 441, -16, -98, 383, 276, 161, 106, 34, 22, 158, -299, -51, 11, -221, 52, 358, 240, 140, 385, -420, -281, -91, -193, 44, 198, -208, 42, 143, -333, -185, -140, 154, 202, 228, 202, 95, -76, -274, -248, 501, 232, 705, 310, 618, -75, -135, -546, -214, -199, -18, 242, -92, 279, -337, -101, -73, -249, 47, 339, 337, 45, 434, -87, -427, -326, -274, 118, 53, 453, 291, 261, 84, 425, -101, -724, -497, 112, -82, -84, 8, 115, 113, 37, 172, -645, -178, 51, -147, 194, 290, 59, -242, 255, 22, -65, 312, -68, -111, 36, 291, 252, -893, -620, -497, 157, 267, 129, 24, 354, -3, -10, -211, 77, 25, 258, 93, 279, 318, 167, 39, 73, 308, 66, 47, 99, -65, 61, 156, -288, -1004, -296, 70, 163, 433, -32, 151, -240, 211, -415, -82, -367, -592, -135, -35, -11, 108, 21, 144, 22, 7, 93, 152, 449, 399, 259, -62, -393, -397, 63, 107, 360, -53, 38, 147, 95, -60, 348, 256, -745, -211, -260, 7, 1, 423, 353, 201, -322, 280, 217, 474, -167, 99, 83, 105, -216, -794, -235, -326, -168, -90, 213, 120, 148, 280, 266, 134, -889, -586, -89, 242, 320, 442, 674, 519, 186, 10, -206, -92, -80, 291, 66, -93, -496, -295, 257, 163, -140, -297, 131, 36, 98, 91, 298, 391, -787, -431, -123, -165, 239, -63, -126, 79, 338, -347, 3, 51, -25, 83, -23, -235, -640, -379, 100, 330, 138, 247, -97, -95, 147, 263, 454, -255, -681, -174, -37, -242, 32, -20, -133, 145, 311, 40, -324, 61, -77, 111, -231, -247, -284, -396, 208, -142, -17, -242, -98, 279, 302, 33, -286, 274, -222, 344, 39, -134, 34, 389, 325, -537, -301, -34, 297, 42, 110, 13, -136, -169, -478, -338, -108, 64, 109, -106, 478, 341, 365, 134, -208, -237, -219, -61, 356, -128, -187, 437, 248, -26, -783, -164, 316, 377, -106, -186, 396, 244, -236, -25, 217, 86, -155, 163, -179, 123, 27, -123, 125, 49, -442, 123, -146, -352, 254, 178, 344, -280, -97, -734, -79, -194, -165, 7, 232, -408, -281, 9, -34, 71, 237, 157, 208, 475, 267, -8, -156, -137, -510, 263, 15, -103, 507, 423, 249, -78, -240, -382, -371, -282, -15, -377, -164, -122, -249, 394, 262, -14, 106, 375, 119, 187, 107, 237, -431, -94, -391, -492, -454, 51, 238, 134, 29, 194, -18, -515, -262, -127, 257, -49, -350, -10, -164, 254, 471, 57, 102, 102, -92, 83, -88, 180, -38, -12, 320, 247, -53, 87, 326, 176, 32, -157, -113, -172, -285, -51, -93, 202, -70, -253, -375, 237, 2, 125, 219, 330, -9, 84, -183, -58, -274, -5, 115, 250, -355, -395, 269, 223, -50, -125, -247, -218, 99, -257, 222, 169, -354, -261, -173, 302, 156, 299, 191, 114, 301, 493, -160, 39, -225, -179, -330, -605, 35, 14, 425, 480, -52, -161, -206, -477, -136, -338, -423, -443, -23, -207, -221, 67, 212, -27, 348, 132, 136, 62, -132, -257, -332, -370, -157, -485, -341, 214, 777, 213, 249, -62, -435, -284, -120, -448, -161, 62, -190, -22, -438, 178, 48, 103, -106, 75, -448, 55, -264, -28, -128, -28, -479, -215, -184, 180, 313, 278, 241, -24, -787, -501, 60, -16, -343, -69, -387, 30, -62, 2, -205, -90, -270, -320, 55, -404, -217, -184, -204, 345, 496, -75, 120, 160, 396, 302, -20, -233, -651, -358, -103, -303, -280, -322, -185, -356, -199, -413, -18, -156, -81, -331, -238, -70, 116, -224, 332, 72, 86, 238, 124, -26, 473, 370, 211, -395, -172, 37, -360, -544, 47, -239, -328, -249, -393, -5, -29, 277, -278, -94, -224, -108, 17, 295, 334, 62, -166, 163, 331, 462, 327, 404, 285, 95, 71, 225, -224, -192, -64, 281, 117, -14, 512, 580, 225, 474, 434, -212, 331, 225, 363, 556, 229, 396, 28, 432, 302, 294, 347},
{197, 298, 167, 439, 749, 747, 818, 431, 327, 444, 265, 283, 209, 1, 165, 94, 155, 194, -172, 158, 242, 3, -83, 271, 319, 115, 119, 108, 198, 281, 717, 553, 443, 288, 259, 164, 358, -106, -18, 26, 33, -62, -272, -368, -15, -83, -156, 339, 62, -74, 15, -197, -149, 116, 196, 51, 155, 709, 626, 532, -40, 51, -44, -105, -159, 39, -74, -216, -202, 68, -226, -3, -257, 24, 36, -148, -156, -172, -267, -294, -243, 247, 290, 256, -11, 250, 367, -191, -353, -17, -46, 239, -114, 110, 91, -151, 81, 28, 234, -32, -121, -83, -79, 131, 177, -183, -276, -420, -464, -153, -360, -34, 133, 171, 801, 436, 47, -157, -34, 107, 176, -139, 157, 112, 39, 69, 350, 170, -212, 40, 185, -54, 71, -206, -45, -214, -182, -39, -36, 643, 349, 476, 357, 246, 73, 173, 385, -112, 52, 43, -75, -18, 266, -104, 271, 99, 110, -49, 174, -399, -350, -72, -69, 198, -14, -253, -294, 241, 283, 77, -265, -201, 340, 521, 393, -284, 239, -112, -212, 0, 5, 329, 95, 33, -40, -30, 0, 50, -234, -199, -515, -92, 514, -257, -101, 216, 84, -422, -448, -30, 52, -18, -154, -150, -214, 274, 1, -215, 402, 248, 133, -278, 311, -285, -228, -198, 10, -173, -63, -149, -170, -222, 231, 50, 337, -138, -581, 65, 193, -317, 163, 181, -311, -108, -202, 284, 159, -12, -31, -40, 37, -135, -258, -29, -423, 155, -16, 19, -10, -30, -110, -163, 160, 257, -84, 53, -189, -157, -170, -80, -143, 25, 76, -211, -316, 40, -351, 213, 238, 212, -179, -473, 353, -425, 289, 171, -69, -51, -116, 286, 75, -171, 144, -113, 146, 268, 235, -97, -22, 143, -118, -351, -49, -40, 24, -226, -194, 236, -20, -289, 17, -435, 267, -176, -111, -471, -173, 117, -103, -54, -261, 205, 172, 78, 113, 152, 220, 51, -86, -187, 169, -218, -22, 256, -18, -14, 228, -337, 17, -351, -154, -311, -185, 429, 157, 199, 156, -344, -136, -469, 6, -178, -136, 61, 94, -183, 0, -23, -159, -39, -178, -257, -16, 333, 92, -251, -345, 92, -329, 71, 312, 204, -34, 264, 175, 74, -120, -641, 94, 61, -353, -276, 129, 199, -279, -355, -393, -68, -53, -71, 70, 141, 350, -57, -410, 366, -596, -4, 276, 63, -182, 180, 76, -76, -227, -129, -515, -144, 248, -55, 108, -21, -66, -84, -439, -299, -176, 13, 38, 118, 139, 132, -80, 137, 37, -170, -137, -38, -304, -110, 56, -221, 81, -323, -733, -758, 91, 427, -106, 5, -112, -61, -251, 40, -209, 14, -114, -105, 195, 88, -158, -202, -82, -645, 77, -362, -372, -87, -15, -185, -101, -316, -112, -195, -279, -101, -55, -79, -116, -293, -223, -157, -169, -296, -88, 211, -135, -210, 39, -539, -570, -183, -549, -664, -548, -6, 101, -312, -438, -84, 189, -342, -13, -460, -38, 126, -140, -329, -228, -592, 0, -294, 165, -262, 94, -508, -389, -1141, -428, -492, -562, -781, -481, -16, -114, -232, 146, 10, 506, 288, 156, -158, 196, -86, 564, -238, -234, 15, -114, -227, 87, -387, -143, -576, -938, -552, -535, -147, -783, -645, -567, 16, -14, 44, -43, 352, 305, 210, -241, 39, -103, 33, 548, 128, -185, 106, 168, -14, -184, -353, -489, -1071, -1121, -468, -436, -745, -347, -430, -119, -35, 40, 294, 169, 132, 296, -74, 629, -131, 225, 238, 12, 40, 265, 174, 12, -44, -295, -1031, -558, -1025, -425, -399, -622, -441, -314, -535, -350, 38, 159, 88, 170, 523, 96, 322, -18, 311, 68, -146, 152, -1, 241, 224, -13, -292, -112, 52, -73, -358, -360, -657, -355, -464, -238, -28, -74, 49, 197, -294, 46, -90, -85, 371, 343, 181, -29, 262, 156, 420, 438, 497, 243, 0, 64, 292, -10, 478, 54, -84, -47, 146, -89, -90, -6, 34, -241, -63, -214, 27, 439, 118, 41, 126, 181, 60, -121, -12, -114, 495, 229, 194, 746, -49, 102, 254, 510, -73, -154, -199, -117, -319, -114, 353, 357, -316, -211, -25, 5, 297, -271, 120, 288, 189, 245, 226, 462, 189, 115, 53, 590, 184, 201, 255, -17, -179, -36, -359, -164, -287, -341, -170, 295, 542, 138, 248, 508, 352, 155, 274, 355, 360, 368, 360, 259, 279, 291, 261, 240, 330, 136, 234, 181, -188, -162, -573, -195, -182, -284, 4, 481, 375, 572, 538, -59, 413, 393, 12, -6, 556, 502, 169, 251, 39, 433, 148, 582, 671, 469, 459, 240, -3, -322, 141, -124, -238, 8, 24, 202, 406, 2, 137, 351, 465, 141, -276, -227, 494, 221, 180, 269, 219, 23, 113, -198, 194, 170, 481, 721, 561, 37, -207, 535, 411, 168, 299},
{390, 190, 107, -164, -222, -110, 346, 422, -110, 381, -159, -110, 51, 154, -9, 24, 136, 418, 465, 108, 302, 243, 248, 243, 342, 476, 97, 364, 377, 315, 292, -38, -40, 246, 362, 338, 506, 243, 213, 250, 215, 360, 601, 106, 316, 204, 427, 580, 399, 701, 612, 357, 343, 385, 148, 59, 246, 512, 82, 450, 249, -69, 139, 331, 172, 280, 127, 248, 259, 43, 27, 430, 374, 250, 645, 359, 420, 228, -181, 161, 251, 139, 258, 260, 165, -98, -258, 75, 141, -114, 58, 8, 334, -5, 450, 206, -18, 53, -179, 510, 280, 351, 460, 112, 247, 95, 302, -258, 189, 13, 219, 222, 209, 158, 87, 121, -168, -232, -156, -162, 87, 148, 299, 20, -30, 453, 309, 151, 259, 328, 52, -4, 270, 3, 161, 105, 416, 379, 22, 347, 92, -216, -357, 178, -238, 143, -169, -236, 90, -10, 519, 345, -131, -128, -163, -81, -417, -222, -290, -159, -219, -284, -463, -562, 241, 61, -48, 410, 116, -301, -360, 408, -213, 299, -126, -120, -87, -238, 23, 416, -32, -436, -508, -790, -518, -495, -456, -589, -383, -605, -291, -534, -398, -174, -234, 29, -92, -271, 36, -132, -91, -317, 219, -366, 149, 157, 19, -221, -355, -447, -787, -1079, -872, -609, -545, -765, -236, -403, -566, -338, -944, -690, -265, 34, -38, -425, -197, -203, -548, 36, 220, -103, -109, -29, -44, -480, 74, -154, -485, -325, -552, -494, -585, -394, -655, -729, -567, -556, -876, -527, -547, -79, 178, -138, -273, -110, -199, -444, 14, 138, 86, -177, -54, -216, 84, -28, -271, -361, -404, -139, -59, -131, -142, -501, -612, -521, -428, -773, -313, 164, 244, -199, -664, -193, 275, 51, -56, -132, -264, -25, -184, -192, 131, -84, -116, 46, 27, 409, 217, 581, -83, 690, -300, 1, 149, -184, -431, -37, 234, -162, -169, -301, -191, -178, -362, -229, -413, -253, -151, 36, -76, 138, -124, -24, -374, -126, -395, 214, -89, -16, 86, -63, 358, -153, -393, -24, 377, -311, -357, -52, -518, -663, -121, -252, -326, -78, 260, 135, 51, -58, -34, -100, 18, 21, 143, -148, 8, 68, 8, -82, -92, 115, -269, 62, 143, -94, -138, -156, -245, -1, -84, 376, 325, 323, 82, -7, 19, -154, 91, -16, -294, -136, -290, 253, -208, -171, -45, 94, -4, -66, -27, 363, 204, -187, -49, 47, 20, -47, 31, 280, -44, 104, 181, 164, -170, -73, -17, 103, 39, 92, -117, 14, -62, 64, -244, 220, 165, 68, 141, 409, 211, 249, 239, 329, 107, -30, -23, 84, 118, -99, 3, -52, -165, -43, -204, -75, 285, -127, 77, 273, 63, 200, 147, -171, -330, -142, 4, 626, 408, 460, 395, 470, 615, 454, -90, 113, 292, -142, 28, 128, 188, 302, 53, 114, -72, 13, -124, 57, -82, -145, 309, 113, -30, 271, 150, 759, -83, 85, 125, 237, 260, 123, 136, -161, 139, 231, 282, 94, -135, 186, -26, -23, -4, -39, 190, 202, 86, -164, 273, -39, 219, 482, 107, 431, -3, 353, 277, -76, 701, 20, 33, -103, -19, 76, 132, 40, -382, 46, -7, -406, -30, -58, 55, 82, 169, -62, 365, 264, -231, 62, 97, 330, 118, 291, 43, -105, 269, 76, 367, 204, 96, 466, 65, -26, -140, 45, -310, -592, -36, -247, -206, -242, -136, -370, -112, -108, -66, 8, -88, 211, -103, -158, 127, -202, -68, -26, 249, 601, 118, 11, 163, -7, 270, 42, -115, -89, 248, 190, -141, -452, 29, 3, -206, 91, -24, 173, 226, 352, 116, -79, -135, -34, -331, 7, 259, -111, 20, -23, 167, 217, 152, -6, -367, -446, 96, 228, 244, -111, -134, -16, 231, 98, 68, 488, 585, 426, 121, -66, 199, 303, -384, -137, -231, -29, 84, 242, 39, -232, 106, 168, 164, 138, -70, -243, 178, 337, -151, -18, -154, 418, 308, 138, 334, 384, 113, 16, 372, 161, -3, -153, -176, -71, 273, 219, 39, 249, 147, 18, 56, -61, -209, -56, -194, -65, -171, 12, 254, -392, -75, -260, 130, 302, -23, 355, -280, -290, -4, -217, -192, 292, 197, 243, -135, 133, 265, 126, 67, -378, -499, -492, -444, -129, -120, 25, 26, -167, 52, -155, -106, 93, 232, -45, 99, -150, -209, -12, 188, -25, -38, 75, 60, 539, 153, 217, 351, -122, -45, -259, -590, -107, 81, -177, -321, -492, -243, 26, 76, 301, 156, -167, -305, 108, -45, 31, -2, 6, 91, -306, 128, 377, 262, 550, -247, -239, -139, -655, -318, -429, -205, -198, -728, -76, -15, 83, 153, 366, 318, 208, 270, 280, 584, 79, 212, 575, 79, -20, 26, 44, 70, -443, 86, -174, 162, 249, -29, -268, -352, 62, -84, -83, -73, 302, 290, 371},
{90, 2, 290, 570, 620, 341, -78, 153, 119, -60, -14, 153, -75, -354, -90, 413, 216, 373, -254, 274, 110, 68, -67, 238, 175, 180, 47, 100, 44, 100, 6, 67, 259, 293, -10, -696, -199, -29, -371, -390, -330, -145, 168, -30, -332, -13, -65, 17, -141, -137, -288, -57, 173, 220, 337, 105, 89, -99, -260, -310, 225, 336, -385, -72, -271, -274, -398, -431, -130, -365, -180, 16, -104, 120, -95, 21, 147, -24, -282, -125, 274, -30, -17, 257, 185, 10, 88, -145, 46, -453, -86, 31, -532, -447, -236, -20, -185, -236, -27, 192, 151, -138, -357, -137, -250, -4, -183, 104, 87, -380, 114, 98, 222, -21, -298, -365, -204, 275, -251, -369, 28, -396, -273, -295, -161, -61, 232, 23, -227, -245, -398, -43, -299, -460, -435, -266, -412, -439, -289, -19, 140, -59, 121, -101, -331, -287, -82, -24, -53, -370, -100, -273, -55, -320, -507, -340, -642, -274, -286, -265, -391, -189, -185, -115, -316, -299, -127, 131, 299, -155, -290, 260, -456, -248, -144, -55, -223, -372, -283, -91, -28, -226, -136, -519, -561, -596, -113, -229, -120, -166, -221, -143, -199, -106, 21, 134, -141, -22, 129, -88, -330, -326, -60, -521, -320, -227, -173, -479, -189, -309, -260, -157, -85, -477, -382, -205, -42, -333, -59, -394, -286, -56, 80, 213, -12, 425, -163, 149, 0, -162, -313, -374, -391, -411, -51, -326, -273, -641, -471, -162, -663, -584, -615, -92, -478, -347, 166, -142, -480, -121, 6, -181, -120, 81, 168, 124, 158, 16, -193, -122, 46, -618, -300, -326, -519, -755, -490, -420, -129, -294, -406, -558, -397, -191, -163, -48, -280, -196, -52, 101, -3, -46, -222, 56, -52, -177, 318, -292, -411, -291, -258, 79, -669, -595, -345, -341, -504, -487, -245, -374, -422, -624, -385, -22, -231, -53, 249, 447, 28, -292, -48, 159, 145, -27, 161, 127, -100, -183, -262, -169, -229, 135, 117, -200, -170, -298, -255, -313, -443, -262, -476, -269, 113, 299, -249, 69, 188, -135, -202, 210, 243, -160, 477, 276, 190, -2, 25, 176, -108, -196, 56, -296, -129, -168, -203, -499, 15, 133, 103, 23, -44, -159, 116, 72, -143, 65, 5, -91, 83, -37, 139, 151, 222, 378, -7, 21, 267, -42, 117, 177, 79, 138, 312, 115, -32, 384, -120, 31, 173, 43, 189, 171, 265, 52, -131, 81, -98, 109, 488, 292, 484, 185, 162, 142, 124, 120, 114, 226, 35, 326, 113, 312, -188, 336, -58, 125, 73, 193, 111, 267, 290, 301, -227, 37, 53, 121, 308, 187, 239, 112, 63, -108, 201, 57, 113, 161, 114, 56, 330, 243, 357, -192, -129, -58, -17, -146, 156, 20, -141, 0, 152, -151, 321, 344, 65, 191, 495, 146, 354, 424, 249, 208, 238, 88, 166, 347, 236, -112, 35, -281, -158, -83, -124, -21, 511, 26, 108, -177, -223, 275, -125, 194, 153, 223, 273, 253, 188, 212, 419, 488, 403, 215, 28, 267, 353, 426, -42, 90, -18, -60, -171, 364, 52, 206, 144, -23, -84, 139, 127, 218, 348, 329, 5, 183, -8, 222, 14, 102, 179, -151, 137, 170, 153, 135, -105, -276, -184, 277, 182, -76, -143, 189, 162, 142, 65, 40, 53, 255, 169, 146, 78, 331, 146, 302, 434, 219, 532, 480, 185, 254, 157, -195, -67, 42, -90, -32, -253, 210, 108, -167, 521, 312, 155, -23, 496, 236, 351, 63, 41, 45, 276, 288, 72, -75, 111, 406, 346, -16, 192, 160, 262, -18, -74, 122, -258, -30, 230, 129, 342, 234, -1, 122, 34, 48, -228, 41, -87, -126, -25, 119, 324, 159, 31, 155, 370, 47, -3, 178, 20, 24, 379, 170, -125, -11, -397, -50, -40, 157, -68, -28, 141, 430, 243, 427, 101, 74, 190, 117, 68, 265, 104, 366, 133, -40, 118, -3, 4, 14, -84, -56, -255, -247, -563, -287, 71, 217, 145, -55, 47, 652, -119, 256, -58, -33, -96, 150, 188, -43, 250, 312, 519, 360, 179, 516, 43, -25, 48, 286, 224, 131, -83, -102, 322, 177, 532, -21, 277, 214, -7, -245, 90, -247, 39, -270, -16, -163, 5, 258, 221, 372, 222, 485, 195, 277, 325, 416, 291, -25, 42, 94, 91, -264, -248, -327, -423, -257, 309, -239, 151, 314, -94, 53, -297, 12, 115, 380, 260, 204, 116, 177, 227, -207, 114, 74, -202, -434, -192, -95, 53, -46, -496, -46, -310, 205, 8, -51, 169, -240, -376, -151, -43, -20, 336, -123, -126, -31, -47, 6, -65, -144, 152, -158, -248, -41, -89, 59, 135, 132, 42, -28, 105, 196, -122, 53, 298, -138, -166, 241, 268, 120, 330, 456, 157, 51, -18, 553, 511, 133, 322, -2, 205, -33, 125, 90},
{472, 506, 558, 66, 399, 242, -14, -360, -144, -415, 142, 271, 221, 169, 231, 206, 305, 661, -127, 349, 412, 286, 595, 582, 594, -24, 305, 593, 367, 240, 382, -32, 169, -31, 64, -19, -134, 11, -250, 234, -378, -126, -508, -477, 30, 50, 506, 364, 7, -44, -100, 406, 323, 342, 186, 163, 471, 197, 11, 203, -515, 159, 24, -69, 259, -111, 173, -115, -150, -738, -445, -432, -590, -236, -7, 100, -117, 32, 41, -271, -173, -128, -229, 356, 54, 0, 335, 71, -189, -35, -406, -383, -114, -100, -271, 213, -108, 223, 107, -252, -282, -85, 208, -247, 114, -222, -126, -39, 91, 203, 62, 301, 267, 22, -112, -73, -108, -209, -403, -199, -74, 28, 141, 96, 83, 0, -169, 86, -597, 227, 215, -31, -341, 107, 48, 174, 355, -82, 111, 139, 508, 175, 11, -293, 85, -222, -639, -628, -73, 67, -133, -160, 59, 100, -189, -62, -226, 213, 52, 41, 179, 78, -93, -190, 48, 72, -192, -447, 323, 71, -611, -122, 225, -131, -148, -161, 13, 285, -441, -399, 21, 236, -143, -264, -283, 493, -192, -295, -141, -154, -231, -244, 162, 199, 22, 329, 537, 146, -133, 88, 291, 37, -507, -301, -219, -342, -14, 137, 111, -99, 202, -414, 504, 90, -433, -27, -14, 72, 25, 307, 4, -7, 43, 48, 208, 414, 265, -22, 245, 222, -255, -266, 100, 261, 81, 431, -217, -161, 100, 11, 4, 140, -202, -7, 148, -208, 120, 44, -93, -76, -568, 101, 337, 81, 16, -125, -79, -238, -374, -386, 366, 155, 50, 177, 262, 94, -32, 46, 33, 199, 23, -350, -249, 109, 341, -121, -143, -9, -324, 199, 495, 44, 133, 37, 203, 21, -142, 34, 173, 39, -390, -48, 42, -122, -59, -68, 283, 26, -41, -382, -105, 37, -17, -406, -142, -184, 133, 172, -73, -36, -123, -288, 174, 16, -290, -555, 140, 186, -295, -57, -45, -350, 33, -90, 63, -86, -239, -252, -204, -10, -159, -206, -46, -271, -267, -77, -1, -240, -288, -297, -21, -231, -351, -283, -203, 0, -69, -35, 18, 1, 185, 0, 252, -151, 51, -332, -530, 90, -81, -74, -151, -79, -120, 107, 248, -123, -264, -565, -141, -372, -418, -544, -147, -30, -191, 420, -3, -109, 112, 63, -106, -537, 33, -418, -108, -251, -150, 241, -119, -96, 292, 80, -137, -55, -85, -128, -29, 24, -700, -188, -83, -15, -117, 133, -142, 312, -91, 181, -217, -348, -112, -188, -539, -341, -408, -108, 98, 16, 260, 133, -26, -258, 87, 437, 186, 147, -318, -407, -380, -234, -150, -243, -335, 227, -75, 164, -183, -148, -176, -229, -847, -857, -480, -508, 173, 424, 430, 367, -44, -68, 105, 657, 742, 389, 9, -261, -306, 187, 195, -67, 45, -49, 98, -201, -141, -401, -707, -867, -402, -829, -415, -153, -60, 102, 481, 166, 41, 392, 487, 243, 931, 590, 111, 59, -39, 192, 92, 75, 193, -90, 92, -345, -136, -354, -677, -612, -973, -762, -169, -48, -162, 301, 516, 442, 659, 367, -139, 332, 216, 485, 114, 264, 121, 116, 270, -174, 561, 364, 65, -154, -246, 225, -394, -452, -483, 101, 291, -130, -272, 85, 476, 241, 429, 156, 9, 405, 461, 475, 348, 159, -28, 195, 32, 382, 290, 208, -402, -528, -67, 163, -413, -428, -53, 306, 185, -389, -39, 292, 293, 442, 81, 300, 91, 252, 420, 307, 204, -16, 473, 710, -54, 507, 0, 57, -82, -133, -228, -144, -171, -58, 25, 97, 49, -92, -418, 562, 654, 676, 195, 342, 526, 160, 342, 459, 285, 426, 187, -83, 73, 49, 633, -95, 138, 126, -166, -570, -524, -12, -160, 39, 199, -216, -76, 113, 425, 334, 236, 386, 251, 88, 315, 64, 306, 328, 169, 293, 495, 474, -68, -422, -249, -438, -585, -190, -131, -322, 37, -80, -68, -280, -218, 173, 153, 342, 378, 278, 282, 283, 526, 187, 672, 30, 472, 283, 818, 197, -237, -436, -542, -242, -347, -51, -238, 29, 110, -263, -195, 29, 179, 19, -246, 651, -154, 287, 403, -97, 53, 215, 449, 450, 268, 257, 21, -146, -532, -695, -148, -220, -689, -479, -53, 89, 135, -100, -246, -299, -274, -391, -298, 363, 302, 79, -60, 162, 170, 225, 121, 166, -31, -180, -440, -828, -750, -233, -401, -113, -14, -258, -181, 287, 143, -39, -197, 463, 265, 18, -237, 447, 623, 1057, 260, 391, 454, 741, 444, 548, -63, 256, -708, -456, -459, -677, -236, -33, 55, 173, 262, 171, 203, -69, 5, -212, -356, -11, 371, 217, 469, 555, 394, 736, 487, 662, 736, 555, 471, 227, -895, -247, -263, -407, -220, 199, 460, 377, -118, 188, 317, 537, 426, 428, 821, 88, 397, 545},
{189, 153, 205, 218, -167, -55, -224, -24, 73, -159, -279, -40, 67, 96, 105, -108, -178, -183, -241, 44, 154, 250, 129, 38, 204, 303, 217, 164, 265, 99, -279, -57, 5, -285, -4, -97, 80, -43, 467, 117, 378, 139, 80, 208, 104, 47, 139, 92, 116, 398, 71, -240, -140, 67, 178, 320, 164, 158, -120, -132, 220, 91, -109, 107, -1, 15, 106, -2, 43, 139, -247, -101, 125, -156, -123, -6, 460, 221, 14, -124, -190, -2, -83, 121, 352, 146, 229, 564, 192, 145, -149, -88, 276, -348, 108, 128, 302, -71, -115, 98, -121, 154, 153, -197, 157, -186, -345, -44, 133, 25, 178, 137, -255, 0, -11, -281, -100, -43, -102, 37, 99, 184, -209, -119, 19, 58, 87, -47, 87, 49, 55, 131, 110, 137, 499, -29, 221, -143, -290, -138, -121, -196, 128, 88, 268, 119, 75, 29, 27, 276, 335, -154, -18, -115, 64, 318, 52, 324, 54, -186, 148, 33, 387, 226, -57, 301, -96, -135, -140, 3, 177, 130, -60, 221, 53, -22, -33, -17, 83, -159, -187, -108, -242, -162, -315, 164, 482, 146, 34, 124, 134, 181, 346, 293, -5, 118, -449, 105, -111, 141, 31, -100, 202, 135, 147, 22, -374, 67, -31, 221, 215, 361, 265, 79, 11, 275, -108, -148, 16, -306, 237, 196, 168, -63, -236, -418, -103, 75, -16, -42, 11, 202, -147, -141, -61, 23, -146, -32, -60, 176, 431, -181, 100, -34, 98, -17, 218, -285, 132, 81, 330, 83, -572, -484, -48, -407, -61, 27, -36, -51, -110, 45, 53, 22, 165, 199, 358, 236, 56, 104, -41, 131, -144, 314, 0, -181, 211, 69, -67, 244, -444, 101, -155, -155, -216, -147, -39, 34, 76, 98, 191, 99, 236, 165, -145, -112, 38, 114, 104, -239, 381, 70, -93, 143, 11, 150, 143, -164, -78, -11, -5, 164, -58, 79, 36, 553, 309, -113, -128, 366, 74, 36, 27, 267, 116, 26, 173, 109, -113, -6, 151, 108, -54, 63, 4, -318, -151, -69, -65, 243, 29, -74, -29, -50, 193, 240, -70, 172, 347, 330, -64, 173, 53, 149, -30, 74, 117, -33, -88, 229, 3, -1, 24, -344, -183, 98, 259, 69, -49, 50, -94, -56, 43, 340, -109, 86, 134, 405, 268, -142, -8, 200, 84, -142, -376, -46, 212, 146, 18, -187, -299, 89, -305, 180, 140, -393, 28, -88, -252, 184, -60, 83, 22, 46, -235, 189, 427, 104, 422, 196, 175, 175, 122, 76, -39, 261, -61, 3, -242, 292, -141, -19, 124, -84, 46, -2, 87, 64, -137, 262, -63, 118, 35, 52, 195, 97, 161, 252, 155, 55, 38, 217, 135, 191, 163, -247, 56, 227, -106, -132, -202, -192, -85, 209, -205, 2, -91, -154, -69, 255, 133, 171, 7, -13, 83, 82, 489, 175, 484, -23, -114, 23, -92, -102, 190, 56, -179, -242, -123, 105, -20, 152, -187, -113, 14, 0, 41, -251, 177, 157, -6, 15, 314, 66, 192, 20, 163, 519, 326, 271, 253, 16, -161, -132, -359, -133, -56, -285, -521, -196, -121, -347, 9, -250, 95, -389, 2, 16, -193, -277, 196, 142, -207, 227, 384, 450, 0, 494, 259, 131, -74, -141, -159, 158, -44, 38, -198, -358, -167, -356, 54, -102, -167, 6, -239, -129, -212, -182, 1, 86, 170, -17, 57, 168, 250, 228, 215, 196, 335, -69, -31, -70, 182, 160, 228, 88, 98, 129, -287, -313, -280, -168, -110, -13, -107, 60, -92, -191, -33, 125, 78, -12, 232, -146, 226, 147, 190, -323, 272, 402, -82, -88, 61, -238, -72, -265, 24, 47, -399, -179, -502, -236, -17, 2, -134, -252, 195, -125, 23, 102, -28, 318, 334, -18, -106, -133, 201, -130, -151, -106, 212, 142, -16, -93, 52, 52, 33, -424, -250, -166, -115, -225, -128, -167, -320, -5, -383, -231, 288, 175, 332, 208, -311, -545, -192, -109, -264, -151, -329, -134, -84, 156, -106, -21, -413, 26, -25, -128, -144, -236, -219, 133, -86, 43, -253, -308, -18, 479, -78, -228, -263, -248, 158, -43, -1, -91, -460, 45, -7, -250, -49, 150, -437, -15, -330, -120, -135, -210, 133, 151, 211, -349, 9, 179, -70, -194, 8, -331, -492, -183, 14, 17, -84, -273, -243, -186, -97, -540, -160, -281, -359, 20, -151, -32, 21, -275, -37, 9, 200, 55, -98, -255, -273, 23, -220, -287, -321, -329, 16, -201, -150, -137, -199, -317, 93, -107, -50, -96, -87, -79, -259, 30, -358, -243, -353, 83, -266, -366, -603, -430, -347, -597, -419, -428, -481, 101, 180, 44, 245, 116, -191, -104, 215, -114, 5, -176, -168, -362, -539, -552, -577, -921, -239, 115, -167, -155, -311, -206, -40, 36, -280, -73, 92, 220},
{93, 105, 275, 460, 535, 456, 462, 272, 40, 583, 418, 278, 290, 230, 358, -16, 345, -27, -38, 137, 47, -44, 520, 244, 366, -159, -66, 212, 74, 140, 81, 193, 442, -418, -29, -39, 255, 122, 48, 247, -97, 32, -18, -117, 234, 108, 128, 82, -26, -297, -295, 151, 38, 11, 64, 187, 118, 105, 280, 208, 25, 131, 198, -83, 51, -11, -45, 165, -135, -211, 23, -31, 25, 37, -224, 339, 252, -8, -87, 165, -121, 258, 60, 337, -182, 221, 251, -47, -205, 51, -127, 469, 164, 34, -465, -53, 87, 107, -78, -263, 163, 160, 92, 276, -4, -341, -102, -293, -36, 9, -380, -83, 408, 173, 525, -5, 82, 45, -50, 286, 365, 205, -219, 161, 199, 15, -289, 261, -250, -63, -340, 18, 121, -152, -76, 120, 149, -204, -247, 232, 556, 475, 443, 180, 178, -163, 523, 422, 96, 377, -323, 31, 61, -428, -235, -149, -73, -44, 96, 190, -222, 195, -221, -21, 80, 120, 170, 496, 563, -91, -236, 26, 162, 208, 263, 78, 332, -110, -249, -124, -144, -320, 16, -43, -131, 7, 30, -136, -30, 208, -164, -103, 83, -127, -234, 337, 355, 15, -45, 387, 132, 38, 223, 234, -13, 82, 122, 170, -732, -22, 344, -74, 327, -26, 129, 118, -232, 141, -101, -174, -416, -411, -76, 316, 175, -54, -134, 200, 314, 244, 156, 184, 309, 301, -48, -214, -548, -134, 269, 249, 5, 272, -1, -64, -235, 2, -211, -321, -194, -282, -202, 214, 292, -110, -208, 171, 134, 323, 301, 220, 293, 87, 203, 160, -506, -20, 13, -112, -115, -17, 142, 21, -62, -145, -203, -362, -260, 31, -347, -21, 225, -724, -155, 102, 47, 225, 3, 59, -13, 167, 511, -55, 87, -292, -187, -139, 107, 90, 88, -89, -216, -332, 125, -322, -31, -486, -132, 97, -94, -409, -678, -533, -38, 139, 200, -200, 254, 173, 215, 80, 168, -74, -207, -59, 175, 207, 31, 44, 248, 54, -407, -216, -455, -610, -435, 72, -38, -510, -698, -485, 336, 18, 314, 323, 248, 415, 399, 101, 172, -35, 3, -201, 204, -87, 2, -60, 263, -227, 209, -37, -343, -302, -153, -154, -67, -209, -635, -404, 124, 246, 163, 223, 147, -98, 36, 260, 408, 412, -3, -43, -30, 206, 470, 268, -92, -109, 24, -175, -34, -243, -411, -74, -47, -167, -366, -670, -419, -134, 247, -148, 118, -58, 358, 167, 162, 304, 49, 384, -70, -8, 360, 113, 200, -104, -150, -386, -313, -507, -454, -246, 180, -170, -508, -615, -58, 161, -10, -7, 47, 149, 449, 196, -16, 382, 66, -107, 373, 11, 137, 36, -178, -164, -398, -136, -237, -258, -380, -93, 41, -275, -569, -440, -517, -748, 7, 58, -191, -121, -15, -54, 293, 111, 267, 315, 205, -137, -440, 26, -477, -293, -121, -527, -99, -45, -327, -135, -41, -401, -192, 125, -306, -20, -277, -198, -104, 53, 191, -112, 69, -238, 118, -247, -758, -365, -439, -359, 24, -121, 4, 76, -222, -75, -568, -148, 119, -156, 137, 207, -68, -298, -377, -301, -115, -84, 39, 233, 483, 37, 130, -306, -556, -333, -78, -207, -165, 137, 236, 104, 27, -233, -117, -167, 203, 294, 428, 277, 41, -239, -188, -366, -272, -579, -205, -101, -488, -424, -216, 286, -15, -206, -390, -92, 124, 280, 167, 366, -83, -146, 322, 127, 657, 96, 147, 341, 95, 47, 53, -40, 136, -17, -36, -469, -320, -363, -257, -176, 35, -238, 0, 62, -14, -26, -249, 6, -62, 72, 374, 110, 415, 80, 93, -106, 327, -101, 576, 165, 19, -18, -677, -262, -195, -39, -285, -123, -183, -32, -97, -396, 97, -21, -96, -338, -240, -53, 471, 333, 72, 121, 44, 97, 164, 95, -95, -62, 354, -128, -310, -98, -214, -310, -297, -237, -298, -59, -322, -317, -207, 558, -141, -150, -426, -134, 172, 146, 12, 60, -26, -165, -76, -155, -284, -68, 222, 108, -223, -207, -46, 10, -183, 129, -200, -223, 1, -168, -399, -213, -186, -264, 162, 112, 311, 67, -1, -246, -331, -533, -79, -300, -186, 198, 38, 218, -81, -6, -159, -358, -165, -158, -294, -292, -246, -219, -192, -125, 139, 249, -145, -158, 207, 111, 56, 153, 185, -2, 162, 67, -419, 222, -397, -103, -12, -46, -233, -309, -189, -421, -131, -314, -270, -88, -288, -76, -261, -283, 49, 161, 95, -88, 109, 112, 213, 0, 384, 200, 326, 513, 164, 290, 424, 103, 147, 81, -21, 71, 225, 510, 404, 110, 311, -517, -294, -134, 18, 491, 111, 113, 64, 272, 150, 341, 153, 514, 724, 457, 500, 764, 233, 294, -340, -14, -381, 386, -109, 530, 441, 364, 237, 24, 167, 31, 209, 226, 103, 157},
{135, 156, 69, 225, 188, 619, -189, -160, 0, -295, -307, -277, -28, -112, -324, -61, 27, 195, -62, 406, -17, -33, 393, 14, 134, 321, 428, 217, 233, 148, 79, 55, 317, 221, 134, 203, -124, 125, 73, -466, 26, -326, -181, 15, 37, -33, -67, -144, 45, -19, -204, -172, 61, 3, -63, -46, 154, 362, 140, -244, 345, 281, -163, 126, 91, 151, 202, -30, -116, -132, -34, -166, 254, 94, -73, 146, 177, 9, 333, 328, 253, 0, -128, -2, 230, 108, -171, -37, -61, 186, -140, -90, -40, 153, 48, -60, -87, 56, 6, 141, -81, -387, -114, -125, 174, -130, 126, -153, 44, 398, -266, -68, 165, 155, 26, -136, -71, 68, -51, 49, 34, 246, -23, 47, -2, 99, 2, -270, 44, -8, -263, -45, 109, 257, 269, 245, -72, 170, 137, 260, 513, 209, -81, -4, 11, -93, -204, 207, 202, -136, 200, 53, 322, -15, -476, -240, -84, -221, 93, 276, -54, 247, -14, 245, 222, 142, 456, 462, 340, -39, 161, -10, -245, -222, 61, -34, 15, -98, -172, -242, -92, -418, -531, -283, -131, -164, 24, 17, 100, -125, 279, 369, 21, 45, 431, 473, 155, 207, 42, 106, -180, -67, 385, 150, 228, -222, -174, -157, -272, -167, -205, -129, 26, 190, -70, 87, 154, -1, 163, 186, -370, -106, 342, 471, -66, -131, -19, -163, 147, 162, -90, 171, 65, -83, -290, -323, -818, -265, -216, -1, 97, 118, 141, 232, 115, 218, 180, 228, 302, 91, 354, 318, -119, -55, 192, 81, 158, 34, 269, -26, -421, -444, -379, -387, -681, -183, 128, 130, -101, -51, 188, 3, 74, 248, 23, -296, 135, 686, 125, 146, -119, -57, 354, -17, 75, 306, 16, -139, -311, -198, -737, -650, -464, -55, 23, 194, 85, -25, -35, 164, -384, -85, -141, 240, 396, 302, 420, 151, 373, 26, 394, 41, 122, 94, -684, -364, -470, -790, -352, -217, 16, 72, 280, 47, -338, 13, -8, -51, 189, -68, 159, -243, 135, -20, 171, 280, 389, 1, -59, 78, -561, -367, -387, -697, -941, -152, -404, 0, 130, 250, 294, 44, 40, 131, 76, 219, 277, 17, -50, 61, -336, 27, -157, 77, -239, -125, 66, -22, -392, -479, -882, -396, -579, -228, 86, 210, 234, 203, 171, 22, 188, -86, -94, -11, 90, 29, 69, -179, -215, -146, -162, 57, -241, -444, 18, -325, -262, -730, -652, -465, -337, 146, 79, 251, 380, 20, 305, 136, 300, 117, 30, -113, 226, 27, 108, -164, -121, -111, -214, 234, -241, -610, -449, -721, -387, -750, -217, -174, 322, 99, 250, 210, 495, 239, 139, 221, 144, 136, -80, 167, 227, -114, -245, -295, -428, -353, -194, -14, -336, -626, -464, -889, -613, -284, -267, 56, 135, -13, -206, 319, 373, 328, 195, 266, -199, -178, -154, 233, 295, 44, 205, 193, -306, -97, 249, 220, -217, -440, -750, -684, -604, -156, 74, 185, 14, -176, 107, 179, 172, 276, 156, 26, 30, -144, 123, 352, 616, 333, 12, 124, 283, 188, 154, 244, -108, -531, -598, -479, -97, -278, -190, 159, 91, 30, 279, -242, -98, 162, 132, 197, 126, 209, -222, -25, -34, 186, -246, 285, 42, -287, 11, 154, -317, -253, -466, -86, 115, -304, 50, 198, 374, 0, 119, 190, 241, 470, 134, -123, 165, -123, 116, -9, -118, -222, -7, -30, 99, 66, 117, -44, 110, -122, -94, -54, 166, 322, -211, -82, -173, -34, 135, 135, -27, 89, 38, -5, -248, 179, 198, 55, 86, 117, -103, -137, 27, -76, 48, 245, 72, -107, 100, 144, 267, 487, -6, -90, -10, 180, -161, -122, -185, -26, 146, -154, 261, 17, -68, 16, 17, 178, 290, 265, -74, 29, 242, 205, 191, 289, 320, 83, 252, 58, 184, -60, 352, 181, -298, -185, -354, 48, -155, 116, 120, -337, -14, -171, -98, 472, -6, -326, -253, -154, 14, 0, 287, 181, -9, 0, -124, -14, -245, -96, -171, -80, -199, 238, -245, -113, 122, 117, -307, 81, -33, -130, 99, 23, -301, 160, -104, 22, 97, 64, 254, 134, -142, 152, -201, -15, 314, 105, -79, -13, -142, -68, 133, -236, -276, 246, -123, -208, 148, 217, -93, 206, 96, -450, -31, -2, -175, -90, 242, 108, -290, -321, -24, -9, -257, -72, -100, 194, 54, -61, -148, -59, -74, -493, -62, 263, -71, -12, -80, -29, -118, 165, -51, -411, -114, 135, 155, 215, -35, -91, -258, 68, 40, 139, -6, -232, 204, 96, 90, 49, -69, -89, 214, 36, -413, 106, -175, -108, -544, -356, -594, -534, -137, 126, 163, 108, 309, 91, 124, -258, 267, 294, 545, 104, 198, 190, 474, 368, 444, 433, 309, 295, 209, 182, 101, -317, -225, 104, -279, 24, 89, 174},
{88, 46, -49, 298, -58, -438, -442, -250, -121, -49, -94, 29, -165, 69, 582, 339, -3, 407, 545, 287, 369, -49, 191, 27, 264, 240, 294, 184, 95, 32, -105, 83, -355, -810, -335, 50, -264, -310, -59, -235, 70, 106, 78, -135, 171, 367, 142, 237, 120, 188, -166, -129, 166, 330, 224, 151, 0, -36, -21, -404, -206, -38, -178, -200, -192, -344, -423, -229, -302, -36, 100, -4, 3, 341, 344, 23, -55, -184, -171, 52, 50, -58, -90, 83, 200, 59, -34, -241, -143, -115, -263, -48, -819, -124, -269, -154, -152, -70, 42, -109, 267, 85, -12, 31, -134, 222, -363, -105, -22, 351, 151, 400, 192, 225, -116, -357, -50, -59, -139, -34, -438, -118, 45, -191, 186, -282, 82, -175, 160, -120, 152, -88, 224, -160, -155, -195, -136, 93, 160, 293, -81, -135, 64, 124, -136, -65, -84, -26, -250, 354, 15, -208, -10, -89, -173, 71, -385, 11, -174, -244, 197, 87, 261, 80, 260, 125, 96, 169, -344, -173, 139, 347, 185, 329, -248, 45, 170, -120, 353, 81, -99, 15, -87, -505, -369, -315, -168, -81, -2, -45, 131, 371, 283, 396, 563, 490, -51, 1, 82, 30, -67, 123, 36, 447, 176, 177, 150, 89, -9, 86, -322, 15, 61, -214, -227, -348, -223, 5, 0, 150, 375, 530, 455, 468, -51, 152, -173, 3, -35, 263, -62, 98, -4, 303, 12, -50, 54, -15, -75, -327, 38, -230, 72, -353, -379, -41, 100, -146, -46, 84, 216, 195, 103, -445, -275, -217, -383, -49, 44, -26, 208, 185, -146, 399, 115, 239, -39, -216, -109, -282, -190, -63, -232, 200, -114, -329, -106, 53, 199, 191, -86, -177, -221, 32, -263, -324, 45, 360, 194, 10, 251, 468, -115, 136, -39, -140, -158, -310, -325, -170, -293, -381, -63, -224, -28, 125, -420, -12, -204, -397, -293, -406, -340, -111, 4, 191, 241, 217, 397, 248, 198, 54, -9, 398, -194, 25, -100, -362, 33, -348, -683, -195, 77, -57, 109, 77, 12, -533, -603, -288, -163, -66, 409, 349, 269, 356, 271, 82, 130, 16, 115, 116, 67, -178, -101, 47, -131, -474, -593, -605, -152, 82, -289, -62, -189, -498, -180, -305, -454, -256, 145, 368, 213, 340, 77, 106, 59, 134, 0, 16, 192, 159, -129, -191, -227, -610, -551, -530, 97, -302, -608, -90, -249, -174, -230, -534, -12, 215, 1, -145, 391, 119, 205, 144, 37, 231, 333, 89, 47, 82, -306, -79, -378, -136, -232, -339, -375, -625, -558, -22, 75, -180, -320, -409, -383, -352, -142, 60, -56, 295, 38, 429, 68, 197, 246, 117, 212, 117, 109, -296, -137, -69, -200, -162, -551, -709, -650, -245, 1, -186, -54, -219, -184, -189, 95, 31, -149, -16, -25, 119, 206, 217, 310, 267, 188, 191, 219, -10, -331, 231, -456, -693, -589, -446, -363, -239, 360, -150, 83, 207, -29, -336, -196, -229, 221, -5, -29, 185, 85, 443, -77, 94, 319, 19, 300, 185, 53, -194, -511, -198, -70, -581, -133, 62, -47, -34, -244, -265, -334, -149, -269, -31, -115, 79, -14, -96, 131, 233, 60, 126, 386, -266, 154, -69, -92, -451, -330, -126, -12, -58, -175, 144, 394, 207, -312, -94, 379, -21, -196, -340, 2, 215, -118, 14, -320, -41, 156, 476, 208, -134, 101, 163, 127, -259, -214, -169, -106, -376, -18, 59, 620, 191, -34, 229, -153, 269, -6, -206, -41, 50, 91, 31, -166, -243, -149, -293, 91, -1, -48, 328, 69, 170, -54, -204, 182, 53, -87, -71, 382, 410, 169, -116, 432, -73, -152, -274, -128, -532, -405, -88, -193, -57, -111, -155, -131, 74, -78, -48, 7, -173, 70, 39, 298, 190, 160, 449, 544, 302, 209, -82, 195, 381, 233, 266, -105, -107, -164, -227, -254, -173, -54, -53, 1, 172, 134, 321, -132, 113, 138, 178, 244, 67, 38, 89, 5, 92, 73, -76, -294, -62, 39, 211, -373, -109, -439, -509, -343, -231, -284, 50, 32, 87, 321, 222, -14, -306, 67, -289, -158, -91, 111, 97, 69, 92, 490, 820, 198, -187, 431, -189, 96, -146, 38, -215, -250, 107, -254, -141, -120, -97, 115, 125, 392, 295, 149, -300, -308, -27, 308, 174, 221, 115, 367, 287, 247, -87, 8, 43, -134, 261, -319, -153, -203, -116, -25, -158, -171, -334, 64, 51, 309, 30, -56, 78, 255, 391, 404, -27, -52, -50, 78, -158, -24, 245, 46, 14, 195, 96, 28, -28, 46, 324, 382, 261, 287, 11, 98, 385, 106, 576, 516, 251, -11, 280, -55, -12, 62, -137, 98, 158, -8, 650, 507, -19, 271, 563, -208, -4, 96, 446, 114, 650, 545, 201, 663, 87, 475, 69, 707, 421, 93, 142, 28, 48},
{34, 88, 143, 452, 122, 560, 286, 120, -493, -278, 307, -129, 102, -136, 0, 8, 245, 178, 212, 330, 56, 363, -160, -168, 134, 286, 153, 24, 194, 147, 190, 310, 636, 480, 341, -595, -412, -530, -390, -324, 165, -320, 168, -320, 56, 186, 382, 493, 32, -501, -242, -200, 106, -67, 399, 17, 282, 281, 95, 625, 588, 355, 325, -5, -23, -209, -179, -335, -127, -543, -481, -217, 179, 220, 427, 403, -194, 120, -32, 115, 196, 275, 278, 197, 296, 629, 154, 190, -74, 218, 1, 270, 176, -211, -363, -465, -712, -215, 115, -140, 88, 212, 295, 245, -172, -325, -479, 115, 36, 165, 200, 195, 790, 255, -271, 44, 50, 63, 480, -52, 130, 48, -308, -267, -48, -155, -82, -55, 58, 99, 571, 28, -374, -601, -394, 185, 228, 569, 405, 346, 470, 77, 330, 602, 332, 293, 56, -96, -68, -194, -436, -767, -378, -403, -41, -51, 312, 154, 168, -351, -268, -307, -309, -284, -22, -127, 203, 273, 360, 185, 7, 591, 185, 396, 284, 32, 131, 224, -172, -193, -362, -310, -133, 197, 401, 137, 201, -296, -276, -119, 473, 313, 65, -162, -3, 253, 183, 282, -104, 421, 571, 186, 176, -26, 20, -292, -450, -57, -309, -226, 87, 48, -283, -6, -344, -417, -249, 204, -54, 66, -227, 203, 178, 485, 245, -54, 89, -95, 165, 479, 384, 321, 124, 63, -227, 66, 527, 112, 196, 332, -98, -258, -552, -190, 262, -220, -398, 45, 120, 454, 472, 221, 349, 39, -125, 171, -122, -294, -387, 60, -77, -46, 128, 163, 224, 510, 61, 140, 117, -38, -346, 52, 240, 47, -169, -341, -4, 376, 269, 87, 101, 205, 151, 184, -301, -43, -565, -176, 192, -79, 218, 215, 505, 91, 164, -23, 348, -209, -312, -177, 362, -420, -54, 393, 116, 280, 102, -253, 39, 120, -120, 86, -5, -292, -14, -174, 289, 205, 114, 302, 233, 246, 63, -137, -148, -13, -280, -296, -564, 72, 116, 588, -262, -566, 328, 52, 104, -133, -31, 294, 227, -372, -248, -348, 166, -15, 147, 579, 442, 67, 190, -47, 106, -319, 95, -499, -331, -219, 119, 185, 321, -549, -2, 4, -436, -240, 13, -92, -38, 125, -433, -351, 208, 405, 568, 379, 341, 155, 124, 31, 354, -463, 27, -292, -120, 209, 190, -244, -298, -443, -152, -97, -443, -95, 121, -126, 58, 119, -147, -186, 111, 143, -129, 87, -95, 62, 84, -177, -217, -66, 58, -120, -221, 349, 321, -80, -240, -25, -4, 114, -131, -175, -46, -355, -9, 216, 48, 174, 52, 37, 343, 146, 5, 103, -124, 181, 2, 6, -88, -195, -36, -64, 363, 78, -163, -470, -228, 15, -5, -53, 76, -667, -178, -78, -211, 82, 90, -76, 46, 121, -216, -207, 7, 296, 125, 104, -29, -451, -125, 29, 410, 17, -265, 71, -55, 74, 315, 207, -211, -3, 19, -13, -101, -32, 421, 397, 264, -141, 26, 22, 99, 86, -329, -101, 42, -110, -71, -92, 56, -131, -100, -613, -399, 70, 259, 352, 361, 119, 398, -273, 153, 269, -55, 164, -326, 57, -117, -50, 59, -25, 88, 179, -50, -157, 258, 854, 352, 116, -289, -46, -280, -50, 381, 206, 259, 427, -53, -241, -27, -212, -54, 159, -161, -273, -417, 206, 252, 272, 31, 338, -82, 112, 33, 539, 320, -155, -117, -19, 83, 546, 145, -34, 198, 151, 279, 142, 29, 179, -90, 16, -189, -189, -39, 137, 212, -46, 397, -13, 271, 103, -126, 395, 342, 279, 497, -43, 222, 710, -282, -28, 75, -16, -266, -263, 230, 47, -144, -31, -41, -196, -267, -125, 298, -171, 15, -327, 81, 111, 46, 773, 156, 150, 189, -112, 80, 273, 292, 374, 33, -178, -470, -69, 198, 63, -389, -89, -144, -81, -295, -124, -6, -280, -34, -226, 24, 383, -3, -321, -241, 58, -301, -74, 30, 94, 237, 447, -71, -147, -390, -103, -577, -362, 312, -219, 189, 55, 116, -354, -261, -304, -59, -9, -184, 212, 260, 81, 304, 145, 102, 28, 144, 440, 89, 248, -338, -772, -278, -63, 13, -198, 153, -172, 43, 63, -573, -180, 133, -276, -140, -5, -543, -381, -151, 300, -71, -205, 173, 118, -16, -295, 327, -46, -462, -401, -248, -51, -131, 242, 386, 7, 291, -385, -450, -556, -515, -253, -124, 7, -291, -243, -160, 135, -213, -22, 72, -331, -469, 184, -29, 73, -69, -181, 171, 120, 104, -70, -79, 55, -10, -132, -188, -596, -509, -564, -324, -310, -429, -450, -293, -229, -746, -505, -42, -158, 36, -29, 47, -25, 79, 180, 362, -138, 182, 235, 327, 173, -27, -252, -260, -117, 123, 217, -1, 39, -50, -221, -69, -77, -224, -333, -415, 251, 85, 84},
{288, 170, 69, 41, 46, -58, 412, 342, 353, 571, 753, 407, 0, 0, 464, 5, 656, -231, 258, 428, 107, 205, -107, -1, 284, 444, 528, 458, 96, 265, 421, -173, 127, 365, 82, 308, 111, 261, 274, 267, 233, 168, 454, 445, 472, 555, 274, 165, -51, -166, 169, 78, -182, 207, 267, 471, 200, 229, 133, -155, 421, 172, 4, -82, 22, -95, 155, 402, 26, 88, 130, 296, 351, 402, 151, -23, 175, -197, -326, 195, 149, 146, 386, 347, 185, -420, 17, -93, 167, 28, 183, -2, 55, 222, 36, 119, 207, 271, 271, 134, 333, -9, 14, 45, 301, -169, -99, -143, -306, -495, -76, -59, 79, 217, 433, 42, 379, -11, 81, 408, 322, 9, -82, 154, 26, 140, 580, 1, -46, 194, -159, -14, -397, -98, 304, -482, -228, -208, 35, 391, 46, 437, 365, -148, -346, 70, 220, 294, 10, 139, 68, 94, 32, -151, -153, 19, -758, 83, -262, -55, -125, -257, -130, -126, -196, -297, 94, 355, 334, 188, 222, -120, 115, 235, -6, -37, -217, 12, 232, 423, -61, -400, -303, 25, -355, -373, -449, -306, 145, -237, -199, -419, -535, -278, -19, 291, 31, 216, 265, -65, -151, 195, 59, -272, 76, 62, 278, -154, 119, -62, -449, 222, -320, -336, -240, -400, -371, -400, -59, -145, -343, -206, -223, 157, 206, 156, 100, 241, 317, -110, 236, 251, 52, 137, 310, 30, -56, -336, 30, -26, 69, -6, -273, -92, -378, -174, -246, -233, -388, -568, -519, 77, 181, 332, -257, 393, 237, -37, 71, 135, -52, 146, 347, 34, -37, -228, -323, -307, -1, 18, -98, -155, -197, -47, 45, -339, -26, -658, -323, 219, 384, -285, -523, -290, 186, -7, -43, 154, 71, 208, 252, -124, -208, 28, -191, -254, -54, 182, -69, -55, 35, -139, -94, 221, -159, -521, -408, -4, 328, 61, -397, -171, -184, -130, 451, 111, 374, 30, -110, 217, -114, -94, -198, -166, -153, -23, -68, -445, 98, 310, 3, -242, -101, -460, -250, -25, 240, 475, 169, -98, 180, 138, 142, -301, -140, -36, 318, 178, 3, -341, -156, -53, -230, -179, -76, -141, 192, -316, -221, -9, -106, -15, 39, 77, 423, 491, 123, 368, 219, 14, 715, 123, 237, -420, -70, 236, -90, -311, -10, -211, -4, 53, -166, -182, 203, -32, -246, -133, -6, -204, 310, 534, 578, 511, 264, 620, 520, -117, 227, 211, 262, -257, 48, 123, -182, 248, -159, -195, 8, -20, -170, 128, 198, -70, -390, 16, 27, 261, 384, 101, 423, 195, 40, 401, 394, -349, -73, 257, 117, -260, 79, 37, -104, 24, -107, 55, 291, -382, 5, 62, -336, -24, 219, 72, 167, 356, 122, 499, 92, -113, -442, 83, -363, -130, -194, 7, -403, -247, -157, -279, -333, -459, -261, -42, 323, -80, 8, 115, 199, -223, -146, 90, 90, 6, 277, 227, -113, -496, -503, -420, -370, -687, 162, -623, -90, -104, -67, 223, -91, -663, -279, -648, -35, -151, -166, -86, -305, -61, 114, -59, 116, -62, 118, 399, 33, -279, -733, -596, -647, -563, -371, -557, -323, -444, -170, 14, -134, -507, 0, -286, -264, 7, -107, -233, -165, 8, -65, 114, 304, -246, 230, 466, 61, -405, -660, -715, -417, -969, -505, -636, -882, -1084, -999, -701, -487, -506, -355, -461, 191, -31, -234, 65, -42, 61, 249, 145, 33, 218, 179, 353, -104, -286, -632, -480, -449, -369, -624, -520, -629, -644, -1269, -317, -623, -523, -115, -317, 48, 439, 130, -167, 176, 75, 337, 111, -202, -245, 393, 140, 112, 45, -533, -357, -240, -508, -249, -527, -431, -241, -412, -507, -883, -215, -76, -94, 109, 554, -41, 253, 295, 234, 0, 186, -262, -35, 55, 438, 268, -91, -586, -585, -358, -281, -312, -134, -71, -206, -19, -378, -260, 26, 73, 79, 115, -128, 143, 112, 417, -117, 241, 162, 121, 194, 420, 494, 126, -54, -397, -209, -221, -351, 406, 318, 64, 31, 396, 351, 53, 177, 99, 548, 195, -149, 43, 78, 61, 272, 247, 78, 81, 94, 321, 489, 467, 437, -127, 233, 90, 239, 58, -28, 50, 377, 527, -4, 292, 266, -38, -336, -90, -315, -29, -9, -232, 114, -116, -325, -202, -148, 11, 137, 368, 542, 423, 324, -259, 343, 489, 126, 128, -64, 419, 224, 243, 105, -184, -196, -19, -218, -26, -569, -322, -410, -320, 179, -241, -129, 45, 373, 481, 277, 468, -279, 112, 37, 257, 359, 493, 305, 246, 694, 151, 75, 100, 51, -202, -43, 86, -131, -335, -400, -84, 170, 91, -213, 374, 334, 359, 326, 321, 303, -177, 117, 312, -27, 43, 625, 227, 102, 213, 450, 166, 204, -246, 414, 522, 118, 277, 435, -143, 286, 32, 237, 311, 259},
{24, 31, -3, 248, 274, -272, 291, -225, 161, -24, 199, -49, 136, -383, 40, -185, -36, -112, 31, 271, 409, 208, 68, 211, 94, 41, 49, 71, -21, -196, 132, -40, 104, 26, 63, -138, 210, 345, -368, 113, -135, 284, 517, 284, 639, 451, 464, 435, 426, 207, 196, 295, 259, -115, -260, -14, 76, 65, -204, 541, 196, 485, 477, -63, -28, -326, 85, -312, 102, 117, -183, -142, 237, 114, -25, -264, 153, -131, -63, -87, -230, -139, -142, 47, -350, -17, -220, 518, 113, 35, -124, 252, 413, 199, -116, 1, 113, 153, -70, -94, -32, 49, 262, -53, 61, 93, 0, -259, -429, -80, -257, -223, -279, -4, 713, 298, 46, 238, 118, -43, 154, 126, 340, 396, -102, -274, -26, 210, -73, 285, -85, 148, 93, 99, 144, 268, 34, 114, -439, -192, 292, 482, 619, 304, 72, -273, 42, 152, -14, 485, 474, 126, -318, 117, -222, -280, 202, -151, -67, -343, 189, -111, -230, -269, 26, -354, -450, 243, 262, 486, 235, 637, 417, 240, 579, 69, 49, 289, 293, -57, 109, 23, 155, -11, 115, -136, -236, -269, 147, -216, -281, 65, -125, -454, -338, 113, 476, 539, 109, 492, 248, 249, -90, 204, 237, -235, -240, -430, -203, -256, -204, 248, 34, -137, -247, -90, -295, -183, -140, -600, -420, -158, -150, -160, 567, 506, 280, 266, 32, -71, 158, 136, -19, -178, -362, 184, -237, -21, -152, 19, -158, 321, 34, -201, -275, -146, -433, -646, -441, -511, -119, 17, 655, 529, 456, 321, -11, 105, -173, -104, -205, -363, -95, -271, 5, -51, 224, 12, -33, -145, 52, 246, -414, -521, -126, -309, -863, -667, -593, -204, 1149, 144, 144, 168, 193, 80, -194, -26, -460, 73, 77, 11, -189, -102, -298, -63, -38, 115, -108, 74, -50, -138, -376, -340, -330, -581, -373, -70, 74, 587, -35, 182, 179, -37, -302, -346, -44, -133, -169, -164, -295, -361, -120, 17, 66, -90, -240, 415, 47, -103, -83, -236, 23, -44, -326, -150, 379, 294, 162, 353, 394, -382, -277, 24, -208, -587, -326, -59, -174, -389, 50, -48, 60, -80, 42, -6, -186, -290, -128, -79, -231, -278, -392, -176, 250, 2, -116, -354, -164, -241, -111, -232, -278, -535, -241, -48, 47, -262, -70, -107, -27, -147, 132, 35, -219, 295, -199, -11, -306, -205, -387, -119, 0, -136, -71, -433, -351, -255, -320, -31, -213, -97, -114, 221, 15, 85, -118, -258, -203, 124, -27, 97, -70, 9, 6, 519, 481, 442, -124, 194, 215, 81, -602, -340, -56, 191, -229, -293, -288, -306, -320, -451, -25, -67, 65, -65, 225, 256, 228, 161, 55, -191, 197, 40, -209, 245, -136, -43, 221, -186, -351, -190, 169, 11, -431, -501, -435, -279, -252, -120, -276, -25, 83, -57, 180, 326, -71, 14, -95, -252, -106, 9, -145, -474, -127, 497, -297, -391, -658, -126, 120, -115, 202, -177, -235, -250, 355, -242, 96, 260, -40, 170, -153, 93, 145, -72, 71, -13, 193, -182, -149, 50, -191, 160, -272, -439, -267, -8, -336, -261, 30, 71, 280, -172, -183, -17, 264, -35, -57, -111, -21, 152, 324, 228, 316, -134, -263, -351, -2, -3, -94, 79, 51, -64, -99, -272, -611, 368, 42, -403, 157, 127, 227, 37, -270, 358, 121, 188, 302, 254, 345, 119, 133, -45, 186, 37, -28, -283, -222, 224, 285, 3, -153, -369, -217, -243, -554, 357, 343, 242, 117, 373, -149, -27, 462, 65, 368, 59, 0, 74, 40, -257, 102, 110, -196, -301, -159, 90, 506, 374, -189, 30, -311, -536, 286, -297, -601, 370, 479, 194, 127, 197, 190, 453, 111, 26, 318, 139, 435, 119, -75, -263, -415, -73, -237, -36, 397, 406, -597, 112, -77, 374, -295, -323, -466, -253, 162, 49, 491, -80, 240, -50, 522, 252, -152, 16, 256, -106, -246, -572, -352, -183, -104, 220, 62, 110, 138, 288, -19, 353, 148, -26, -18, -84, 49, 75, 63, 400, -232, 451, 134, 282, 125, 124, 136, -47, 19, -339, -11, -440, 25, 175, 398, 460, 127, -45, 239, -64, -391, 55, 123, 50, 244, 221, 3, 171, 292, -31, 5, 101, -145, 25, -181, -114, -204, 56, -384, -635, -105, -44, 430, 181, 190, -331, -289, -11, -99, -175, -451, -300, 128, 137, -23, -141, -118, 324, -308, 84, 68, -56, -213, -134, -395, -609, -427, 114, 212, 363, 272, 430, -75, -178, -142, -270, 118, 39, 70, 79, -10, 63, 128, -107, -241, 81, 176, 131, 6, -304, -160, -105, -58, -113, -284, -152, 9, -268, 46, 146, 11, 4, 92, 14, -468, 461, 551, -82, 648, 69, 785, 347, 378, 0, 99, -40, -446, -456, 129, -8, 139, -562, -108, -499, -185, 74},
{208, 177, 211, 238, -106, 144, 265, -206, -108, -321, -279, -453, -299, -305, -306, -165, -193, 129, -201, -76, -314, 28, -47, -94, -29, -71, -86, 67, 163, 105, 131, 244, 66, -291, 231, 7, 152, -27, -185, -148, -229, -192, -316, -159, 131, -80, 76, -49, -93, -468, -226, -157, -179, -429, -24, 9, 173, 195, 214, 42, -212, -394, 18, 274, 57, 27, -263, -36, 20, -166, -267, 35, 9, -6, -118, 75, -55, -64, -230, 34, 0, -182, -123, -66, 141, 299, 418, -174, 83, -314, 189, 328, -142, 110, 132, -152, 126, 65, -54, -389, 19, -5, 15, -228, -156, -299, -170, -136, -358, -169, -94, 236, 444, 279, 189, 283, 64, -241, 241, 11, 59, -148, 130, 133, -8, -77, -256, -52, -165, 316, 67, -165, 33, 156, -295, 145, -185, -341, -217, 69, 73, -116, -503, -319, 31, 66, -330, -45, 159, 353, 102, 13, -50, 113, 192, -72, -77, -55, 124, -81, 108, 154, -209, 220, -60, -232, -629, -202, -7, 187, 0, -201, 33, 98, 55, 244, -221, -106, 124, 430, 307, 132, 109, 133, 281, -207, -338, -300, -187, -54, -58, -318, 252, -269, -510, -356, 7, -78, 296, 354, 207, 64, 146, 181, 84, 34, -9, 295, 199, 55, 259, -279, -67, -35, -217, -109, -82, -41, -279, -50, -27, -652, -641, -421, -16, 2, -38, 151, -99, 240, 95, 151, 477, 75, 440, 404, 415, 411, 538, 380, -18, -59, 59, 178, 53, 397, -96, 187, 135, -172, -512, -360, 83, -189, 155, 63, -125, -95, -229, -271, -221, 243, -75, 321, 214, 252, 83, 169, 691, 203, 235, -242, -28, -300, -176, 0, 31, -362, 17, 36, 406, -297, 99, 100, 7, 15, -108, -39, -5, -63, 75, 211, -87, 10, 150, 141, 71, 182, -13, 194, 196, -238, 269, 105, -317, -129, -238, -187, 117, -245, -150, -171, 14, -158, -59, -122, -39, 138, -41, -210, 64, 65, 105, 35, 113, -150, -86, 32, -133, -117, -34, -72, -275, -560, -114, -253, 161, -112, -160, 11, -356, 1, -152, 192, -211, -124, -235, -137, 199, 136, 220, 140, 255, 224, -47, 207, -7, 46, -276, -333, -159, -331, -319, 85, 498, -126, -315, -331, -222, 170, 19, 134, -46, -256, 229, 119, -44, 303, 255, 39, 134, -53, 22, 351, -267, -215, -33, 1, -82, -324, 41, 315, 106, -451, 91, 3, -71, -43, 15, 41, -23, -27, -187, -136, -87, 275, -49, 44, 51, 195, 207, 34, -251, 158, -142, 148, -76, -252, 228, -24, 103, -173, 115, -63, -76, 100, -66, -102, 99, -216, 242, 106, 272, 26, -89, 102, 52, 373, -98, -264, 32, -77, -121, -252, 62, 124, -69, 70, 109, 108, 62, 15, 426, 59, -84, 97, 205, 99, 190, -26, 155, 313, 261, 96, 186, 143, -226, 240, -81, 91, 136, -26, 84, -170, -585, -252, -139, 109, 107, 195, 231, 287, -15, 310, 129, 133, 33, -72, 310, 201, 40, 267, -124, -253, 0, 86, 43, -51, -303, 62, -220, -348, -675, -225, 228, 43, 56, 112, 633, -56, -52, 292, 47, -23, 174, -51, 378, 288, 236, -78, 53, 155, -331, 35, -262, -96, -175, -247, -236, 196, 111, -107, 185, 162, 213, 437, 197, 25, 225, 238, 144, 138, 347, 22, 242, 130, -2, 189, 152, -203, -242, -25, -34, 26, -92, -72, 198, -205, 404, 226, 261, -224, 103, -241, -2, -98, 373, -153, 201, 159, 121, -179, 85, 512, 370, 386, 173, -97, 31, -173, -145, 86, -45, 353, -95, 82, 276, 350, 107, -147, 45, 107, 118, 42, 14, -154, -323, -77, 222, -53, 88, -47, 90, 32, -64, -25, -98, 28, 208, 16, 473, 82, -196, 415, 64, 182, -205, -146, -36, 33, -119, -85, -22, -261, -237, -41, -70, -21, 52, 197, -49, 203, -54, -127, 371, 39, 144, 97, 343, 301, 247, 319, 182, 198, 49, -292, -199, -49, -51, -237, -129, -286, -119, 162, 5, -80, 316, -114, 30, 151, -517, -259, -40, -341, 206, -134, 225, -492, 202, 107, 158, 212, 208, -12, 87, -469, -74, -102, 117, 158, 5, 165, 63, -119, -106, -241, -193, -234, 2, -256, -204, -179, 319, -150, 82, 128, 195, 582, 164, 305, 375, 45, 179, -118, -220, -299, 96, 126, -463, -30, -14, -271, 47, -69, -51, -314, -108, -157, -468, 66, -185, -101, -213, -179, 148, 342, 178, 261, -42, -27, 168, 178, -160, -296, -218, 84, -444, -308, -240, -157, -481, -183, -302, -458, -236, -82, -329, -242, -415, -224, -228, 294, 268, 231, 406, 124, 208, 102, 94, 57, 109, -370, -321, -185, -258, -278, -295, 15, -36, -198, -186, -175, -346, -254, -226, -16, -154, -260, 278, 298, 329, 140, 214, 234},
{-461, -338, -370, -586, -314, 92, -224, -63, -236, 164, 108, -282, 31, 78, 264, 141, 550, 292, 28, -121, 40, -144, 26, 16, -425, -568, -130, -370, -457, -290, -73, -87, -160, 11, -2, -207, -168, 163, 212, 285, 363, 485, 309, 407, 423, 535, 188, 375, 134, 504, 253, 301, 105, 295, -135, -205, -379, -281, 46, -117, 172, -31, 367, 147, 130, 69, -23, 105, 218, -72, 320, 25, 64, 273, 227, 57, 66, 137, 69, 526, 177, 182, 107, -111, -693, -519, -446, -557, -112, 29, -206, -135, 35, 102, 83, 220, -105, 279, 203, 151, 176, 240, 281, 278, 36, 365, -148, 369, -28, 375, 19, -302, -510, -31, -296, -11, 99, 264, 222, 138, -163, -58, 287, 309, 14, 201, 198, 92, 305, 268, 539, 228, 270, 161, 122, -33, -114, 303, 396, -84, -283, 69, 185, -167, 64, -111, -360, 200, 81, 424, -119, 333, 99, 419, 153, 90, 306, 174, 273, 228, 341, 96, 116, -191, 142, 325, 538, -45, -12, -73, -93, 29, 251, 38, 37, 397, -53, 105, 158, 91, 36, 128, -318, -2, -103, 164, -63, 351, 280, 206, 238, 54, 286, 222, 803, -108, 123, -200, -196, 174, -198, 69, -5, 64, -100, -97, 94, -103, -72, -222, -190, -96, -143, -128, 32, -6, 59, 172, 0, 127, -349, 189, 398, -8, -232, -495, 9, 44, -71, -233, -268, -150, -211, 30, -168, -131, -99, -128, -75, -507, -106, -84, -151, -106, -71, -358, 4, -78, -9, 180, 161, 23, -162, -95, 138, 246, -160, -49, -11, 300, 237, -132, -213, -16, -125, -342, -53, -248, -274, -91, -195, 121, -68, 312, 1, -303, 58, 507, -16, -399, -233, -259, -227, 29, 112, 138, 49, -107, -249, -223, -24, -4, -200, -312, -128, 89, -91, -172, -186, 43, -59, -60, -127, 77, -92, -8, -171, -431, 264, 402, 40, -357, -265, -73, -390, -256, -205, 3, 239, -128, 86, 121, -109, -27, 25, -90, -50, -59, -212, -61, -354, -67, 119, -298, -132, -112, -71, 156, 273, -493, 85, -56, 30, -38, -106, -80, -153, -80, -19, -268, -311, 74, -316, -135, -165, 21, -116, 151, -263, -432, -346, -357, -245, -304, 213, 91, -210, -124, 31, 5, -189, 279, 99, 45, 9, -202, 74, 100, -83, 91, -52, 156, -148, -25, -151, -104, -234, -193, -397, -394, -407, -190, -380, -21, 72, -338, -214, 12, -88, 126, -83, 103, 237, -483, -80, -46, 221, -13, 77, -26, 50, -47, -83, -221, -700, -471, -410, -248, -54, -194, -221, -442, -107, 40, -161, -60, -128, 157, 84, 81, 362, -57, 95, 35, -5, -419, -139, -91, 201, -316, -245, -157, -373, 18, -87, -4, -293, -283, -179, -97, -144, -28, 87, -251, 149, -271, 300, 241, -12, -34, 155, -39, 20, 35, -209, -334, -49, 117, -14, -108, -71, -397, -254, -3, -147, -252, -376, 32, -425, -231, 97, -141, 7, 189, -69, -25, -11, 318, 32, -130, 77, -346, -11, 36, -40, 5, -151, 42, 95, -284, -424, -167, -74, -440, -196, 146, -160, 3, -152, 112, -74, -307, -119, -100, -14, 39, -126, -169, -105, -562, -314, -221, -154, -16, -595, -380, -142, -295, 142, 2, 190, -456, -141, 41, 135, -338, 79, 330, 163, 60, 153, 113, -10, 15, 159, -396, -367, -276, -205, -135, -516, -336, -128, 54, 118, 72, -109, -68, 108, 91, -23, 147, -27, -180, -423, -94, -129, -232, -332, -199, 16, -375, 58, -343, -98, -97, -104, 296, 29, 93, 6, 20, 51, 18, 19, 236, 236, -150, -119, 47, 282, -180, -37, -148, -291, -173, 28, -193, 72, -10, -136, -92, -294, 53, -185, 174, 79, 119, -148, -135, 0, -435, 111, 59, 315, -154, 42, 354, -21, 50, 171, 45, 218, 56, 310, 180, 59, 68, 40, -223, 118, -121, 160, 145, -97, 48, -179, -283, 85, -155, 53, 230, 173, 70, -367, -34, -13, -194, -190, -177, 147, -103, -38, -138, 72, 216, 93, 254, -52, 198, 121, 254, 99, 241, 245, 341, 531, 74, -68, 303, 63, -82, -209, 21, -206, -285, -173, 3, 223, 141, -58, -20, -293, -148, -103, 157, 118, 26, -52, 124, 294, 205, 104, 448, 34, -160, -277, -114, 64, -183, -286, 222, 219, 202, 163, -90, -10, -379, -105, 29, 0, 133, -87, 108, 102, 133, 194, 144, 126, 256, -24, 271, 135, -369, -107, 118, -37, -154, -322, -333, -26, -87, -161, -302, -5, -13, 274, 391, 123, 202, 309, 398, 380, 586, 441, 64, 259, 208, 662, 238, -109, 96, -34, -330, -52, -388, -420, -433, -433, -384, -415, -87, -39, 423, -53, 136, 119, 316, 62, 23, 359, 137, 66, 296, 355, -110, -63, 291, 65, 282, 71, -484, -398, -428},
{386, 346, 286, 588, 137, -76, -9, 633, 240, -63, 20, 209, -19, 483, 614, 547, 377, 174, 238, 111, -61, 380, 462, 306, 272, 280, 353, 435, 402, 106, 216, 262, 130, 35, -3, 258, 21, 289, -45, 324, 407, 170, 725, 847, 434, 346, 72, 189, 239, -10, 229, 30, 260, 132, 66, 221, 362, 12, -268, -229, -248, -86, 292, -189, 37, -154, -153, -367, -167, 64, 548, 418, 61, 14, 113, 374, -60, -57, -11, -100, 32, -115, 16, 442, 451, 360, 255, -92, -168, -79, 119, -271, -76, -224, -261, 0, -52, -37, -8, -181, 39, 379, 274, 140, -148, -45, -97, -305, -194, 180, 286, 301, 398, 151, 77, -216, -101, -15, 255, -183, 272, -127, 183, 48, 128, -90, -387, -342, 379, 148, 190, 18, 84, 17, 2, 71, -143, 88, 224, 416, 421, 97, 262, 254, 31, 122, 345, -38, -220, 21, 18, -371, -731, -1058, -783, -79, -48, 2, 116, 40, 19, 138, 231, -121, -134, 70, 228, -56, 310, 71, -320, -37, -34, -147, -82, -185, 34, -391, -597, -681, -841, -1111, -491, -84, 95, 172, 178, 55, -91, -124, -223, -103, 232, 84, 237, 156, 174, -141, -390, -328, -498, -221, -251, -665, -141, -268, -742, -964, -1023, -655, -293, -253, -144, 27, 287, 478, -35, 139, 59, -84, -150, 45, -26, 73, 39, -173, -383, -444, -192, -152, -341, -427, -782, -327, -972, -994, -652, -15, 74, -380, -311, -131, 214, 13, -12, 254, 173, 89, 60, 379, 295, -37, 134, -291, -567, -664, -474, -750, -571, -849, -1130, -692, -867, -765, -304, -97, -80, -300, -264, 33, -204, -204, 113, 116, 19, -44, -317, -4, -382, 304, 174, -510, -550, -267, -480, -656, -447, -294, -434, 252, -386, -411, -88, 426, 375, -60, 49, 40, 50, -149, -61, -414, -246, -245, -191, 154, 152, 87, 116, -621, -377, -145, -575, -78, -449, -460, -731, -239, 63, -105, -145, -5, 79, 139, -111, 97, 14, -288, 117, -58, -21, -124, -171, 259, 183, 210, 341, -382, -363, -116, -338, -176, 157, -77, -134, 53, -57, 60, -154, 6, 43, -254, 115, -29, -141, 121, -80, 194, 18, 293, -118, 279, 326, 600, 171, 211, -235, -227, -453, 96, 176, -118, 0, -88, -438, -178, 300, -133, 422, -28, 342, -60, 100, 247, 388, 436, 244, 387, -39, 109, 657, 225, 45, 36, 89, -99, 90, 107, -257, 469, 175, 50, 85, 173, -52, 31, 153, 14, 69, 187, -107, 86, -168, 14, 296, 84, 153, 93, 483, 692, -82, 121, 288, -126, -50, 111, 67, 198, -61, 62, -188, -184, 197, 174, -45, 287, -125, -107, 440, -94, -88, -91, 198, -380, 18, 2, 86, 91, 115, 272, 475, 160, 8, 329, -171, 85, -68, -147, -69, 240, 76, 142, -24, 291, 20, 20, 86, 26, 149, 7, -193, 59, -130, -134, 157, 221, 297, 64, 191, -305, 268, -340, -256, -91, 7, 48, 171, -16, 276, 138, -20, -177, -109, -31, -109, -79, -147, -199, -218, -10, 69, -238, 137, 122, 111, 55, -42, -155, -36, -106, -556, 185, -8, -187, -302, 126, 58, -203, -133, -182, -38, 86, -202, -216, -224, -197, -93, -7, -205, -384, -254, 309, 161, 82, -400, 13, -26, 504, -327, -176, -227, 89, 205, 3, 3, 146, 82, -229, -215, -209, 53, -267, -34, -179, -180, -208, 136, -9, 36, 117, 312, 12, -12, 113, 308, -420, -45, 81, 107, 183, -96, -147, 1, -89, -351, -207, -68, -269, -474, -368, 116, -22, 94, 23, -239, -260, -235, 304, 365, 237, 17, 367, -233, 123, 40, 39, -67, -156, 39, -43, 91, 121, 88, -205, 100, 120, -105, -64, -384, 114, 85, 316, -342, -26, -269, 340, 277, 501, 163, -351, 0, 97, 246, -11, -212, 330, 110, -76, 1, -202, -188, -521, -162, 142, -204, 328, -359, -320, -333, 231, -294, -245, 85, 376, 268, 162, -40, -111, 103, 114, 163, 38, 68, 6, -28, -1, -41, -106, 9, -99, -131, 26, 88, -90, -95, -362, -280, -42, -735, -197, 1, 401, 455, 551, 58, 364, -24, 24, 12, 82, 229, -79, -81, 235, 416, -240, 147, -162, -185, -45, -175, 16, -231, 209, -151, -60, 136, -239, 17, 413, 376, 175, -308, 98, 335, 39, 107, -87, 33, -62, 9, -82, 78, -5, 19, 78, 152, 115, 126, -84, 544, 63, -42, -91, -92, 21, 114, 362, 432, 443, 309, 525, 243, 191, 462, 171, -11, 367, 306, 238, 150, -351, 106, 34, 144, 270, 340, -124, -21, 261, -23, 37, -44, 51, 280, 162, 508, 117, 286, 344, 317, 439, 452, 345, 173, 35, 257, -149, 411, 99, 93, 194, 75, 85, -5, 40, 622, -27, 429, -2, 503, 384, 292, 387},
{37, 110, 46, -8, 106, 68, -34, -94, 73, -335, -261, -238, 100, 229, 135, 390, 37, 582, 349, 313, 737, 324, 193, 314, -53, -69, 154, 152, 231, 1, -248, -84, -57, -189, 92, 61, -154, -236, -249, -196, 412, 173, 130, 26, -157, -23, 176, 117, -159, 88, -33, -131, 68, 312, 108, -17, 76, -368, -532, -316, -267, 183, -156, -363, -121, -215, 146, -19, -5, -170, 55, 110, 31, -13, 230, -69, -127, -132, 405, -140, -364, 119, 118, 52, -22, -307, -694, -582, -477, -166, -386, -55, -395, -343, 141, -151, -155, -342, -147, 530, 239, 131, -192, 308, 61, 13, 293, -77, 272, -103, -240, -113, -213, -494, -528, -553, -414, -120, -278, -13, -269, -404, -376, -979, -400, -159, -355, 90, 492, 187, 95, 312, 95, 162, 218, -249, -175, -222, -386, -165, -510, -661, -553, -506, -382, -342, -581, -40, -343, -409, -488, -178, -47, 110, 264, 157, 371, 303, 344, 333, 211, 20, -6, 61, -204, -524, -313, -288, -546, -465, -163, -152, -428, -15, -266, -370, -107, -260, -211, -305, 198, 320, 323, 141, 326, 172, 8, 128, 164, -326, 132, 121, -179, 0, -360, -237, 253, 63, 166, -33, -172, -216, -294, -151, -324, -557, -110, 26, 383, -118, -101, 23, 110, 121, 161, 13, 76, 40, -4, 148, -306, -111, -197, -387, 36, -277, 223, 124, 46, -57, -284, -49, -489, -118, 301, 138, -32, 129, -58, -149, -298, 160, 198, 36, 68, 76, -73, -263, -298, -288, -192, 71, 131, 2, 22, 338, 348, 107, -145, -119, 36, 310, 251, 208, -61, -70, 244, 168, -164, 78, -85, -9, -196, -185, -301, 121, -419, 150, 199, 450, 309, 427, -127, -397, 405, -69, 127, -17, 412, 156, 20, 176, 29, 81, -53, -87, 0, 188, -135, -229, -77, -164, -35, 71, -150, -41, 85, 279, 56, 178, 35, 172, -43, 461, 18, -18, -16, 64, 140, 284, 338, -128, 0, 170, 41, -129, 35, 45, 130, -225, -57, -67, -59, 126, 29, 540, 185, 158, 144, 246, 107, 320, 325, -240, 277, -49, -121, 321, 72, 45, 93, -86, -68, -251, 90, 87, -58, -70, 128, -122, 186, 102, 85, -34, 422, 118, 193, 448, 218, 59, 176, 183, 168, 96, 107, -56, 284, -112, 89, -21, -34, -141, -45, -215, -247, -77, 378, 20, 78, 17, -19, -519, 255, 222, -219, 176, 337, 266, 190, 107, 259, 271, 359, 123, 61, -121, 15, -55, 114, -42, -83, -175, -271, -177, 334, 178, -208, 240, 76, 449, 147, 46, -230, 159, -125, -35, 200, 166, 48, 8, -52, 236, 301, -66, -377, -286, -401, -132, -383, 103, 97, 402, 411, 334, -112, 280, 234, 312, 348, 105, -168, 186, 85, 303, 134, 56, 50, 18, -56, 98, -161, -133, -284, 10, -407, -245, -187, -5, 269, 267, 32, 12, -139, 189, -12, 222, 143, 32, 192, 252, 448, 51, 233, 113, 214, 520, -32, -29, -197, -310, -341, -282, -216, -109, -84, -45, 169, -149, 410, 16, 254, 302, 233, -1, 96, 261, 279, -111, 364, 177, 113, 233, 176, 54, -64, -254, -66, -86, -416, -101, -162, 83, -50, -66, -18, 109, 295, 226, 233, 21, -86, -349, 21, 366, 194, 331, 238, 146, -313, -106, -40, -177, -162, 11, -359, -53, -333, -100, -110, -164, 119, -98, -158, 184, 271, -107, 99, 313, -103, 109, 156, -22, 482, 91, 234, 119, -146, -79, -172, -17, -241, 294, -71, 85, -37, -72, -50, 128, 65, -185, 25, -241, -141, 86, 98, 13, -12, -21, 217, 253, -144, 6, 94, 434, -5, -45, 86, -228, -368, 22, 113, 114, -152, 162, 129, -208, -125, -41, -84, 305, 63, 205, 320, 39, 368, 157, 220, 281, -50, -22, 53, 253, -124, 123, 13, 115, -87, -97, -169, -70, -165, 25, 82, 23, 107, 81, -421, 152, -263, -235, 63, 83, 268, 292, 216, -37, 66, 202, 64, 338, -40, 282, 203, 300, 161, 46, 21, -18, -161, -114, 79, 27, -62, -52, -158, -193, -178, 73, -308, 90, 201, 159, 41, -254, 94, -15, -147, 5, 86, 311, 474, -57, 22, 83, 27, 91, 24, -109, 102, -245, 87, 0, -228, -503, -157, -77, -6, -147, 105, 63, -32, -163, -293, -137, -653, -171, 19, 47, 98, 49, 1, -187, 198, 189, 52, 57, -228, -99, 131, -5, 30, -242, -507, -250, -150, 24, 180, 12, -83, -478, -480, -187, -225, -159, -168, -169, 1, 88, 159, 217, 24, 246, 146, -67, -70, -285, -422, -191, -181, -372, -131, 74, 38, 137, 44, -32, 84, -62, 109, -85, -20, -131, 18, -188, 267, 697, 181, 47, 304, 415, -12, -229, -371, -197, -514, -340, -319, 80, 181, -236, -85, 86, 43, 88},
