
#ifndef ARRAY_DEFINITIONS
#define ARRAY_DEFINITIONS_H

float fc1_bias[] = {0.013765922, -0.308965, 0.5745915, 0.15950519, -0.29913545, 1.1269462, -0.40436465, 0.071972944, 1.0139693, 0.5780161, -0.47405446, 0.9864692, 0.7088462, -1.446536, 0.62961596, 0.38138705, 0.4123823, 0.9527393, \
                            0.054699745, 0.022426482, -0.55902684, -0.032717455, 0.97502935, -0.21019945, 0.6450615, 0.50063056, 0.004283406, -0.16301998, 0.6817256, 0.4082214};

float fc2_bias[] = {0.34370756, -0.4232678, -0.21490014, -0.0044659413, 0.43896908, -0.12691669, 0.17513482, 0.103010505, 0.07385653, 0.17346695, -0.44707057, -0.7945147, 0.34344113, -1.6749878, 0.5769776, 0.15144612, 0.52571875, 0.08581048};


float fc1_weights[30][784] = {{0.28414506,0.12063863,0.24283738,0.2548592,0.453166,0.25435197,0.68650264,0.26879394,0.16636263,0.47126302,-0.103094,-0.29984644,-0.026470883,-0.3077427,-0.21905375,-0.012756119,-0.23892416,-0.0014898637,-0.27650467,0.2858562,0.20151614,-0.058185127,-0.010223893,-0.18115671,0.22494507,0.69155663,0.37820387,0.30717668,0.15536624,0.117000476,0.20122308,0.15801549,0.33419046,0.5088025,0.26515788,0.049951773,0.1802228,-0.116888426,0.18969218,0.21519,-0.15009804,-0.1690456,0.05330196,0.0430884,0.19284855,-0.038335938,0.35434538,0.3226507,0.5286987,0.18056267,0.43997222,0.4462681,-0.05653364,0.10808556,0.2216356,0.44090182,0.09501944,0.3917594,0.34166497,0.30731526,0.080257684,0.27470344,0.33116663,0.37903228,0.37277257,0.19912061,0.13631587,0.40127504,-0.1559366,-0.16170931,0.046730164,0.018031131,0.10002075,0.11099152,0.1497805,0.048382483,0.32909653,-0.0807159,0.23926334,0.3698224,0.12767218,0.33360857,0.6260005,0.36061674,0.1805865,-0.00676536,-0.092503086,0.32598487,-0.15483895,0.23345037,0.32990497,0.19165717,0.00928403,0.3313264,0.098160215,0.41373205,-0.027128153,0.0695812,0.08896537,0.1629682,0.30008557,0.31274846,0.111155525,0.10014491,0.17008163,0.1544773,0.2520871,-0.020072818,0.4443759,-0.07740646,0.42797694,0.26838788,0.15901868,0.24820568,-0.055122674,0.32751557,0.08900451,0.23290057,0.3497703,0.3848708,0.12680405,0.19880086,-0.036279142,0.09538642,-0.104141295,-0.17760769,0.39949173,0.4715126,0.3175008,0.3846038,0.09575089,0.4423822,0.48339918,0.4313645,0.6097986,0.1483513,0.6424989,0.5068808,0.13362819,0.31076935,0.25670683,0.28489646,0.04569206,0.21474667,0.038292028,0.0479198,0.19774824,0.13989463,0.3618109,0.24166974,0.39524248,0.3468342,0.09858889,0.09916302,0.04924429,0.096220315,0.11073304,0.42179945,0.44937176,0.59755987,0.5391857,0.48239973,0.19101354,0.1708016,0.3422706,0.20031829,0.16851088,0.75579953,0.034137037,0.06883506,-0.10771488,0.16849168,0.051686987,0.10358456,-0.011734743,0.20192805,0.2910263,0.03274262,0.07596699,0.12094967,0.25913212,0.4071353,0.37959445,0.03586611,0.07692077,0.16661127,0.23439781,0.03145936,0.14617562,0.09086123,0.27828357,0.07691849,0.089141965,0.1759641,0.3692963,0.398629,-0.13851027,-0.0957948,-0.21932217,0.055542026,0.24833028,0.17252497,0.2874148,0.118630245,-0.007478215,-0.045639053,-0.27175108,-0.628511,-0.39668265,-0.23250687,-0.3835987,0.1400939,-0.52722913,-0.38309956,-0.5370988,-0.51375425,-0.33727455,-0.04723862,0.18622573,0.04760495,-0.17164175,0.07502994,-0.13907127,0.07785237,0.26953176,-0.2549791,-0.14634441,0.0475006,0.12046457,-0.12184682,0.06053005,-0.03911123,-0.1496465,-0.3487336,-0.113065735,-0.13467471,-0.29510617,-0.44604453,-0.4192685,-0.534489,-0.4734555,-0.69061446,-0.73303825,-0.98042244,-0.69633865,-0.6981501,-0.7813739,-0.47632164,-0.74398017,-0.48901013,-0.5074804,0.3221876,0.08386957,-0.04668563,-0.15825118,0.036232475,-0.1414676,-0.1519859,-0.1551122,-0.22785766,0.08883034,-0.31354523,-0.1123763,-0.3157682,-0.25848684,-0.29319033,-0.45760164,-0.630222,-0.6136114,-0.6065783,-0.5336598,-0.98860043,-0.8041118,-1.3948466,-0.90231436,-1.0968145,-0.77298295,-0.82814914,-0.410339,0.24067177,-0.061118953,-0.26962125,0.14686504,-0.09107984,-0.0759242,-0.037529226,-0.30450308,-0.12839268,-0.10269729,-0.068319775,-0.113756925,-0.49384063,0.20699774,0.03710042,-0.09819755,0.16051055,0.079079516,-0.10650195,-0.22368635,-0.20065498,-0.86474454,-0.82312,-0.8658551,-0.635973,-0.4701595,-0.57080007,-0.5442434,-0.09710853,-0.030882927,-0.20016475,-0.023472827,0.17831779,0.15924332,-0.18871428,-0.04335137,-0.01644062,-0.14014784,-0.2938798,-0.22117831,-0.28583363,-0.08875463,-0.15412349,-0.058368172,-0.0010467914,-0.001717382,0.1117272,-0.3763606,0.09694061,-0.22737896,-0.106452644,-0.1372654,-0.37133983,-0.25827897,-0.5446472,-0.46927136,-0.21366183,-0.0933115,-0.23143998,-0.03536697,0.0003867941,0.13188072,0.035167776,0.08522387,-0.18132778,-0.22957985,0.0053836526,-0.09661507,-0.115635045,-0.12647621,0.3147925,0.14348717,0.18611464,0.13568623,-0.062152375,0.054001,-0.15675291,-0.10329619,0.16055559,-0.5008175,-0.57528734,-0.36717802,-0.42016295,-0.23461355,0.25522622,-0.17231752,-0.10203844,-0.26724666,-0.19223642,-0.07224669,-0.28815046,-0.11027277,-0.38004592,0.19919407,0.12043789,-0.09813963,-0.10976865,-0.2717919,-0.057583008,0.16729182,0.013574238,0.020590184,-0.0014054093,0.2526343,0.21203557,0.2003492,0.007418664,0.07817484,-0.019867212,-0.052645933,-0.09774656,-0.03226412,0.2584383,0.05459412,0.028885528,0.113919094,-0.14224137,-0.27999702,-0.15070969,-0.5746163,0.1503585,-0.12621678,-0.14966387,-0.082979724,0.46095294,-0.067070186,0.05184414,0.2761462,-0.075981736,-0.09693028,0.2088692,-0.1389271,0.47719276,0.06645223,-0.005150268,0.01834861,0.10825916,0.15860286,0.37193504,0.049100965,0.4207545,0.10924408,-0.07875662,-0.337644,0.057978254,0.21831043,-0.15110217,0.010972523,-0.027634611,0.12863985,-0.0029222716,0.34456244,0.04241971,0.018427795,-0.018930899,0.017032502,-0.057340764,0.060933243,-0.19868614,0.01406635,-0.23947453,0.0052721184,-0.06617226,0.20645466,0.18753701,-0.29054743,-0.004954871,-0.14469653,0.428254,0.20405243,-0.16096374,0.0009585716,0.14474559,-0.23470354,-0.052180197,-0.0807114,0.13102163,0.2563719,0.3124694,0.16652273,-0.08078291,-0.026642479,0.030975286,0.36485988,0.4047836,-0.033189274,-0.07198032,0.12398586,0.112407796,0.37146315,0.3713386,-0.2172611,0.064629175,-0.10174759,-0.028078228,0.074642844,0.34577277,-0.02670018,-0.4730516,-0.2130926,-0.22713791,-0.30123505,-0.05754582,0.23853925,0.17043753,0.007028199,0.12249524,0.5126334,0.44700208,0.2805409,-0.050024807,-0.019002268,-0.07378483,0.096093036,0.12086684,0.40741178,-0.2389013,-0.08926525,0.07748569,0.009223544,-0.020154325,0.18162909,-0.059139337,0.12323015,0.49932817,-0.10816908,-0.3382882,-0.6180336,-0.31003186,-0.2528433,-0.18829228,0.18451922,-0.3038602,-0.018319165,-0.23148026,0.09282739,0.06904655,0.11479473,0.0844431,0.06253789,0.2939283,0.05048984,0.23187973,0.39066723,0.22772117,0.20593047,0.2510803,0.05836166,-0.17292787,0.03383712,0.049161755,0.12769257,0.35335574,-0.099985816,-0.17034449,-0.55989534,-0.34629384,-0.13520673,-0.4631941,-0.2955923,-0.18694034,-0.36020446,-0.43525305,-0.34441337,-0.46710378,0.032062113,-0.06415241,-0.06404828,-0.08001313,0.08227377,0.3443401,0.1707554,-0.07783413,-0.19495708,0.02483389,0.01632421,0.28018692,0.6522178,-0.13513504,0.09337593,0.15900323,-0.06401337,-0.29371467,-0.6792636,-0.26265877,-0.24768378,-0.34560585,-0.50824213,-0.16696875,-0.29519874,-0.48341286,-0.20411947,-0.20404804,-0.16942059,-0.3436959,-0.26586416,0.18803456,0.2589286,-0.076449364,-0.43100592,-0.19277172,0.1250389,-0.06592921,-0.025251916,-0.12660997,-0.15213907,0.072351895,-0.14243077,0.38409823,0.40516415,0.2443272,-0.6007758,-0.720112,-0.17890161,-0.35490432,-0.37012511,-0.16758764,-0.39557648,-0.13834682,-0.14225687,-0.25396717,-0.06949348,-0.11799154,0.1760984,-0.036950935,-0.24827637,0.07903215,0.11950538,-0.102093644,-0.1462026,-0.31010258,0.021439012,0.08123393,-0.42504096,-0.07520688,-0.025560543,0.12877887,0.45946738,0.48384562,-0.011222919,0.0918998,0.040832035,0.22534475,0.15273969,-0.02091491,-0.0968186,-0.091093004,0.028930847,0.05728466,-0.01665234,-0.03530779,-0.050697505,0.15788125,0.007615491,-0.19884126,-0.21148497,-0.1579005,-0.17750184,-0.37167245,-0.21475971,-0.052951284,-0.24164116,0.30993125,0.424234,0.07975722,0.52158356,0.5799586,-0.07583618,0.45893174,0.07906309,0.18131602,0.39570808,0.31592852,0.37062305,0.09460352,0.11506223,-0.050759282,0.035437174,-0.13137057,-0.27048036,-0.1284611,-0.15734874,0.021545224,-0.22331502,-0.0794004,-0.033579476,0.119407386,-0.18971848,-0.34733784,0.25420976,-0.07601764,0.015693383,0.038832158,0.49013638,0.60391045,-0.015986076,-0.0007158184,0.1565038,-0.14780422,-0.015947316,-0.0023314888,-0.064567275,-0.14543174,-0.33795178,-0.3084825,-0.27276897,-0.27926603,0.109735385,0.1302126,0.04912465,-0.03759765,-0.07508907,0.14550182,-0.3454841,0.14661345,-0.030633014,-0.023833435,0.2541607,-0.29806846,-0.03867052,-0.03488096,0.23771659,0.023248782,0.019674856,0.20784281,0.34718356,0.055156168,-0.08366938,-0.3123206,-0.18973395,-0.07628682,-0.16790968,-0.043107413,-0.21978243,-0.1688142,0.024324195,0.054783333,-0.021735188,-0.08387918,-0.106207535,0.30929887,-0.17319372,0.105813116,-0.027816804,-0.07630426,-0.09006414,-0.11425191,-0.010193612,0.2175008,0.29163498,0.08738398,-0.028384715,0.13214001,0.3492186,0.15666604,0.25050703,-0.10156702,0.009850646,-0.25925526,-0.15474199,0.12823774,-0.14921087,0.071285754,-0.10769077,0.04130422,-0.19737136,-0.28791225,-0.31097487,-0.19010398,-0.41507208,-0.039110713,-0.45429364,-0.33109865,-0.009226073,-0.26603228,-0.086145595,0.15978521,0.32105458,0.16338727,0.41178277,0.5609011,0.029595794,-0.12259081,-0.011597332,0.04389424,0.19394106,-0.039754834,0.18820557,-0.145828,0.32494846,0.52834344,0.26009953,0.48279518,0.49251193,0.39656624,-0.22310938,0.14145586,0.029801132,-0.037162885,-0.14731441,0.18786801,-0.27638182,0.05786575,0.17398125,0.27349418
}, {0.17834532,0.13630314,0.022047874,0.28911528,0.0056524486,0.031832274,-0.062660664,-0.008566305,-0.19428556,-0.31446108,0.034971427,-0.075639464,-0.19296475,-0.42168942,-0.60101944,-0.169668,0.45221606,0.7640656,-0.34890237,-0.25105953,-0.16915213,-0.17567791,-0.14192677,-0.18312715,-0.034843247,0.22721095,0.25805476,0.13623512,0.16691528,-0.106611006,0.29189628,0.28673446,0.031134455,0.19106017,0.49575856,-0.011101373,-0.2012724,-0.12019209,-0.2773704,-0.12818368,-0.11736067,-0.61049473,-0.7173031,-0.35053208,-0.3897176,0.09580244,-0.009297721,-0.6232811,-0.5574764,-0.54584783,-0.5543657,-0.45456672,-0.120589904,0.037446104,0.20438163,0.25463957,-0.03077685,0.13807833,0.22121015,0.13663076,0.14280431,-0.345686,0.07802662,0.09165795,0.108995505,0.12182447,-0.12825526,-0.21161258,-0.6787106,-0.0889347,-0.4802742,-0.39694396,-0.67742485,-0.28541467,-0.26646158,-0.66800606,-0.22745979,-0.24990498,0.0012375914,-0.050838538,0.16879073,0.04703073,-0.03783794,0.23107833,-0.10296389,-0.14148821,0.4056339,-0.28989717,0.08191941,0.5780303,0.07006135,-0.1536639,0.23566426,0.10175342,0.15076908,-0.28519776,0.14006105,-0.016255818,-0.3522866,-0.58106166,-0.055610016,-0.10365528,-0.070433825,-0.21456477,-0.030639697,0.18234877,-0.000148441,0.08985544,0.112409994,-0.09864927,-0.07621638,-0.09693184,0.08971127,0.5012989,0.1500412,0.0169169,-0.016882833,0.32028905,0.31294817,0.46288034,0.10082534,0.50150365,0.6181915,0.19697326,-0.36821324,-0.11708452,-0.4594553,-0.041585974,-0.078259654,0.11198518,0.17286974,-0.17271078,0.17167433,0.2763684,-0.049970575,-0.12253545,-0.31909528,0.24512318,0.2011956,-0.18722229,0.06963256,0.29471424,0.30342364,0.37907687,0.14346409,0.4928191,0.23922142,0.08491677,0.12290081,0.32578486,-0.11086138,-0.036350694,0.16311717,0.45282602,-0.3271418,-0.013156999,-0.21905982,-0.32063124,-0.0051525626,0.33857006,0.03311298,0.13155565,0.23966199,0.3915727,-0.06576458,-0.06765394,0.20047526,0.13013875,0.31453404,-0.00088313915,0.57024795,0.26627403,0.39965218,0.15546894,-0.17805469,0.05471808,0.080481514,0.36829296,0.36977106,0.1278987,0.12719671,-0.18945919,0.20213555,0.27211833,0.4606963,0.33652535,0.27896264,0.29101712,0.3094178,0.17570855,0.5702602,0.0877629,0.31187177,-0.105458975,0.07206877,0.8027473,-0.28682747,-0.022122938,-0.32020557,0.68651056,0.03648448,-0.11060427,0.34530127,0.040689833,0.20631652,0.15760885,0.21572483,0.43887448,0.3025099,0.09577125,0.20767948,0.18679626,0.07149314,0.19909039,0.16614811,0.47749877,8.759118e-05,0.25840417,0.33625513,0.17072973,0.31469628,0.08300892,0.50358105,0.5148067,-0.06520583,-0.4841715,-0.027559258,-0.050005347,0.104633406,0.2960391,0.18978211,0.6816728,0.2221897,0.18376197,0.19329293,0.33957404,0.23520482,0.45565078,0.0034386697,0.4236518,0.36980903,0.24651204,0.21835496,0.44246835,0.53172356,0.24697277,0.50191784,0.65771717,0.27967894,0.524132,0.47299182,0.3905934,0.22228672,-0.50232255,0.35750753,0.14535584,0.048871525,0.3542401,0.26260653,0.28239942,0.08354274,0.21356039,0.24517414,0.07847703,0.060344152,-0.083818555,0.16100697,0.30801302,0.34760347,0.042411715,0.2773702,-0.07006635,0.26709354,0.3793626,0.04719057,-0.0382922,0.0916001,0.03400521,0.17176262,0.33121586,-0.28830916,-0.35691217,-0.044560954,0.04352961,0.3246393,0.3458496,0.34471646,0.24641296,0.5316042,0.18673217,-0.17107055,0.25812894,0.14250113,-0.027194275,-0.022765217,0.14886987,0.30882177,-0.11724682,-0.40594488,0.0069953445,-0.009820448,0.13452747,-0.029084263,-0.19074038,-0.1908295,0.211253,-0.1018419,-0.04312407,0.24048951,-0.17324,-0.045916475,-0.3112769,0.15433723,0.06514285,0.27239218,-0.6638814,-0.36158457,-0.05052218,-0.11372031,-0.12506245,-0.27159142,-0.13329293,0.031285804,-0.38349652,0.22859931,0.3549006,-0.19239505,-0.3457346,0.09480974,0.16038647,-0.30907965,-0.42674857,-0.2580629,-0.53196996,-0.3552192,-0.16060624,0.11961055,-0.263892,-0.08245626,0.092734754,-0.3756323,-0.111650854,-0.039400194,-0.066915184,0.18607698,-0.16820326,-0.13995786,-0.08887064,-0.3122903,0.025226923,-0.010259734,-0.0960958,-0.25889373,0.17963926,0.066064,-0.4141644,-0.07576492,-0.4242191,-0.52214867,-0.30054113,-0.362074,-0.7074269,-0.7709764,-0.05639368,0.1487102,-0.61183864,0.16601624,-0.32514963,-0.78817487,0.08520636,-0.15194073,0.021374056,0.14468256,-0.15271008,-0.0714737,-0.351847,0.042012297,-0.32901883,-0.19114707,-0.13902888,-0.00053719495,-0.48818725,-0.4243217,-0.3522479,-0.54276305,-0.33492872,-0.34397972,-0.47941288,-0.37370092,-0.38745743,-0.66944665,-0.13159068,0.09920467,-0.14798109,0.1590362,0.012609758,-0.02189795,-0.062200468,0.06777413,-0.2136061,-0.22087072,-0.057058737,0.025540866,-0.13624552,-0.38733542,-0.05594165,-0.02152237,-0.41885757,-0.33447468,-0.38304386,-0.31990746,-0.419788,-0.20854785,-0.08213039,-0.20536886,-0.16583641,0.18840936,-0.042562004,-0.19779791,-0.06308979,0.019769227,-0.42208722,-0.11576014,-0.048823554,-0.07032753,-0.12054782,-0.19015004,-0.21102156,-0.4299691,-0.064910635,0.29797336,-0.17298861,-0.25628123,-0.13885905,-0.20988585,-0.0066989106,-0.15136752,-0.12335417,-0.28682858,-0.33886573,-0.6056626,-0.2793098,-0.20409618,-0.10610102,-0.19614102,-0.2930466,-0.4513078,-0.046034954,0.28852117,0.028158257,-0.13473278,-0.20902467,0.03730123,0.052825127,-0.15148614,-0.5558899,-0.3122938,0.08913927,-0.0020133173,0.055792034,-0.02917641,-0.030290201,0.06975073,0.0036804148,-0.2689532,-0.051874984,-0.06659546,0.06410139,-0.0062087807,0.01200447,-0.09854582,0.45023835,0.039103467,-0.012772341,0.15134425,0.18359485,0.024878794,-0.5322356,-0.19113648,0.09618862,-0.14703071,-0.48550043,-0.20056583,0.044634447,0.19559044,-0.13718204,0.10419541,0.16520447,-0.27472314,-0.053552803,-0.2022955,0.0736061,-0.18091516,0.105739035,-0.41958115,0.059210956,-0.026347147,-0.12686563,0.06412125,0.03458263,-0.018433385,0.31792295,0.2526542,0.3546251,0.283703,0.116081156,0.25501716,-0.06562497,0.1472779,0.14541487,-0.13057007,0.06633338,-0.12504531,-0.093724765,0.086170554,-0.08559662,0.20686665,0.21444425,0.14803341,-0.04866981,0.06270644,0.03608189,-0.3312584,-0.11750688,0.25446558,0.21768074,0.22044048,0.3070619,0.2566687,0.059593678,0.40822947,0.2850834,0.28528666,0.26478276,0.08924052,0.26536205,0.272207,0.0115104215,-0.25173655,0.1304742,-0.26571056,0.017155416,0.05873625,-0.030321442,0.044503376,-0.06325372,0.015554032,0.06864212,0.14486246,0.3460325,0.0939594,0.25454247,0.40271807,0.21751463,0.28187904,0.16427454,0.86827224,-0.08227107,-0.21376447,0.20310628,0.28590262,0.33637393,0.47283113,0.21871151,0.09389211,0.070724495,-0.10806589,0.05164861,0.14924,0.21495424,0.110147655,-0.09399102,-0.10961535,-0.053623915,0.31461805,-0.078785576,0.28397253,0.09329995,0.48577124,0.16321898,-0.08152289,0.12768917,0.21205501,-0.34169692,0.053787306,-0.006531636,0.0684532,0.5559115,0.067336805,0.02064539,0.031292222,0.057427876,-0.20151211,0.016251108,-0.25887272,-0.09799235,0.37975624,-0.18876216,0.18065052,0.118565604,-0.11481976,-0.030081553,0.05619887,0.075655624,0.19275463,0.02684922,0.47023278,0.03524378,-0.090021804,0.11303927,-0.08357925,-0.2522108,-0.2106644,0.16474131,-0.104644544,0.020628173,0.06383043,-0.021121444,0.29064465,0.2530816,-0.08512628,0.10512467,-0.23478635,-0.118735604,-0.16245759,-0.024359936,0.21279222,0.054331925,0.14231491,-0.07937051,-0.38604042,-0.13761863,0.04035586,0.17519364,0.23223501,0.049706608,-0.041382514,-0.36288592,0.14780726,-0.17040999,-0.07967515,-0.02421401,-0.12948413,0.101143695,0.09836165,0.15440258,0.047664486,0.25830567,0.2062234,-0.06397264,-0.06370074,-0.04363228,0.2153002,-0.22014363,0.0016769401,-0.2226966,0.2598057,0.12863849,-0.03635653,-0.043091316,-0.17368272,0.1436538,0.021608662,0.10028026,0.33570156,0.47653893,-0.3952316,-0.3982848,-0.35259205,-0.0067321095,0.090350196,0.17715643,0.09799457,-0.24708503,0.15007369,-0.021597102,-0.14061189,-0.101428956,0.19739723,-0.102808945,0.1396645,-0.2529085,-0.07001632,-0.008486961,-0.21269345,-0.2614699,-0.005716967,-0.100036584,-0.06050001,0.08441836,-0.018595206,0.031806055,-0.111969076,-0.40705943,-0.45734394,-0.075227015,0.40953755,0.23565474,0.08262857,0.064908646,-0.10703309,-0.10413896,-0.3790593,-0.54370785,-0.24219637,-0.1490754,-0.01567909,-0.15143971,-0.22874835,0.35014886,-0.058323056,-0.41571292,-0.20173778,-0.07914449,-0.3733606,-0.2313774,-0.24068294,0.16371204,0.06356755,0.19021757,-0.6204275,-0.13513221,0.019817038,-0.31303722,0.50794554,0.29942316,-0.08288895,0.4366467,-0.113452576,-0.3337101,-0.09885359,-0.15537626,-0.3527494,-0.4921553,0.28110236,-0.019614263,0.12085256,0.18183245,-0.042019986,-0.19138916,-0.17495462,-0.33157903,-0.23450911,-0.063789785,-0.15467131,-0.08107763,-0.13651465,-0.26230735,0.111975044,0.3344993,0.098624274,0.15208855,0.47589254,0.09960201,-0.081555486,0.06528303,0.18070969,-0.06599016,0.1363869,0.012544628,0.094240084,-0.24518512,-0.22015801,0.21137007,0.17181812,0.14448291,0.13720214,-0.16176604,0.09428007,-0.022423284,0.43335742,0.2627957,0.031560067,0.35663575,0.024687024,0.2939543,0.23879701,0.30729333,0.3159554,0.41699365,-0.3765213,0.23725836,-0.011800502,0.23120326
}, {0.341984,0.3684413,0.27754617,0.09119468,0.34725565,0.5262855,0.54893064,0.45705906,-0.007917028,0.076777585,0.40386966,0.08319493,-0.045755643,0.19685383,0.36817995,0.026880195,-0.052690238,0.1580199,0.06787318,-0.0107526565,0.22792108,0.38217878,0.119645484,0.443311,0.42206186,0.38384724,0.20761733,0.4158523,0.3337887,0.25489363,0.059465323,-0.10507318,-0.16924766,0.2809634,0.004314209,-0.086838916,0.3196457,-0.06492429,0.102656715,0.08621972,-0.4611215,-0.111456715,0.20575273,0.06543795,0.13741249,-0.13754803,0.09062884,-0.021585034,0.047551967,-0.028963873,0.06278648,0.3400426,0.2562081,0.011773867,-0.083918355,0.33141172,0.26575527,0.28092703,0.2841219,-0.44305533,-0.16253449,-0.16472007,-0.39070866,0.16282707,0.09938045,0.1712261,-0.09491839,-0.06546272,-0.2170743,0.09364355,-0.15424246,-0.070854954,0.025905456,-0.055825304,0.024041584,-0.14395747,-0.09748075,-0.056307785,-0.21995334,0.007386395,0.13251556,0.1270859,0.16924948,0.19780202,0.22628416,0.20764796,-0.17614625,-0.46625787,-0.08285057,0.26650876,-0.16633116,-0.19546664,0.18281166,0.17283294,-0.17371541,0.057674937,-0.2749593,-0.09510419,-0.048923165,-0.09069205,-0.28872457,0.041581437,-0.36802667,-0.13913995,-0.08936345,-0.25771812,0.060518257,-0.27481744,0.006875239,0.0068988996,0.015058326,0.24329749,0.18698445,0.14211586,-0.29113194,-0.25836822,0.28325135,-0.25732937,-0.46939722,-0.26086965,-0.04679989,-0.07411384,0.13649736,0.092338994,-0.01334944,0.045010425,-0.08928978,-0.16520013,0.045614872,-0.0900716,-0.42783973,-0.014684446,-0.048625007,-0.005017817,0.35025194,-0.056861933,0.154573,-0.07767293,-0.07170057,0.30585906,0.3035321,0.3370336,-0.37823936,0.054035235,0.019492118,0.005431542,-0.45789707,0.071465746,0.08928699,0.49249694,-0.040126566,-0.4502028,0.24607654,-0.115072064,-0.33992562,0.09602887,-0.09120575,-0.0818409,0.15372722,-0.05774979,-0.09033776,-0.31665727,-0.49609637,-0.27871507,0.047184758,0.406105,0.37784418,0.37392282,0.2729522,-0.030281484,-0.013417167,-0.24216264,-0.22884816,0.0280614,-0.12008654,0.13926144,0.2217837,-0.14375624,0.018684817,-0.13587826,0.14596047,-0.15030377,-0.15042108,-0.20600627,-0.36309054,-0.18767093,-0.2694978,-0.104275934,0.10111304,0.15510833,0.14345331,-0.15072739,0.2647659,0.07077536,-0.1252135,0.22364455,0.34694615,0.07000268,-0.23809242,-0.24006577,0.17514297,0.003670574,0.19649617,0.13775292,0.015153459,-0.11321811,0.17729823,-0.13856043,-0.46625265,-0.061072435,-0.07879457,-0.047185324,-0.28059673,-0.28534764,-0.12363627,-0.14598943,0.16367418,0.33429715,-0.19348824,0.01985781,0.4151642,-0.12442173,-0.2922328,0.018414645,0.24771625,0.30246595,-0.19616865,-0.13127446,0.14842673,-0.07155019,-0.043210115,0.112415284,0.23956415,-0.09073316,0.09074487,-0.046394635,-0.07048911,0.39114928,0.2745738,0.13743956,0.15721054,0.13026656,-0.17871922,-0.04884369,0.04166808,0.04130696,0.012479494,0.3298249,0.042538658,-0.2195564,0.025931733,0.13425274,0.5692952,0.2395932,0.35589993,0.16867249,0.25694108,0.06153907,0.44938287,0.22763337,0.10157231,0.009184346,0.19299977,-0.009637368,0.17632543,-0.06581286,0.35200444,0.36898032,0.46251512,0.4948324,0.23211692,-0.18786982,0.2492271,-0.0340509,0.1797596,0.56395304,0.57449263,-0.4136749,0.2737489,0.22306773,0.4729508,0.09888887,0.25431505,-0.07941845,0.26031715,0.026801696,-0.08467201,-0.16701871,0.24472839,-0.11623294,0.36112753,0.045106146,0.33221793,0.54508907,0.32590184,0.2251377,-0.16220209,0.132552,-0.0028449895,0.24514979,0.6249111,0.44519648,0.42168912,0.17046067,0.1709022,0.23874068,0.14307797,0.4000773,0.04404092,-0.043310065,0.16007744,0.21181284,0.5504758,0.24374717,0.046491127,-0.045706347,0.0584455,0.09080463,0.12752594,0.22758031,0.27939472,0.4143844,0.31501195,0.33385208,0.42485222,0.023674866,0.24911982,0.6683854,0.08935342,0.18009673,0.420145,0.168365,0.013082429,-0.0717659,0.17855662,0.33853942,0.3505877,0.22870062,0.6942709,-0.09196379,-0.16926168,0.10709567,-0.07798012,-0.11622983,0.025344267,0.13572416,0.2082299,0.21461079,0.23107105,-0.044488687,0.057848968,0.32306865,0.0031709806,0.25435665,0.05868674,0.056239124,0.10657036,0.20194124,0.37674412,0.29476485,0.13724229,-0.19529398,0.017461391,0.3483679,0.437443,0.22008376,0.054976955,0.5920282,0.1817488,0.42286846,0.25047198,-0.016319927,-0.06303899,0.0013671597,-0.039006192,0.49695727,-0.021040794,0.16310805,0.26595864,0.21038981,0.24572797,0.11515045,0.027323011,0.12229858,0.37755266,0.17364313,-0.043623883,-0.043836147,-0.07206172,-0.16234642,-0.19075821,0.19043459,0.88511163,-0.1935812,0.08338557,0.76373196,0.22824195,0.65000415,0.062821075,-0.14183031,0.16324233,0.2866827,0.10215129,0.30740994,0.3502119,0.50177014,0.2718668,0.2246523,0.25273192,-0.033253815,0.08822221,0.14048068,-0.033823118,0.040630437,-0.026064767,-0.33782104,-0.12965146,-0.07070637,-0.3724682,-0.008200324,0.6154611,-0.05990004,-0.044352233,0.08303875,0.009354022,-0.22101949,-0.006505565,0.11600339,0.24162082,0.42107782,0.34579897,0.5802656,0.28801146,0.19704181,0.18831344,-0.11307923,0.06344057,-0.058661047,0.04392409,-0.08814119,-0.03714979,0.043133225,0.0426245,-0.34590948,0.20211376,-0.01341599,-0.33287632,0.18503305,0.3290818,0.065072924,-0.12500377,-0.22991009,-0.2703583,-0.19507474,-0.45839015,-0.11709139,-0.21606116,-0.37648165,0.14064664,-0.26764613,-0.1720628,-0.34929603,-0.21777889,-0.1236186,0.10707972,0.062106673,0.02966909,-0.3188205,-0.057657473,-0.21117395,0.21727943,-0.04382487,-0.035451338,-0.2896783,-0.13041244,0.027369592,0.0902417,0.0024193362,-0.24720784,-0.58877707,-0.5468875,-0.6057309,-0.41626853,-0.7191967,-0.838706,-0.66514516,-1.0152578,-0.7249106,-0.5363749,-0.36956614,-0.29670665,-0.3742563,0.20004442,-0.0864556,-0.549758,-0.13998318,-0.21284483,-0.012808794,-0.32479787,-0.60698605,-0.49853674,-0.46736228,-0.10118173,-0.11938795,-0.11982561,-0.1552731,-0.48641717,-0.58869576,-0.82200974,-0.67411494,-0.5960927,-0.7662597,-1.1530359,-0.6523757,-0.69781756,-0.4960931,-0.5400959,-0.34746337,-0.665377,-0.6606198,-0.59642005,-0.17264108,-0.33486214,0.28654888,-0.13065214,-0.12172734,-0.508735,-0.24485636,-0.24572156,-0.3872498,0.012382628,0.10222983,-0.32274416,-0.5217992,-0.594536,-0.6454628,-0.63660306,-0.66788185,-0.5617567,-0.5190176,-0.3714881,-0.10894873,-0.31460935,-0.46496573,-0.6572587,-0.59742904,-0.6711517,-0.24462265,-0.19328687,-0.6012286,-0.13481733,0.109511554,-0.109326914,-0.32576814,-0.37516487,-0.27731293,-0.36015356,-0.56770784,-0.32387426,0.2923942,-0.09057007,-0.34530425,-0.61130553,-0.58986354,-0.6755782,-0.61956733,-0.44618767,-0.09647179,-0.4184893,-0.35163024,-0.06485224,-0.276573,-0.07354219,-0.4267639,-0.37809637,-0.047573164,0.2118589,-0.18121845,-0.09413168,0.08004025,-0.08496844,-0.29686657,-0.28592622,-0.27094606,-0.10560071,-0.28753188,-0.19485515,0.33142325,0.19548036,-0.2273543,-0.44397023,-0.43856695,-0.5345978,-0.14048076,-0.056326758,-0.098839596,-0.32297373,-0.12969482,-0.005740367,-0.24606031,0.11394747,0.09007139,0.06686638,-0.037664473,0.012936434,-0.12013594,-0.19380254,-0.15591253,-0.09322279,-0.10062168,-0.07734325,-0.20674579,-0.23131585,-0.14849338,-0.44987786,0.23336102,0.18532862,-0.04505478,-0.18322018,-0.26850235,-0.35917842,-0.1741279,-0.27032393,-0.08053934,-0.30213502,0.05905056,-0.2347301,-0.031891204,-0.07041611,0.101261735,0.20226572,0.38879207,0.21820532,0.016733104,0.3159621,0.038102902,0.1567898,-0.09935124,-0.19130956,-0.1667112,-0.35715407,-0.19623521,0.36466983,0.34568033,0.4580483,0.21809609,0.08980179,-0.10679752,-0.02085333,0.09453987,-0.025500739,-0.07788852,0.14069158,0.026833514,0.22945507,0.35544205,0.3169077,0.2630595,0.17468332,0.17027184,-0.09404772,-0.31323633,0.07181249,0.070407145,-0.19929835,0.5970209,0.45913312,-0.17382976,-0.5667243,0.10046252,0.35998154,0.42717284,0.20782895,0.3052923,-0.040059913,-0.32802108,0.037959784,0.15067992,0.092294656,-0.10359467,0.5970909,0.010554918,0.17165495,0.074275866,-0.06376481,-0.028136373,0.032177348,-0.023832051,0.04532288,-0.061192896,-0.11926248,-0.17082179,-0.0033411158,-0.09403555,0.3060087,0.4152736,-0.01466983,0.1834838,0.15889677,0.41697523,0.45798117,0.2849726,0.20553875,-0.29620636,-0.34765032,-0.11052057,-0.029634442,0.011554362,-0.017896838,-0.06170449,0.2683159,0.076556206,0.3113277,0.10574122,0.14433253,-0.14301673,0.24065244,0.052834418,-0.07462107,-0.21470018,0.31503183,0.42932695,-0.09124651,-0.29174143,-0.41490212,0.030428689,0.31586465,0.33053252,0.41277876,0.45261008,0.29127872,-0.062226303,-0.12261402,-0.058957875,0.029537696,0.15379417,0.42071223,0.27478766,0.17948847,0.077430986,0.16478728,0.13009875,0.104826055,-0.10557803,-0.14369403,-0.010235662,0.030960297,-0.11803518,0.33154878,0.05711128,0.23435427,0.12780592,-0.25016633,0.1848872,0.2690065,0.4546281,0.33063236,0.3654078,0.35780504,0.16846986,0.22967319,0.1709666,0.2292946,0.23344871,0.34111822,-0.03654667,0.44786668,0.4439406,0.39034802,-0.1836289,0.07555894,0.25368533,-0.014232771,-0.07184213,-0.43123034,0.09402404,-0.11761054,0.38239542,0.117752016,0.30204043,0.13107672,0.18712874,0.37237987,0.3151976
}, {-0.09823745,0.03443235,-0.16632797,0.07963986,-0.14347886,0.026679909,0.20147811,-0.06580053,-0.15316944,-0.1810329,0.10664683,-0.5671526,-0.60980755,-0.34694007,-0.14018278,-0.2981304,-0.59852415,-0.33142048,-0.2452829,-0.42829576,0.003288386,-0.08294401,0.2626249,-0.020298598,0.02812576,0.1542801,0.16248316,-0.046206992,-0.036753904,0.18043633,0.2249075,0.2697817,0.119489014,-0.052565902,-0.10480649,-0.3232644,-0.28811845,-0.2617274,-0.43898702,-0.50454617,-0.32969302,-0.42295772,-0.4603268,-0.3008586,-0.38107932,-0.42478913,-0.36103532,-0.33797678,0.102777794,0.09630964,0.03351289,-0.099265546,-0.2744803,-0.13469143,-0.096268,-0.1567272,-0.044143338,0.09930319,0.24269873,0.110710345,-0.07652913,-0.24360438,-0.50810355,0.15784235,-0.10011981,0.00700323,-0.23053817,-0.32079676,-0.32786012,-0.38552547,-0.32634556,-0.36471468,-0.537911,-0.3541067,-0.08088466,-0.030380318,-0.24055986,-0.02645805,0.2643704,0.24348408,0.05064376,0.15247867,-0.001704568,-0.23171924,0.09573963,-0.02871878,-0.30137923,-0.3874285,-0.44772187,-0.030256366,-0.12881798,-0.158301,-0.03849253,-0.38773558,-0.14311066,-0.21054433,-0.40712646,-0.500855,-0.44326666,-0.33024782,-0.41389024,-0.028189147,-0.08246207,0.16168779,0.21699192,0.22924069,0.40370277,0.3792676,0.60614693,0.19634327,0.21392043,0.11485943,0.22818734,0.029993877,-0.1478066,-0.10172442,-0.060494352,-0.26197565,-0.4539238,-0.19039628,-0.18801662,-0.03465537,-0.103041045,-0.15248995,-0.16978635,-0.28491405,-0.24934608,-0.18431216,-0.061864953,0.12012393,0.24922442,0.1671761,-0.0037651947,0.18313862,0.24066275,0.41731417,0.43568388,0.14351174,0.31758517,0.061349228,-0.2556868,-0.031114241,-0.119635426,0.2406435,0.1381958,-0.196794,-0.1374107,-0.2171398,-0.051770218,-0.05960686,0.17446852,-0.50253063,-0.11990205,-0.35179833,0.034233198,-0.21623406,-0.27778366,0.038356993,3.2082055e-05,0.10223529,0.33745462,-0.00992428,0.07733556,0.04106952,0.05803093,0.4363678,0.22292143,-0.1882864,0.12530746,-0.2084224,-0.09904962,-0.11418335,0.12307687,-0.07782558,-0.28897786,-0.06211047,0.011824246,0.28140965,-0.24815573,-0.14331451,-0.2333809,-0.13243727,-0.2030285,0.030795084,0.03951521,0.077432446,0.031872414,0.15628771,0.280239,0.055195842,0.08452131,-0.010598496,-0.30424914,-0.21019253,0.07360968,-0.12231501,-0.15610206,-0.16774598,-0.093073465,-0.11264497,-0.13054183,-0.30287492,-0.10129748,0.12678356,0.209385,-0.14640369,0.04525426,0.12004088,-0.103954814,0.0636631,0.031464577,-0.015844839,-0.182639,0.011872307,0.33987397,-0.0001759557,0.102795854,0.17378417,-0.06237908,-0.15627234,0.20029943,0.039354526,-0.08153824,0.2526979,0.13785866,-0.13149309,-0.35351798,-0.15725248,-0.31789082,-0.08423151,-0.13192704,-0.21569702,-0.38605112,-0.2300944,-0.026594449,-0.15637012,-0.12891972,0.23975472,0.44200602,0.106480315,-0.17225118,-0.08193336,0.11456432,-0.041841768,0.20489815,-0.08939635,-0.32407308,-0.30161673,0.033733014,-0.020044534,-0.30234545,-0.09202165,-0.20429833,-0.48704568,-0.6155115,-0.20306051,-0.2519017,0.2281644,-0.47398233,-0.3963196,-0.121081464,0.0762086,0.11468041,-0.2368665,-0.17316318,0.23258339,0.10587704,0.2007428,0.04296901,-0.20274785,-0.35176134,-0.24930027,0.042550832,-0.09158376,-0.28181922,0.00071580184,-0.09905157,-0.31575578,-0.32100576,0.03425765,-0.3129713,-0.38736823,-0.24337134,0.092505954,0.20448071,-0.0044022542,-0.13553141,0.052380797,0.03145656,0.15990125,0.109437615,-0.13550973,0.089364514,0.41727307,0.2993179,0.2877662,0.0649201,-0.29309544,-0.19500864,-0.20375967,-0.19222184,-0.045615397,-0.41510645,-0.054859556,0.08685197,-0.38189104,-0.6548332,-0.1051861,0.19262801,-0.4586198,0.08019921,0.15449354,0.014583012,0.33464754,0.44235584,0.070603825,-0.04069475,0.16189714,-0.09904675,-0.18828145,0.2152978,0.22760294,0.5915294,0.060626045,0.16536053,-0.038958263,-0.0839231,0.07761772,0.14464009,-0.29486373,0.14551641,-0.053246155,0.049698267,-0.25922024,-0.18222515,-0.21923073,0.026734266,-0.12946466,0.10925251,-0.2850951,-0.16683619,0.50237817,0.33277935,0.13503993,-0.022139613,0.06616047,-0.08914874,-0.07599627,0.0834939,0.24158576,0.17872503,0.35586295,0.0019079021,-0.11166859,-0.09237079,-0.078338385,-0.19326341,0.12479119,0.32046875,-0.092918366,0.0337137,-0.19207652,-0.04912757,0.018999236,-0.25905997,0.019683141,0.10955433,0.051958058,0.4201346,-0.1728369,0.1412547,0.42257276,0.46777982,-0.08131363,0.012086821,0.2592665,-0.049834207,0.22938162,-0.055505145,0.20470057,0.05184953,0.18563105,0.09139092,-0.023242613,-0.38055512,0.034828458,0.088774465,-0.0065441383,0.054268885,0.118047394,-0.05099545,-0.23872441,0.27163884,-0.023469303,0.13109791,0.34084064,0.18344878,0.2863648,0.34113196,0.114370614,0.010850461,-0.1776953,-0.18975651,-0.16786532,-0.0773791,0.20172648,0.23930459,0.034910664,0.15839948,-0.18009993,0.1957094,0.05423986,-0.4160517,-0.2021495,-0.109868295,0.09753197,0.32687053,-0.22779654,-0.3472575,-0.46837726,0.3239154,-0.33510605,0.16649385,0.44760665,0.09096585,-0.08258463,0.15649544,0.14417852,-0.0020800652,0.23441836,-0.1369697,0.1098763,-0.09306816,0.45058528,0.37026381,0.15358743,-0.043779965,0.14318565,0.021249568,-0.13474357,-0.088140845,-0.113210306,-0.03624399,0.020156583,-0.06733357,0.0006332854,-0.402082,-0.09455996,-0.30060944,-0.28843614,-0.15192045,0.31539315,0.26167247,0.21989053,0.27280083,-0.015464695,-0.5352646,-0.16227432,-0.18221867,0.10926094,0.21872093,0.36772564,0.22991039,0.28450003,0.0022961916,0.039611947,-0.11817838,-0.17206405,0.038809203,-0.19015662,-0.50512683,-0.14670648,-0.14522253,-0.1609651,0.106562994,-0.15908831,0.21362336,-0.20118012,0.036026828,0.16534176,0.1689888,-0.22635566,-0.18324387,-0.41090512,-0.41158438,-0.2513947,-0.18158877,0.11675794,0.16018435,0.27752763,0.063924156,-0.2096486,-0.20721553,-0.07107995,-0.087691724,0.25591305,0.2869583,0.06290894,-0.42126882,0.10570337,-0.19493665,-0.1786106,-0.0014210083,0.3315158,0.060416218,0.27005717,-0.088808045,0.16139823,0.10903226,-0.0729034,0.023437947,-0.30402526,-0.009488289,-0.19529925,0.09145662,0.25630397,0.18889727,0.5650282,-0.03279257,-0.0677527,-0.032183673,-0.08775982,-0.25415376,-0.14708343,-0.070806675,0.08613481,-0.38279843,-0.33038244,0.21734765,-0.27253875,-0.040612977,0.054754395,0.22957367,-0.058072403,-0.06850501,0.15450545,-0.20406833,-0.38568306,0.34083486,-0.24034446,-0.21363786,-0.22445169,0.05915516,0.12136696,0.32549688,-0.015493821,-0.05053965,0.1116024,0.30264223,-0.32636273,0.18724145,-0.26147512,0.01647053,0.06316924,0.063305415,0.23201904,-0.10446994,-0.49851814,0.10693433,0.03275795,0.112796076,0.026384866,-0.2583986,0.10589852,0.10433036,0.16169101,0.23643285,0.10840341,-0.2088939,0.031790774,0.23099849,0.04404769,0.08649951,0.15821372,0.010094035,0.17323844,0.27557567,0.07593459,-0.30736735,0.057482574,-0.23335111,0.5377367,0.15923962,0.29240203,-0.16315518,-0.07737135,-0.020181458,0.12631783,0.0905758,-0.0140655935,-0.1802341,-0.08764945,-0.3212356,-0.25329986,-0.05633565,-0.2427708,-0.0014188674,0.007208164,0.014954043,-0.03981587,0.21591197,0.05595326,0.3442603,-0.1273844,0.36342707,0.19095713,-0.20820086,0.027202042,-0.35288054,0.09194646,-0.13766624,0.0998491,0.06849307,0.03650405,-0.030327018,-0.15182388,0.1015148,0.16604774,-0.1602052,-0.10950144,-0.018973343,0.28024918,0.15992816,-0.13853267,-0.17658183,0.15412498,0.12614475,0.15989642,0.032308843,0.22533487,0.24500006,0.4332511,0.10577105,0.32671067,0.49075451,0.23850694,0.035171144,0.3144281,-0.08527052,0.21302067,0.23418605,-0.2104983,-0.042803347,-0.02659517,-0.26574022,0.32801527,0.13127998,-0.058377817,-0.038080562,0.16595326,0.084263735,-0.2401279,0.2060471,0.116271086,0.2250602,0.21689895,0.40308917,0.15921167,0.5869711,0.28271744,0.21664076,-0.30497813,0.38988894,0.13909276,0.038268276,0.34190685,0.18021885,0.33611038,0.20923823,-0.0018876679,-0.36281344,-0.15985605,-0.20110162,-0.1700125,0.05539536,0.07455252,-0.286771,-0.06559238,-0.17401631,-0.19745055,0.29088613,0.05653527,0.28587663,0.29909408,0.13551094,0.25057894,0.3641158,0.07431012,0.3672253,0.008536448,0.40880802,0.00082491117,0.18403123,0.34052292,0.29039901,0.2038508,0.07987412,0.21949936,-0.41356355,-0.2671879,0.103552625,0.02285366,0.14222921,0.24395007,0.0037122,0.1108179,-0.28776368,0.013879302,0.05655552,-0.040565293,0.336538,0.19596201,0.35399693,0.10591686,0.47173274,0.18363869,0.2847348,0.14390205,0.031593226,0.045839995,0.32523635,0.21336904,0.44959736,0.33568883,0.27455378,0.09167217,0.01295621,-0.006958343,-0.09206351,0.46341258,0.46441972,0.055952378,-0.057321846,-0.0673103,0.0993002,0.05084679,-0.012676243,-0.06204565,0.38768074,0.09937381,0.004289715,0.06688671,0.48417088,0.2954197,0.32153893,0.0692801,0.071892716,0.19632694,0.3120028,0.18385573,0.014420785,0.22837457,0.35659236,0.37557065,0.25732478,-0.0015894064,-0.14618379,-0.018565241,0.11862241,0.2735134,-0.2852985,-0.40300655,0.08296143,0.055940155,-0.2606616,0.019823411,-0.2748859,0.37663978,0.101548396,0.2994167,0.1768175,0.30491507,0.090367414,-0.19049509,-0.27542207,-0.09201443,-0.083187416,-0.080993086,-0.5074929,0.19136675,-0.14105956,0.5181765,0.21865083,-0.073018774
}, {0.50050676,0.38579786,0.29683223,0.023125518,-0.33441892,-0.22090344,-0.00090176903,0.18468662,-0.08945916,0.116761096,0.19438222,0.5184898,0.5784457,0.31578064,0.48708266,0.19063093,0.041263428,0.15518896,0.28309986,0.0350927,0.59053475,0.5217656,0.36120486,0.29611695,0.2409318,0.37385783,0.4405976,0.48951748,0.4527102,0.037836894,-0.09300955,-0.39624602,-0.69396865,-0.15409927,-0.2600249,-0.26603714,0.00468155,0.2729291,0.14495149,0.18437202,0.24924669,0.4530616,0.4642161,0.21372533,0.41716242,0.5395867,0.20007452,0.24447581,0.44554982,0.020982692,0.08044037,0.0720604,0.1820051,0.21353114,0.29034993,0.3752568,0.24203219,0.06576583,-0.12693885,-0.4890955,-0.23478116,-0.37197113,-0.17234999,-0.6833405,0.032178268,-0.061491486,-0.037594825,-0.038343098,0.13246857,0.27448174,-0.08830909,0.32214433,0.025980128,-0.10008527,-0.071626455,-0.16874568,-0.07990564,-0.31981143,-0.22372942,-0.29351702,-0.09390965,-0.10942781,-0.21432236,0.31495404,0.19339463,-0.1536471,0.07702681,-0.33793247,0.015859725,-0.051567767,-0.16725577,-0.17948045,-0.28141505,-0.18147583,0.16459323,0.005723991,0.09441518,-0.1412161,0.34910056,-0.254787,-0.009696741,-0.15742302,-0.42928883,-0.49172503,-0.09791675,-0.60529435,-0.3461884,0.052543074,0.092257574,0.13658862,-0.013702588,0.2759705,0.017606376,-0.36243585,-0.30799794,-0.31266496,0.051236045,0.19334793,0.15911081,0.178248,0.36313397,-0.002372974,0.2869293,0.19864008,0.43390846,-0.1856057,-0.31472978,-0.4438464,-0.70082784,-0.39359394,-0.7349119,-0.5307936,-0.5167569,-0.77470505,-0.26871312,-0.17750111,-0.12219477,-0.16190815,-0.2715356,0.102754176,-0.04422957,-0.7304267,0.12037495,-0.14259341,-0.35280618,-0.08803813,0.34557804,-0.01658038,0.32165846,0.19901063,0.0051149707,0.19294524,-0.06522086,-0.06109079,0.06937214,-0.35989317,-0.6424789,-0.7880302,-0.7173774,-0.78404343,-0.26449326,-0.30621535,-0.4429167,-0.18709624,-0.38960093,-0.733397,-0.42093584,-0.052459028,-0.21355098,-0.44502872,-0.18549787,0.39754993,-0.51534516,0.016406506,0.34057835,0.2517201,-0.0018953847,0.07039192,0.037620783,0.02297978,-0.09211961,0.20522188,-0.3162638,-0.2432147,-0.42264542,-0.7689012,-0.4548515,-0.32844225,-0.1289409,-0.882909,-0.6877306,-0.36556253,-0.26140872,-0.5333979,-0.52214485,-0.023925886,0.07263729,-0.4274466,-0.014370991,0.13675167,-0.02076973,0.2703562,0.11793688,0.07373543,0.025362574,-0.1796821,-0.18266325,-0.11367554,-0.11205007,0.072180316,-0.32413274,-0.34148964,-0.20011863,-0.25165722,-0.5926174,-0.31307527,-0.22078381,-0.5332873,-0.7355325,-0.59339696,-0.32931623,-0.49310324,-0.35325426,-0.04205933,0.12747952,0.19773602,0.046363845,-0.16895315,0.26831725,0.14821671,0.078791186,-0.13182135,0.05128442,-0.06474519,-0.29972965,0.10881246,0.16414222,-0.07395938,-0.38688886,-0.4597806,0.09785343,-0.21587701,-0.08237878,-0.18638225,-0.6363034,-0.20327342,-0.34547502,-0.58274925,-0.5147149,-0.7567142,-0.1933219,-0.12548786,0.085894756,-0.1541653,0.073300995,-0.11997719,-0.179695,-0.47354317,-0.27855563,-0.42573524,-0.080065385,-0.25881338,-0.35340348,-0.103119195,-0.1800547,-0.20260659,0.20778985,0.13939284,0.0622414,-0.002515858,-0.45325676,-0.18635356,-0.069090426,-0.40202525,-0.5997211,-0.09078779,-0.107690655,-0.6939163,-0.31705981,0.16007039,0.07243931,-0.52686065,-0.2790448,0.23538516,-0.059708055,-0.4433631,-0.01075353,0.017229587,-0.10647874,-0.09381202,-0.022409322,-0.1428818,-0.113725595,0.08350621,0.31474158,0.02228736,0.13508824,0.082836114,-0.08638426,-0.34673205,-0.16482456,-0.04039818,-0.31120867,-0.33640543,-0.080186136,-0.15749553,-0.28235343,0.028365316,0.029974477,-0.40435788,-0.061785992,-0.21858375,0.013746547,-0.2041133,-0.0331078,-0.26734427,-0.08141784,0.26335418,0.05314757,0.3548329,0.06638888,0.08763386,-0.2449287,-0.17248315,0.2480771,-0.09030569,0.16680464,-0.06932013,0.25704837,0.123684384,-0.04154025,0.21700165,-0.36366987,0.100585274,-0.3490335,-0.08395567,-0.050499015,-0.119940534,-0.42914656,-0.11414685,0.06635326,-0.19281682,0.17511551,0.091814764,0.12371098,-0.14200978,-0.013298417,-0.009428688,0.2947868,-0.22057632,0.050554257,0.12341573,0.0074047125,-0.06531229,-0.12155652,0.18213893,-0.182392,0.0955871,0.09044805,-0.062172167,-0.0061235987,-0.0033140928,-0.5186767,-0.2640557,0.203092,-0.11209689,0.00030413002,-0.09837759,-0.18181647,0.0666096,0.0356159,0.20046619,-0.19228032,0.088314705,-0.25546962,0.20531306,0.069776945,-0.03735988,0.042895034,-0.05750079,0.032256614,0.0042838617,0.05660198,0.19643964,-0.12486464,0.09538022,-0.15876523,0.1294798,0.21936592,-0.19238296,-0.2483178,0.16804907,0.12847653,-0.20388326,0.012129201,-0.06338816,-0.21225186,0.32618585,0.19738619,0.0006210741,0.2873296,-0.15101603,-0.05450026,-0.15203871,-0.036735125,0.18012755,-0.07341818,0.09889502,0.07309422,-0.1011012,0.02278769,-0.0062509654,0.07174787,0.24184763,0.06496397,-0.060246654,0.12762833,-0.3976625,-0.034722727,0.008920721,0.037533287,-0.09133946,0.33909106,0.08061746,-0.14991243,0.31650403,-0.11020923,0.07400968,-0.04775738,-0.08378053,-0.03036257,-0.060406778,0.20247543,-0.19636013,-0.06176938,0.11232003,0.013659643,-0.16565302,0.15753184,-0.019550603,0.3846174,-0.20470068,0.12084742,-0.09642178,-0.09590408,0.1769488,-0.202516,0.09840285,-0.059031166,0.23461275,0.27409613,-0.1185523,-0.26096842,0.34349033,-0.021363763,0.31595847,0.10399246,-0.019269465,0.26295662,0.44151565,-0.07311724,0.06467817,0.024641728,0.03172187,0.071285985,0.3190624,-0.15608063,0.06314463,-0.16583143,0.14439145,0.4243476,0.10345249,-0.008120319,-0.25233573,-0.026651323,0.34456602,-0.12102474,-0.043524306,0.13591997,-0.2831338,-0.13242891,0.13790755,-0.008748634,0.20358007,0.03560274,0.18719304,0.20828784,-0.27837512,0.06366967,0.16107497,-0.036173817,0.10007563,-0.010462554,0.07525349,-0.3396171,0.085915215,-0.07705619,0.18887359,0.046384685,0.07052995,0.0701225,0.15398039,-0.045648813,0.2608391,0.23275216,-0.04007745,0.15311898,0.3509119,0.28731185,-0.009849628,0.046908367,0.4616882,0.026558718,0.10298513,0.3017551,0.020108126,0.02310303,0.11746614,0.28631824,0.14395002,0.09877914,0.15050153,-0.059463024,-0.3550433,0.21089324,-0.26728836,0.246608,-0.2081162,0.18443869,0.11641949,0.0790117,0.59145766,0.39261118,-0.0365744,-0.17046848,-0.07143705,0.12480276,-0.05319423,0.010481637,0.08340408,0.069869965,0.3667711,0.31780884,0.10618117,0.078869194,0.3047975,0.16663544,0.25762138,-0.006700389,0.047625355,0.072714284,0.06586646,0.20441194,-0.13456604,0.21010916,0.4159653,-0.3446699,0.09769734,0.3606824,0.5318348,0.28649962,-0.11480611,-0.21888956,0.21713373,0.15389797,0.27231094,-0.25122303,0.21576144,-0.03119473,0.024718808,-0.13604902,-0.03501292,0.31833616,0.1642174,0.08456826,0.07724544,-0.028788859,0.058001522,0.046017583,-0.101302184,0.10522708,-0.05756345,0.0014988894,0.34760883,0.30806148,0.28522474,0.39997727,0.12920675,0.5491386,0.27916902,0.16889521,0.5751202,-0.022593303,-0.13909343,0.21895243,0.07286816,-0.24473429,0.31320497,0.085501455,-0.030007008,0.07101774,0.1977466,0.19420367,0.16866717,-0.30526686,0.026951917,0.14002003,0.32382002,-0.09554417,0.20408715,-0.07950892,-0.105078846,-0.011541026,0.49060088,0.062620535,0.18456928,0.22426042,0.0025802758,-0.041604973,-0.15690787,0.22173738,-0.19154483,0.34419712,0.18716241,-0.101249605,0.1530727,0.38092932,-0.14020403,-0.03912701,0.052307956,0.30106467,0.009326259,0.04682272,0.15681674,-0.19530427,-0.10184261,0.033042587,0.18342337,0.41443068,0.09629244,-0.15457842,0.11065248,0.36232892,0.5243499,0.33473706,-0.24979629,-0.3086481,-0.44488668,0.011989183,-0.18027589,0.10905105,0.28156182,-0.015099371,0.19729307,0.059766777,-0.09602972,0.13869487,0.2858479,-0.08883398,0.039038002,-0.07785214,0.35461554,0.16892356,0.33236125,0.027671635,-0.068547964,0.25502002,0.023433708,0.23608056,0.18261105,0.22822194,0.26646814,0.2870918,0.15745647,-0.03920035,0.124358326,0.12474399,-0.13362373,0.016246362,-0.124397464,0.013903176,-0.16708283,0.0015721233,0.5175693,0.21056017,0.35247403,0.32835513,0.013789583,0.17780393,0.13904217,0.42578027,0.04387659,0.16354805,0.23387106,0.059787985,0.21356678,-0.17777261,-0.12940642,0.0995403,0.44669586,0.35013697,0.45354977,-0.15897475,-0.17045565,-0.29126206,-0.23200825,-0.13362715,-0.18748975,0.2223447,0.07362505,-0.20613196,0.11430913,0.0028699427,0.21771735,-0.12146295,0.18987612,0.16355902,-0.11193281,-0.14066392,-0.106267095,0.19273409,-0.020056292,0.05646403,-0.03471241,0.10341545,0.086636715,0.49677384,0.15198077,0.5652149,0.5533295,0.029216364,-0.07618968,-0.09161142,-0.06827294,-0.3762118,0.05456018,-0.23918334,-0.09180812,-0.039552607,-0.24375528,0.04884889,-0.004296588,0.09581233,0.021033669,0.45342514,0.12285678,0.092236415,0.20397572,-0.11934028,-0.13282478,0.3713546,0.23502642,0.1614873,0.20813954,0.04701371,0.2054371,0.57999265,0.5061777,0.20050232,-0.09423447,0.2248627,-0.08895544,-0.45116225,-0.36949873,0.09587587,-0.20923893,0.0926922,0.17465135,0.43000922,0.41595227,0.11418926,0.14842755,0.5919753,0.21066076,0.50826025,0.39610514,0.1314218,0.3825782,0.4760049,0.38101873,0.5905907,0.23070367,0.32392338,0.43493706
}, {-0.26290634,-0.28036344,-0.10339775,-0.118870705,0.073455356,-0.20347102,0.09595736,0.14143097,-0.05994394,-0.30864483,-0.1253325,-0.18573332,0.1278835,-0.29790583,-0.34892938,-0.14494824,0.26895815,0.2083164,-0.06537292,-0.040393844,-0.26701993,-0.28243938,-0.030994989,-0.11359686,0.037688874,-0.110068135,-0.35038674,-0.26472682,-0.3825166,-0.13080855,-0.22789577,0.18780547,-0.08289655,0.09260624,-0.20724273,0.018623672,0.14779763,-0.2342427,-0.21910465,-0.32424912,-0.31230006,-0.23031552,-0.3077482,-0.012201928,0.10510974,0.2897441,-0.029973097,-0.21059972,-0.18618327,0.17481099,-0.15805793,-0.02576024,-0.043922268,0.12371139,0.21465676,-0.20673762,-0.08313977,-0.21177882,-0.23305367,-0.31082723,-0.2107913,0.0071097547,-0.43985176,-0.13826524,-0.27359003,-0.16953324,-0.08899724,-0.11792049,-0.23259641,-0.6411684,-0.381145,-0.19712473,-0.34158525,-0.24258217,-0.022669923,-0.19813678,-0.11176439,-0.18421386,-0.19946358,-0.056152612,-0.070098706,0.14328286,0.16659589,-0.13222913,-0.23758507,-0.10157484,-0.0021743777,0.09896268,-0.23353668,0.19884399,0.111083105,0.0016694975,0.11355039,-0.31047374,-0.3761564,-0.28872204,-0.3322219,-0.24803971,-0.34974012,-0.026002144,-0.28633052,-0.34771147,-0.038277343,0.07555221,-0.099231094,-0.2996037,-0.101442955,-0.06928407,0.035853367,-0.14869818,0.095241025,-0.12692574,-0.04983783,-0.17377964,-0.49744236,0.08959622,-0.08105858,0.007283647,0.17680681,-0.035252374,-0.13035129,-0.20829652,-0.37581542,-0.15524806,-0.21602567,0.0611771,-0.031597156,-0.12166017,-0.30267584,-0.12725203,-0.05092297,-0.08781523,-0.25132564,-0.2240698,-0.23120344,-0.11622152,-0.13956435,0.29029298,0.50488245,0.030600915,0.17106035,-0.08421588,-0.093081415,-0.08748384,-0.29547825,0.09638601,-0.016839707,0.23837599,0.08910799,0.11794565,-0.034588605,-0.1230239,0.15189575,0.25221702,0.07552019,-0.20846747,0.1391516,-0.09287197,0.2361359,0.2068427,0.12846972,0.031058699,0.3395553,0.15580659,-0.0023518193,0.055521827,-0.11898511,-0.044794757,0.2118267,-0.036116745,0.36287326,-0.40075964,0.14295238,-0.035692994,-0.26250017,-0.12097889,0.40241244,0.020108646,-0.26304412,-0.35687104,-0.30054384,-0.08096029,-0.10460817,-0.021720821,0.1235087,-0.46961585,-0.008483937,-0.099830434,0.11792304,0.2226861,0.30940038,0.18988876,-0.15183544,0.28165329,-0.1008744,-0.1618467,-0.12972438,0.010130925,0.06916341,-0.16710939,-0.06271406,0.014942095,-0.19368228,-0.2669373,-0.2386698,0.024600338,-0.2582078,-0.10967394,0.06639343,-0.33321455,-0.32158116,-0.12709376,0.09514883,-0.43430278,-0.14615114,-0.39417878,-0.016423255,-0.24930233,-0.14145054,-0.110487424,0.27240476,0.27349102,0.43734372,0.15018848,-0.07127091,0.20488913,0.39954066,-0.2672718,0.09108001,0.11472391,0.09290014,-0.026356127,0.179645,-0.07019339,-0.169236,-0.17734388,0.16461816,0.25264087,-0.15830688,-0.19244906,0.039859615,-0.30024266,-0.39624625,-0.20608293,-0.15839244,-0.16921756,0.07013625,-0.10693798,-0.054546695,0.34973672,0.09867753,0.13685654,0.13438013,0.09161474,-0.25656742,-0.12882838,0.14520591,0.09978023,-0.17718801,0.19320595,-0.06709131,-0.15690616,-0.2705755,0.100350186,-0.083437294,-0.14602387,-0.07521118,-0.0446733,-0.02810021,-0.3428778,-0.48984239,0.030902686,-0.028776221,0.042863343,0.17190585,0.2007613,0.086283386,0.087718785,0.19344924,0.2835363,0.1431,0.42491704,-0.09993908,-0.16141358,0.2579645,-0.048472058,0.08007455,-0.28773665,0.16460875,-0.04123775,-0.10429464,-0.062200453,0.06131318,-0.09335025,0.04286982,-0.1393915,-0.3425677,-0.36222586,-0.592359,-0.039878204,-0.2235287,-0.101168506,0.25527716,0.35460794,-0.023085633,0.1461194,0.14560072,0.051056508,-0.03381202,0.07461667,-0.06833461,-0.07898828,-0.12305762,0.102420636,0.33602905,0.32691136,0.28011352,-0.1671453,0.30806416,-0.110249765,-0.37626114,-0.21355587,-0.082977235,0.16140316,0.024308741,-0.24285485,-0.7123627,0.16760729,0.059645183,0.16691548,0.1865463,-0.21601084,0.38727188,0.40590343,-0.047591377,0.039054815,-0.21367463,0.13964301,0.057134025,0.08659506,-0.027140513,0.25023237,0.15242726,-0.021790778,-0.05045224,-0.0917472,-0.05025888,-0.010017425,0.08077534,0.004680646,-0.2640598,-0.04647282,-0.16457088,-0.5727822,-0.47215354,-0.13344409,0.10818382,-0.09188802,0.2821434,0.25156444,0.38704762,0.14165908,0.26346222,0.109073505,-0.11340145,0.12124723,0.24696235,-0.078940585,0.014349387,0.07318891,0.037615616,0.0039512687,-0.0068305274,0.041519802,-0.46100235,-0.18921186,0.026384253,-0.09569546,-0.1257905,0.07293004,-0.33387694,-0.22895445,-0.48082703,0.0066122836,0.12704182,0.04509626,0.49600843,0.022677634,0.24261871,0.17576973,0.0821248,0.20678902,0.21367417,0.1600223,-0.25458607,0.0052177142,0.2003886,0.2064198,0.45280278,0.012775307,-0.0871349,-0.20465752,-0.18014044,-0.25041407,-0.26159042,-0.1192991,0.038734987,0.05271139,0.02181984,-0.3961871,-0.66065216,0.028035196,0.30161235,0.26979953,0.4339182,0.40679684,0.20402423,0.44502872,0.050723854,0.36040077,0.11721532,0.2939661,0.18402039,-0.012858811,-0.21592188,0.08665483,0.16073574,-0.029208077,0.041791603,-0.30470818,-0.30283216,-0.17806174,-0.08826183,-0.4480095,-0.056621853,0.17730181,-0.10777325,-0.5836098,-0.25097907,-0.005047845,0.7036019,0.33725896,0.23753218,0.2181821,-0.06050362,0.30687165,0.01601565,0.084536195,0.33165827,0.33170235,0.17367607,-0.0020252648,0.16277646,0.14558114,0.07757799,-0.23039281,0.11177025,0.024975853,-0.1031217,-0.10497441,0.3242008,-0.23354642,-0.04184437,-0.34740832,-0.3315733,-0.56976914,-0.14615996,-0.10913755,0.64282525,0.50376105,0.29136562,0.070304506,0.217279,-0.084876165,0.37812024,0.06033132,0.111839235,0.14228629,-0.43165982,-0.11058019,0.23373133,-0.156498,0.12056034,-0.24472235,0.006078664,0.039549775,-0.23941246,0.1145208,-0.26312155,-0.26347893,-0.101699136,-0.13777529,-0.6518503,-0.21083874,-0.08856567,0.4432059,0.43379503,0.12590426,0.16093396,0.38868037,0.40994057,0.43100598,0.32371637,0.14856783,-0.12967803,0.3379054,-0.08257246,0.17272574,0.0891681,0.20287965,0.11023982,0.19296962,-0.13786903,-0.32668936,-0.47893143,0.008342257,-0.69218516,-0.30054766,0.08772522,-0.09197827,-0.025164776,-0.25429899,0.540644,0.36418158,0.37361073,0.29507723,0.19402418,-0.013435667,0.28525633,0.19654131,0.14570558,0.1977609,-0.108165815,-0.226555,-0.085765965,0.0015110063,0.33853754,0.22995971,0.03820626,-0.12075946,0.00825568,0.0571965,-0.0718012,-0.26800984,-0.27935314,-0.19337867,0.06342715,-0.055947058,-0.16036007,0.07410989,0.4464581,0.30620918,0.2941276,0.29475775,0.2416157,0.085262634,-0.16323906,0.13414471,-0.015798226,-0.022110857,0.055536494,0.18370548,-0.37458268,0.24749045,-0.004525199,0.036843423,0.011812961,0.045730416,0.13272241,0.11357966,0.08569352,-0.012415584,-0.021955483,-0.1274424,0.18203436,0.060388025,-0.004126492,-0.14398064,0.5045225,0.31282315,0.31358075,0.23576938,0.2671627,0.17424351,0.052515972,0.22273867,0.25187123,0.25952783,-0.17109683,0.14640084,-0.031929433,-0.06034119,0.305075,-0.0047223927,-0.12517992,-0.08042467,0.11590942,0.21008883,0.12631184,-0.26466766,0.0056693847,0.111226894,0.02068889,0.34980428,-0.052818637,0.31693593,0.33202225,0.39226925,0.25506014,0.02464936,0.29837286,0.43367675,0.45374638,-0.028369054,-0.23987587,-0.23149432,0.04194855,0.20070904,-0.3444,-0.06526096,-0.04939262,0.16938311,0.06835602,0.072064854,-0.06293483,0.08461331,0.20490335,-0.16480507,-0.2549921,0.21207452,0.066133715,-0.14779128,0.058583234,0.2783666,0.49357226,0.10847569,0.43593037,0.14457326,0.15410136,0.67325217,0.196394,-0.13317712,-0.3050245,-0.3338458,-0.18266387,0.27290195,0.14264426,0.0090564005,0.060000982,0.20254937,0.19204968,0.39396828,-0.093369246,0.049123734,-0.08963437,0.1580089,-0.309343,-0.0857943,-0.038941666,-0.32190913,0.34310716,0.4014207,-0.13817188,0.17594004,0.204867,0.0070609692,0.067007475,0.3273005,0.24965917,-0.31183386,-0.5591628,-0.18413994,-0.10448962,0.10428645,0.09215165,-0.23235121,-0.17613074,0.2181538,-0.0667222,-0.1887593,-0.1518024,0.09114708,0.28824553,-0.6543674,-0.15510423,-0.19054985,0.171029,0.0434235,0.38344637,0.38737378,0.29162136,0.53334993,-0.0032584893,0.0030400974,0.13976362,0.18373013,-0.40536368,-0.5113287,-0.33475995,-0.22601904,-0.1795945,-0.1664228,-0.13677199,0.14963587,0.0049735475,-0.28126615,-0.013048113,0.4064399,0.23579083,0.049646016,0.16760463,-0.23852643,-0.32536924,0.026092034,0.035329837,0.20256945,0.2667607,0.33506122,0.2206473,0.11902255,0.07232663,0.051700573,0.09195544,0.16442996,-0.0636165,-0.5299614,-0.29855728,-0.4251792,-0.2992153,0.19115607,0.24049504,-0.21367368,0.15409078,0.41981956,0.26355422,-0.03855787,-0.11644054,-0.11951283,0.057697617,0.48907405,0.05567882,0.058981188,0.16540684,0.40559885,0.33563432,0.23473412,-0.008092594,-0.0068008197,-0.15473576,0.26468393,0.1611778,-0.15250096,-0.15964918,0.09414051,-0.3032441,-0.16500932,-0.28692073,-0.20249435,-0.099966146,0.13909967,0.18190905,-0.16820686,-0.2041409,0.14806296,0.20078072,-0.016294489,-0.2115828,-0.1066914,-0.26137727,0.12053365,-0.021376485,0.35928556,0.17321157,0.65806085,0.48083487,0.3437534,0.34568325,0.24181515,-0.17183809,-0.115807526,-0.019226877,-0.14806652,-0.29389393,-0.30269048
}, {-0.0011473612,-0.013805001,0.15084596,-0.13732234,0.17436278,0.6009017,0.4155277,0.10376048,-0.079545744,0.25473645,-0.035441786,0.0643108,-0.15491483,-0.0942077,-0.3570726,-0.19822842,0.2380527,-0.17025171,0.029181767,0.032428544,0.1317454,-0.12184313,0.09569825,-0.20917466,-0.25473374,-0.38335434,-0.14286894,-0.036386654,-0.09844252,0.06866469,-0.05073273,0.12274083,0.18173705,0.21096143,-0.00410972,-0.07786911,-0.053763933,-0.17723192,-0.48625997,-0.32611698,-0.4516333,-0.034362003,-0.23232551,0.006187778,0.13524018,0.10006638,-0.05586254,-0.025767384,-0.24696063,0.062444746,-0.23828268,-0.12787123,-0.18188637,-0.22453253,0.031928107,0.10416724,0.06582574,0.03961797,-0.0005299218,0.38618624,-0.20055622,0.009886944,-0.15777244,-0.072025545,-0.3160373,0.14281884,-0.19000556,-0.54604435,-0.10709636,-0.27386156,-0.1840294,0.001410702,0.049424507,0.0006123006,0.013951415,0.0007676862,-0.15177448,-0.25972664,-0.039927196,-0.09532522,-0.35108733,-0.097662665,-0.027247984,-0.0058564795,-0.04100487,-0.16018747,0.14705522,-0.11672347,-0.1867774,-0.077416055,0.031283077,-0.03104185,-0.06893739,0.0129611,-0.13696477,-0.23505084,0.028420266,-0.35519978,-0.12536962,-0.10692721,0.008732493,0.073287204,-0.03232402,0.12364828,-0.036007594,0.014308153,0.3385597,0.3274895,0.19179049,-0.0912093,-0.029517038,-0.04322923,-0.035433937,-0.35412386,0.33137104,-0.16714138,0.18236008,0.14186727,-0.12350377,0.05031468,-0.028365914,0.2147074,-0.08446467,-0.19006073,-0.0565506,-0.19806823,-0.34618998,0.06383634,-0.15159684,-0.115023084,0.007141933,0.09824663,-0.4082278,-0.09618014,-0.21276858,0.13335685,0.19029401,-0.09694427,0.061810702,0.12337962,0.011155677,-0.1675772,-0.068428256,0.13633688,-0.011990834,-0.108141534,0.022630222,-0.25702527,0.11617607,-0.070985526,-0.17953509,0.061651297,0.16069607,-0.47258532,0.04431699,-0.19831982,0.14510924,-0.2535437,-0.11258348,0.040438935,-0.11416449,-0.18969035,-0.4679752,0.060534943,-0.121049434,0.05024564,0.4190263,-0.00040219398,0.15534073,-0.1936885,-0.4587475,0.11033254,0.14237013,0.0771822,0.0654823,-0.12029913,-0.17825228,0.095768064,0.08155773,0.023475915,0.10710518,0.060313124,-0.09071852,0.056257483,0.2200215,-0.47280788,-0.33897147,-0.22193167,0.08167708,-0.025107495,0.04815596,0.21156003,-0.5060491,0.0323832,0.7179449,0.20429724,0.16070178,-0.0734309,-0.15590948,0.1133858,0.06574689,0.14712694,0.08077493,0.13930377,0.17024295,0.37247312,0.0353309,-0.08188698,-0.08767863,0.04728354,0.039917428,0.018303083,0.027707752,0.0011232246,0.063847564,-0.044627547,-0.031741023,0.07553642,0.42835343,0.44549528,-0.09787818,-0.08533012,0.5762342,0.2570362,0.42602116,0.2606233,-0.054324534,0.029145101,-0.24483885,0.021819953,0.08098392,0.457307,0.0099595385,0.09946458,0.04660517,-0.16091754,-0.04623892,-0.11909856,0.1626698,0.36747792,-0.09949202,0.21895452,0.14232932,0.19432293,0.27143028,0.15373255,0.027147748,0.051264226,-0.034754917,-0.033898193,0.33725095,0.53462917,0.24529718,0.1274985,-0.115532994,-0.3303392,-0.052003484,-0.07211304,0.18488431,0.005218398,0.09225744,-0.15647647,0.04611203,-0.057391513,-0.022072218,-0.00024102388,0.37253818,0.1980657,0.24831384,-0.10330931,-0.0661004,0.11807064,-0.16569886,0.020060707,0.049148746,0.15880138,-0.2320735,0.20388885,0.5475827,0.18335491,0.06594517,0.32767045,-0.17313622,0.3517559,0.18080005,0.15419173,-0.10283779,-0.114785835,-0.08966354,-0.04568223,0.1842587,-0.3374552,-0.2227583,0.31260812,-0.15224038,0.06564975,0.19305325,0.039395202,-0.11133984,-0.19139144,-0.114927545,0.07602522,0.18109137,0.18751714,-0.09252131,0.04967316,0.15717654,0.61189175,-0.11940443,0.10410544,0.28817576,-0.035784796,0.27980894,-0.1277625,-0.09338027,0.37404403,0.16308296,-0.08619395,-0.1654536,-0.07668981,0.14455092,0.019735647,0.1645346,0.04283672,0.00084595813,-0.030019347,0.029346224,0.29522505,-0.0071411594,0.005512414,-0.1254504,-0.005911357,-0.20637703,-0.25394705,0.1220472,0.41456053,0.011094125,0.50665915,0.14707538,0.27123967,-0.2283301,-0.20362747,0.28962293,-0.058683306,-0.022877261,-0.1475103,-0.030763937,0.11349929,-0.07670004,0.03200383,0.06197007,-0.013801789,0.1470502,-0.035847038,0.25703782,-0.11272995,-0.092359945,0.101722896,0.10645121,0.19286513,-0.35993195,-0.037933648,-0.11254944,0.18789199,-0.098718435,0.37324664,0.37110758,0.15514557,-0.11162699,0.014371152,-0.06956544,-0.13180427,0.113745235,-0.27238986,-0.040544257,-0.05456278,0.049574062,0.14702255,0.11099828,-0.03164578,0.17628708,0.042905167,0.043789405,0.18655702,0.40460303,0.16928284,-0.083245695,-0.2310913,-0.17120822,0.37905744,0.4662101,0.052744858,0.56964827,0.20477046,0.03764887,-0.025057768,0.017479002,0.1247981,-0.04089691,0.060458984,0.11876247,-0.15932342,0.079505436,-0.18463647,0.084998265,-0.06443089,-0.19859082,0.14946073,0.03015552,0.18331358,0.029512,-0.07176467,0.12303247,-0.09055647,-0.07110931,-0.10975338,0.003381149,-0.1622495,-0.06946375,-0.07768363,0.2897345,0.0045917826,0.10662745,-0.08627038,-0.29734045,0.05104564,-0.20895119,-0.016747743,0.20302092,0.13019922,0.10305736,0.0068799835,-0.1330487,-0.08630275,0.087444216,-0.14173883,-0.009065313,0.022226535,-0.15853612,0.16107778,-0.22979428,-0.13800438,0.15319733,0.055803288,-0.37290394,0.23684314,0.026291143,-0.18096903,0.16503909,0.07348555,-0.19104464,-0.03243993,0.026894033,-0.3845726,-0.02321072,-0.0029914493,0.055374965,0.07939695,-0.10923819,0.100155026,-0.06963772,-0.41010353,0.2380402,-0.18940513,-0.080810025,0.10412149,-0.09665402,0.12735908,0.092841014,-0.19802059,-0.1501824,-0.10712535,0.026908975,-0.05661966,-0.11535794,-0.08778326,0.21598817,-0.13481203,0.23259374,-0.12686202,-0.052301276,-0.066825986,0.08649128,0.17198844,0.06742036,0.083530955,0.12607056,0.10853901,-0.27695963,-0.32220885,-0.28865114,0.03632657,-0.12864181,-0.023889024,0.25755423,0.0021850048,-0.0787195,0.10966976,0.10493993,-0.147897,-0.032703128,0.06853111,-0.21646585,-0.04623422,-0.016752658,0.26369926,0.003329251,0.44385147,-0.0079293735,0.025632553,0.26871213,0.033161085,0.34057182,0.10452922,-0.08924313,-0.0040492993,-0.543492,0.07753998,-0.0733398,-0.107721575,-0.10126072,0.123421155,0.4041289,-0.22369878,0.08632829,-0.26913252,-0.06331615,-0.17385444,0.114435405,0.0051973206,-0.13446042,-0.1289388,-0.04767344,0.022465328,0.14556484,-0.14725009,-0.41184315,0.10155164,0.15778516,0.1902297,0.12635665,0.04409216,-0.009599333,0.05314451,-0.32914478,-0.23232305,-0.15281346,0.09531413,-0.03959812,0.023444897,0.15586965,-0.018757107,0.12436102,-0.050797284,-0.43444216,-0.025679793,-0.24796154,-0.33416834,-0.49682647,-0.40586647,0.09840853,0.15260586,0.019041553,-0.085892126,0.009280632,0.28809953,0.03654049,0.44311237,0.39385918,-0.05603025,0.039701216,-0.12856211,-0.26034364,0.2776129,0.15181676,-0.05352372,0.32867813,0.24991755,0.16663271,0.061559893,0.11277761,0.02458182,-0.3121067,0.16675335,-0.14688459,-0.37198552,-0.48651358,-0.44085178,0.106300175,0.11133549,0.031979356,0.059561536,0.04976099,-0.31122696,0.5604023,0.34019557,0.11891074,0.06902893,0.099639446,-0.28074476,0.2619464,-0.06552393,-0.15711704,0.09293898,0.18207638,-0.12552483,-0.14406176,0.1571865,-0.05531805,-0.36326244,-0.07700376,-0.16817276,-0.21059516,-0.38797674,-0.77443385,-0.5247315,0.0187523,0.013209473,-0.25456068,0.043913193,0.0806616,-0.07581087,-0.17002998,0.11842534,0.40065873,0.24216615,-0.04193772,0.016372195,-0.001288394,-0.24228653,0.061369367,0.11820987,0.1209756,0.17905241,0.36252278,0.078980364,0.043356724,0.030795151,-0.028990904,-0.64362574,-0.69311017,-0.9035002,-0.88125044,-0.28460312,0.3702429,-0.013183204,0.20925672,0.036912985,-0.17698555,0.23614675,0.12526101,-0.09805329,0.24325667,0.3759704,0.114629366,0.48153496,0.18424311,0.06639705,0.07965622,0.3533746,-0.009444548,-0.024277776,0.056288462,0.0035676267,0.008283035,0.0035971333,-0.027601382,-0.48600644,-0.63034576,-0.8579126,-0.6405353,-0.23073538,0.07918586,-0.078715205,0.119192675,-0.49272525,-0.016336441,0.13337828,0.12700568,0.26743373,0.12934735,0.3235149,0.36897603,0.32292816,0.42869145,0.259659,0.042903785,-0.14507598,-0.18150988,-0.19020692,-0.19101611,0.09330094,-0.06414006,-0.35688087,-0.41579977,-0.5143367,-0.98675466,-0.64479685,-0.48023963,-0.22440766,0.12861852,-0.19995357,0.14447342,0.101792775,-0.092667125,0.11068407,-0.06920173,0.49124485,0.2756309,0.17676026,0.23999396,0.2669709,0.3515215,-0.02304704,-0.008211518,-0.14929202,-0.21707109,0.007998105,-0.10671601,-0.28306413,-0.17808409,-0.60202795,-1.1755435,-1.130538,-0.73801076,-0.4912143,-0.10715504,-0.033490304,0.01562759,0.2576757,-0.06148569,0.08106033,0.06917935,0.32015678,-0.00026441523,0.5338653,0.7311315,0.7083351,0.38323542,0.71708006,0.51513624,0.683847,0.39822862,0.31330386,0.41235745,0.4362244,-0.18255833,-0.5956419,-0.9776684,-1.2091366,-1.118948,-0.778273,-0.3821927,-0.20826523,-0.19349054,-0.0781041,-0.103894435,0.2166332,-0.01673291,-0.023865866,0.09189756,0.46432748,0.11663286,0.49202985,0.3776773,0.42366263,0.56545013,0.40055197,0.5226008,0.27064005,0.4523324,0.32032004,0.21583252,-0.13962543,-0.20730706,-0.076343276,-0.53693163,-0.3526823,-0.28132167,-0.12943892,-0.14525232,-0.17513537,-0.13399649,-0.024945723
}, {0.5191247,0.50785655,0.47504795,0.34046313,0.19598006,0.46024057,0.09260853,-0.16696613,-0.40102443,0.45671767,-0.19251981,0.33530855,-0.23078641,-0.27180946,0.10585767,0.12245549,-0.15992592,0.27679032,0.18251987,-0.24463683,-0.19236183,0.22245316,0.094504274,0.0014585381,0.19264778,0.35404462,0.22130951,0.4783768,0.48607418,0.4279351,0.18195224,-0.18563277,-0.15164126,-0.15851156,0.07000728,0.31763685,0.16626333,0.06486268,-0.0827209,-0.14204916,-0.35143048,-0.3431872,-0.2669087,-0.09186678,-0.05424455,0.09101473,0.11346986,-0.00557916,0.14985771,-0.17448452,-0.14393772,-0.09107182,-0.10327485,0.14039668,0.10667072,0.3256596,0.49321848,0.26390433,0.22665644,-0.30800137,-0.30931744,-0.46898854,-0.2394392,-0.20369425,0.14691618,-0.34106496,-0.038877044,-0.3417009,-0.45141283,-0.43559986,-0.22919913,-0.36820334,-0.16060694,0.09904419,0.2730048,-0.1259222,0.2725875,-0.026340295,0.16818297,0.048245892,0.064546406,0.08330409,0.1523911,0.15891573,0.41911775,0.04065283,-0.18357892,-0.3031322,-0.055382457,-0.15152045,0.20851,0.009455846,0.10357314,0.08973971,-0.40325266,0.024928965,0.063863836,-0.45524254,-0.7757648,-0.50055957,-0.15098546,0.28589347,0.28502467,0.1441742,-0.16973503,0.13073349,0.3393976,0.1409458,-0.26310402,-0.24600068,0.18643749,0.5045289,0.2718339,-0.05360791,-0.33168748,-0.084654994,-0.2908531,-0.16920826,-0.27352685,-0.005000703,-0.25623953,-0.17513168,0.12423567,-0.367026,-0.23162475,-0.382053,-0.6805556,-0.12041479,-0.13801569,0.24698241,0.02040025,0.34269997,0.23777676,-0.026369099,-0.41158023,0.23395358,-0.20138684,-0.09105146,-0.08665216,0.4388601,0.3869985,0.036753025,-0.17808743,-0.09529029,-0.020210324,0.031453572,0.07811369,-0.10415681,-0.44529265,-0.021215415,-0.1625161,0.03348779,-0.11198882,-0.67095274,-0.5274576,-0.36418808,0.2925232,0.35862237,0.034762427,0.61058295,0.017721891,0.01863338,0.010631061,0.13492918,-0.14248411,-0.07007127,0.14964831,0.30741185,0.46663737,-0.028505096,-0.42757726,-0.41805586,-0.1652069,-0.52287704,-0.020545894,-0.4411252,-0.16067968,-0.30714887,-0.3374899,-0.14669229,-0.31951842,-0.37687233,-0.45529544,-0.075318135,0.642972,0.5100536,0.31530422,-0.073277116,0.0723022,0.00011102483,0.28260475,0.2597873,0.00445581,0.06078313,0.046308316,0.0036176706,0.55320257,-0.2199493,-0.20160079,-0.38402802,-0.07114348,-0.39913565,-0.46977314,-0.2800471,-0.55013627,-0.6651331,-0.24379672,-0.24811885,-0.0965957,-0.4681277,-0.29967907,0.19705935,0.30931133,0.008774067,0.24540563,0.3917842,0.08080255,-0.22715834,0.16296107,-0.1390066,0.12113834,-0.09621984,-0.025501966,0.10427544,0.5723554,-0.19239478,-0.3385426,-0.18690547,-0.17059761,-0.24957147,-0.40226018,-0.28735206,0.1264622,-0.050700676,-0.12458745,0.021601921,-0.025768403,-0.29875672,-0.38553953,-0.106326595,0.29308215,0.2597054,-0.025928883,0.41015056,0.22467607,-0.15839605,0.027193097,-0.41426402,-0.40137106,-0.082070224,0.08034143,0.114379756,0.39762244,-0.11267345,-0.46681914,-0.3185774,0.090549976,-0.18124765,0.27647096,-0.19533208,-0.36561093,-0.31343764,0.09153203,0.16054985,-0.3999104,-0.24819559,-0.51796556,-0.4637299,0.3132425,0.18644042,0.04236865,0.06619896,0.01225996,-0.15944764,-0.040905718,0.09351202,0.14118126,0.20233053,0.1730192,0.094305605,0.3632096,-0.36106256,-0.05207879,0.06267617,0.45365736,-0.26461104,-0.70758194,0.06593072,-0.08843301,0.18971057,0.043228846,-0.24061804,-0.18596746,-0.78255427,-0.080478765,-0.3600637,0.012290326,0.3752347,0.18393984,0.11394541,0.1680413,0.58869314,0.12758864,-0.32413554,-0.12649573,0.15063395,-0.027751269,0.028024355,0.32930154,-0.3866145,-0.608715,0.24656525,0.024612263,-0.052044693,-0.1876072,0.13497493,-0.27862352,0.32877603,-0.24179645,-0.14670259,-0.16885234,-0.3168153,-0.036207333,-0.11599839,-0.12638742,0.52210635,0.18898004,0.20859897,0.06724629,0.31867033,0.23428185,-0.1191956,-0.12784857,-0.25789052,0.2506836,0.10795795,0.057021473,-0.3232561,-0.34931707,-0.24532688,-0.39633316,-0.08490418,-0.15120144,0.015154419,-0.24445361,-0.31633627,-0.18444724,-0.25007296,-0.22268987,-0.13396253,-0.20581613,-0.058297195,-0.23658949,0.21982178,0.12469439,0.4917644,-0.025993124,-0.11551249,0.060594875,0.33690315,-0.039584275,-0.34897128,-0.2824995,0.15332924,0.22329503,-0.17542967,-0.4087735,-0.18925732,-0.33117065,-0.06298471,0.0076907263,0.14267123,-0.09273132,-0.16115142,0.1690011,-0.04132437,-0.038053535,0.024640542,-0.15270025,-0.07307413,-0.3396885,0.0044825743,-0.124052264,0.16477244,0.22123104,-0.10607917,0.267489,-0.07259425,0.059771243,-0.09306984,0.17365305,0.18959835,-0.010309825,-0.17659849,-0.5126098,-0.5359874,-0.1307287,-0.032601878,-0.20886937,0.14396605,0.11202608,0.12004533,0.057364833,-0.10523659,0.03828052,-0.14035112,-0.19592273,-0.11527261,0.019249994,-0.10538846,0.23573463,0.15602644,0.068151034,-0.20295432,0.3931378,0.22543411,0.4888039,0.084227204,-0.14814219,0.052302554,0.10753066,0.072541006,-0.1228252,-0.19631761,-0.2629411,-0.06537759,0.13537195,0.27502578,-0.039836187,-0.25552014,-0.08642246,0.21035902,-0.124478355,-0.07825147,-0.10644597,-0.3956255,-0.24095455,-0.0058013313,-0.15744686,0.25791493,0.088250905,0.2947058,0.11377984,0.057603315,-0.017943699,0.026500355,0.19129467,0.079353005,0.31017113,-0.31808394,-0.47317445,-0.16125172,-0.38855886,0.02641489,-0.090219736,-0.060505103,0.05561941,0.18998265,0.024891282,-0.13296837,0.0056423466,0.1112419,0.32132104,-0.111761935,-0.27485365,0.14208524,0.3448257,0.25745872,-0.25494725,0.38055882,-0.04439208,0.0851433,0.10352652,-0.11295218,0.26065388,0.28512388,-0.0009407315,-0.40785635,-0.13946633,-0.4234429,-0.32603177,-0.12373241,-0.05726878,0.0029809321,0.08059541,0.01577952,0.018086128,-0.059147265,0.007937881,0.0076572374,-0.2554915,0.04325101,-0.10288382,0.19747071,0.44228724,0.058899105,0.19451042,0.14005835,-0.14024656,0.054836314,0.1985535,0.044143863,0.19508117,0.103428006,0.22830035,-0.6009366,-0.25560722,-0.14008035,-0.49834767,-0.11651789,-0.08684009,-0.057593565,-0.09440403,-0.040938474,0.1482291,-0.063402094,0.31502062,-0.093214996,-0.39134368,-0.17999841,0.009899386,0.14018452,0.23157868,0.21743669,0.40892613,0.20698501,0.114889234,0.0051969816,0.2814506,0.13459651,0.108728714,0.6509355,0.34394452,-0.3870297,-0.3459352,-0.03776387,-0.3575203,-0.125423,-0.29084602,-0.32513258,-0.36558938,-0.07260298,-0.045933012,-0.448697,-0.21101432,-0.2998488,-0.35606924,0.1292297,0.3896691,0.19788836,0.43640342,0.22128023,0.36774457,-0.14088807,-0.00034895982,0.06921792,0.6415532,0.1970649,0.30334926,0.7454318,0.12567246,0.06542232,0.06739036,-0.19562177,-0.24686484,-0.3651937,-0.36602107,-0.6438351,-0.30871516,-0.5247053,-0.16002281,-0.25987968,-0.31199715,0.21469684,0.19536625,-0.35971162,-0.013118623,0.78993946,0.3432627,0.13222149,0.11062596,0.7753316,0.026297333,0.30556569,0.3028632,0.062417444,0.055703565,0.46467617,0.23441418,0.3163898,0.19817598,0.1957689,-0.14433241,0.24875627,-0.20862943,-0.24163844,-0.31765765,-0.40939817,-0.29511604,0.010725557,-0.35194835,0.029441351,-0.09262395,-0.4815717,0.037631493,0.22787282,0.015501883,0.4082896,0.1596184,0.44656038,-0.116898865,-0.009813519,0.11741092,0.053923916,0.0927881,0.31177244,0.10602069,-0.1809553,-0.14247233,0.051318113,0.23472852,0.12804615,-0.21036293,-0.08417673,-0.28560352,-0.4792882,-0.46398687,-0.29310772,-0.55517846,0.008272307,-0.31290078,-0.042669453,0.03472904,0.1242257,0.27507803,0.18469256,0.06590536,0.21136206,0.13454129,0.34245604,0.39046815,0.22500502,0.07707821,0.27283698,0.23423216,-0.095589615,-0.13945375,0.01565993,0.009236308,-0.005145203,0.023903724,-0.16967535,-0.14649475,-0.18676826,-0.19747987,-0.14017797,-0.065874316,-0.33904263,0.046879563,0.121974096,0.41875324,0.289001,0.11626731,-0.03252323,0.27920112,0.46237797,-0.09615146,0.6757059,0.044461142,-0.16376896,-0.32017148,0.2726553,0.3128256,0.12801097,-0.1212656,-0.21723446,0.056254383,-0.17337015,0.23134048,-0.1496676,-0.13836907,0.07225433,0.032022715,0.058474887,0.027434235,0.090180814,0.45345607,0.5555119,0.22699855,0.16629994,0.16158484,0.19594511,0.28011963,0.06368018,0.1320957,0.55136317,0.057019453,-0.26703703,-0.21456796,0.19566055,0.11667477,0.26091954,-0.24958576,-0.020634018,0.034484774,-0.2963977,-0.16495015,0.16006522,0.046239298,-0.1173317,-0.073149204,-0.080795564,0.34110627,0.29895034,0.2476171,0.5697028,0.41814134,0.4379843,0.15828352,0.10179375,0.027227642,0.12841596,0.2484612,-0.21032922,-0.16872333,0.052611183,-0.24399467,0.21809208,0.40556172,0.21019349,0.15141356,-0.23270616,-0.23144273,-0.07333365,-0.050928704,0.07188946,0.023416929,-0.3161965,0.020421255,0.2554734,0.39823458,0.43183586,0.56084603,0.33100292,0.35335782,0.36616927,0.40164265,0.27990684,0.25051907,0.0873604,-0.57663256,-0.49761894,-0.041213766,-0.31027356,0.29812297,0.40648565,0.44319642,0.334734,0.3376549,0.3696908,0.52807254,0.4972777,0.038251586,-0.05779215,0.4720879,0.012182023,0.07802587,0.00088139693,0.22621989,0.3581257,0.6639825,0.3490939,0.2010885,0.4009663,0.423472,0.58047307,0.5914263,-0.14516984,-0.023709089,0.6017068,0.19905202,0.24888036,0.47664136,0.458697
}, {0.39865512,0.4103823,0.36675847,0.07248216,0.4474848,0.3204817,0.58543295,0.8438502,0.49563506,0.09066561,0.46826366,0.14087676,0.15627666,0.14359412,-0.077355206,0.020232556,-0.15377557,0.013844492,-0.029203875,0.038597506,0.18244857,0.29015508,0.32518724,0.7828134,0.5482655,-0.0031676898,-0.01325541,0.25596473,0.36745983,0.04848608,-0.079945214,0.14985788,0.04964623,0.2948843,0.027110096,-0.25420585,0.27995324,0.09186275,-0.3217007,0.030584056,0.35370246,0.25213644,-0.2672409,-0.38062644,-0.53994143,-0.32331532,-0.04374623,-0.25707084,-0.011283407,0.07960507,0.27995986,0.16901654,0.3034536,-0.12092443,0.031125223,0.27543277,0.20527324,-0.04205892,-0.31272733,-0.07464551,-0.19442756,-0.12643065,0.10416803,-0.052897543,0.10711878,0.08504275,0.23682654,0.34807664,0.5438767,0.10507974,0.055284537,-0.48949325,-0.35276115,-0.18288349,-0.17529956,-0.10628581,-0.14313899,0.20106544,0.46520364,0.122413255,0.0069161635,-0.14720845,0.27122566,0.16417018,0.06320103,-0.13290654,-0.099761605,0.23310669,-0.36553583,-0.051205423,0.27425107,0.28284183,0.4522558,0.5372628,0.064078026,0.2841134,0.11438859,0.17418036,-0.5775694,-0.1279153,-0.37196964,-0.25131652,0.013459594,-0.10280575,-0.43945497,0.1490249,0.22591752,-0.097844414,-0.18891253,0.27431652,0.0028631655,0.14909227,0.14096029,-0.06264428,0.10720596,0.22198066,0.13964674,-0.14382233,0.40986088,0.2010346,0.20525752,-0.09718239,0.4563565,0.21226878,-0.010047471,-0.18547265,-0.44200888,-0.24321811,-0.43102488,0.005828716,-0.07202553,0.06772941,0.006671202,0.11640403,-0.28864953,0.44178173,-0.016168024,-0.09891329,0.38303882,0.27683157,0.1615469,0.10697901,0.034555644,0.022519516,0.15854795,-0.29967058,-0.05169775,0.011499172,-0.22190928,0.052213624,0.35894036,0.24041282,0.14065255,0.38532954,-0.42057893,-0.28156298,-0.091013215,-0.19339173,0.044327006,0.19830483,-0.20838729,0.042493366,0.14353733,-0.3338342,-0.18586232,-0.14055401,0.15442169,0.2026175,0.22875203,0.20289868,0.095243305,-0.07682653,-0.2743278,-0.24823043,0.501144,0.23234564,0.7058938,0.31029078,0.61878073,-0.07552626,-0.13523433,-0.5469359,-0.21400206,-0.19915351,-0.018971162,0.2420802,-0.09284656,0.2790736,-0.33798346,-0.101312496,-0.073587485,-0.24959551,0.047120668,0.33927944,0.3375263,0.045076154,0.43496996,-0.0876587,-0.42772642,-0.32626975,-0.2746722,0.1184368,0.05340898,0.45343816,0.2914747,0.2616585,0.08498077,0.4256099,-0.10100429,-0.7241679,-0.49763665,0.11212231,-0.082287125,-0.08440827,0.008881325,0.11552925,0.11337144,0.037063923,0.17246157,-0.6458908,-0.17870831,0.05151491,-0.14734192,0.19464836,0.29059893,0.059119876,-0.24276954,0.2556383,0.022159118,-0.06533582,0.3122719,-0.06818199,-0.11102899,0.03696021,0.2914824,0.25221485,-0.89342046,-0.6208913,-0.49776068,0.157286,0.26748934,0.12974583,0.024470406,0.35464665,-0.0034307041,-0.010147652,-0.21153489,0.07723107,0.025296545,0.25890785,0.093496405,0.27902752,0.31817523,0.16748397,0.039086953,0.073864505,0.30830273,0.06613656,0.047505103,0.09991394,-0.065338604,0.061193217,0.15613234,-0.28860867,-1.0043746,-0.29659155,0.070382416,0.16392505,0.43386692,-0.032448933,0.15135896,-0.24008092,0.21119815,-0.4150785,-0.08222936,-0.36795983,-0.5922372,-0.1350316,-0.035278242,-0.011310069,0.108406164,0.021505788,0.14479099,0.022989918,0.007913503,0.09314331,0.15248121,0.44953626,0.39976093,0.25912517,-0.062630214,-0.3930397,-0.39782605,0.063952036,0.10733433,0.3608548,-0.05309487,0.03825632,0.14775662,0.09553075,-0.060625043,0.3484615,0.25628868,-0.7454594,-0.21120054,-0.26019442,0.007749071,0.0010218149,0.42354628,0.3537136,0.201184,-0.32290426,0.28094247,0.21706884,0.47440436,-0.1670073,0.099201426,0.08364013,0.105717674,-0.21610385,-0.7946205,-0.2351467,-0.32676512,-0.16816911,-0.09038513,0.21339883,0.12032632,0.14883308,0.2800056,0.26610085,0.1344477,-0.88951814,-0.58619094,-0.08979372,0.24275108,0.3207395,0.4426654,0.674227,0.51975757,0.1868121,0.010183466,-0.20684661,-0.09254882,-0.08019112,0.2919106,0.06672301,-0.09353008,-0.49681944,-0.29569477,0.25739208,0.16383727,-0.14048682,-0.29743618,0.13142365,0.03629424,0.0989088,0.09119256,0.29843524,0.3917198,-0.78760016,-0.43162113,-0.12399389,-0.16559613,0.23949696,-0.06347991,-0.12675014,0.07900697,0.33810464,-0.34749022,0.003720886,0.051732913,-0.025941018,0.08366548,-0.023343736,-0.2356685,-0.64037716,-0.37954643,0.100108996,0.330104,0.13807239,0.24723315,-0.097982146,-0.09574504,0.14786838,0.26358354,0.4546884,-0.2558836,-0.68172485,-0.17410222,-0.037006486,-0.24253188,0.032605197,-0.02072918,-0.1335242,0.14512476,0.31138897,0.04012388,-0.32407957,0.06136931,-0.07728793,0.111171745,-0.23112491,-0.24782442,-0.28438917,-0.39646092,0.20835409,-0.1423426,-0.01780508,-0.2424585,-0.09846628,0.27907184,0.3020173,0.03324922,-0.2863718,0.2740034,-0.2221723,0.34499648,0.039157238,-0.13462593,0.034677323,0.38957992,0.3252632,-0.5372564,-0.30149803,-0.034751415,0.2973259,0.04290679,0.11049072,0.013535297,-0.13622725,-0.1692825,-0.47844756,-0.33866674,-0.10826076,0.06486137,0.10908199,-0.10655403,0.47885412,0.34102473,0.36548707,0.13417022,-0.20808145,-0.23796566,-0.21974027,-0.061848726,0.3563301,-0.12893519,-0.18796858,0.4379787,0.24824573,-0.026813012,-0.7835944,-0.16426452,0.3160577,0.37741122,-0.10608871,-0.18694472,0.39685246,0.24451777,-0.236728,-0.025280291,0.21751724,0.08656014,-0.15503003,0.16396344,-0.17912735,0.123523355,0.027648346,-0.12363755,0.12571584,0.049924906,-0.44267207,0.12344565,-0.1464639,-0.35264912,0.25487652,0.1783825,0.34400663,-0.28024426,-0.097255565,-0.73411816,-0.07931879,-0.19491875,-0.16500789,0.007954229,0.23240386,-0.4086762,-0.2816223,0.009271029,-0.034559634,0.07103111,0.2378457,0.15759864,0.20872892,0.47577837,0.26758337,-0.008881164,-0.15615156,-0.13730855,-0.5104017,0.26366717,0.015748529,-0.103807576,0.50723624,0.42399892,0.24921185,-0.07896778,-0.24043518,-0.3823693,-0.37146237,-0.28299233,-0.015538682,-0.37795964,-0.16456138,-0.12227745,-0.24992393,0.3943673,0.26205134,-0.014064457,0.10619293,0.37524804,0.11917829,0.18762903,0.10756009,0.23792668,-0.43127617,-0.09432858,-0.39133278,-0.4926171,-0.45434067,0.051486727,0.2383196,0.13459262,0.029625293,0.19439907,-0.018817907,-0.51579505,-0.26224142,-0.12767665,0.2570828,-0.04977669,-0.3503132,-0.010261578,-0.16412617,0.2549284,0.47155154,0.057148892,0.10277546,0.10218929,-0.092102915,0.08320019,-0.08822298,0.18089639,-0.038138915,-0.012421343,0.32036304,0.24713388,-0.05399216,0.08763263,0.32679653,0.17695917,0.032395992,-0.15771502,-0.11353706,-0.17265671,-0.28599662,-0.051166784,-0.09302854,0.20249407,-0.0701195,-0.2537607,-0.37528718,0.23716982,0.0027209623,0.12595643,0.21915835,0.33084986,-0.009243274,0.08433245,-0.18389688,-0.05825858,-0.2742504,-0.0058108177,0.11594043,0.2500797,-0.35592672,-0.39581943,0.26929912,0.22396939,-0.050666556,-0.12552783,-0.24724256,-0.21886519,0.09983431,-0.2572557,0.22230129,0.16936716,-0.35488358,-0.2616554,-0.17394722,0.30272076,0.15685305,0.299807,0.19198775,0.11443764,0.3013947,0.49371397,-0.16078557,0.03997553,-0.22596458,-0.17997113,-0.33020678,-0.60590756,0.035008326,0.01487458,0.42506084,0.48091838,-0.052125342,-0.16190723,-0.2064461,-0.4773759,-0.13619347,-0.33861372,-0.42367208,-0.4438639,-0.023710389,-0.20798257,-0.22157465,0.06741965,0.21225934,-0.027414206,0.3483626,0.13263083,0.13671371,0.062143814,-0.13287479,-0.25779217,-0.33231822,-0.37020463,-0.15721871,-0.48534238,-0.341144,0.21424212,0.7779014,0.21377356,0.24915269,-0.062000625,-0.43530092,-0.2841482,-0.12022723,-0.44849068,-0.16150905,0.062711395,-0.1902487,-0.022715827,-0.4389185,0.17849138,0.048891112,0.10359006,-0.10660081,0.07556362,-0.44897962,0.055989135,-0.26448217,-0.028337313,-0.12860471,-0.028977817,-0.47932914,-0.21544693,-0.18467219,0.18042083,0.31315333,0.27859804,0.24131326,-0.024226777,-0.7879488,-0.5013676,0.060701266,-0.016541429,-0.34315127,-0.069473244,-0.38735336,0.030298576,-0.06296697,0.0028813353,-0.20580156,-0.09049107,-0.27078795,-0.32019463,0.05511288,-0.40448466,-0.2176265,-0.18433589,-0.20441191,0.34591872,0.4961197,-0.07573416,0.12052654,0.16070163,0.39695022,0.30257413,-0.020636607,-0.23383327,-0.65160173,-0.35858083,-0.103756115,-0.3038946,-0.28023508,-0.32224005,-0.18534695,-0.35665452,-0.19993372,-0.41355026,-0.0182722,-0.15646194,-0.08164017,-0.33142602,-0.23873739,-0.07026897,0.116850905,-0.22441988,0.33256307,0.07210645,0.08606916,0.23851553,0.12408405,-0.026867859,0.47388488,0.3700561,0.21110496,-0.3956903,-0.17252457,0.03736623,-0.36074468,-0.54427534,0.04775667,-0.23925015,-0.32892677,-0.24949783,-0.39356118,-0.005694521,-0.02946949,0.2777038,-0.27866247,-0.09464177,-0.22453927,-0.10873246,0.017790528,0.29568925,0.3343765,0.06288277,-0.16673505,0.16314633,0.33129972,0.46250167,0.32719097,0.4048779,0.28529868,0.09541378,0.07186357,0.22549105,-0.2246912,-0.19266747,-0.06401552,0.28178957,0.117598996,-0.014498334,0.51215655,0.5801971,0.22588548,0.4741565,0.43445373,-0.21286508,0.331025,0.22504535,0.36338174,0.5560024,0.22952789,0.39670604,0.028804611,0.43215466,0.30275238,0.29483935,0.34708625
}, {0.1973593,0.29840255,0.16728742,0.43946493,0.749572,0.7476717,0.81821805,0.4314288,0.327302,0.44476053,0.26552516,0.2839607,0.20913562,0.0017762387,0.16539726,0.0945029,0.15588404,0.19439234,-0.17269668,0.1586119,0.24297215,0.0030517112,-0.08387531,0.271985,0.3193382,0.11596004,0.119061485,0.108507104,0.19816822,0.28155956,0.7179144,0.5531407,0.44327316,0.2880312,0.2595939,0.16421998,0.35848185,-0.10684917,-0.018154902,0.026384044,0.033026665,-0.062110044,-0.27249935,-0.36849362,-0.015551964,-0.083223574,-0.15644842,0.3394011,0.062186547,-0.07488763,0.01584402,-0.1976042,-0.14981279,0.11637189,0.19668812,0.051233582,0.15548354,0.709685,0.6269539,0.5323073,-0.040443376,0.051743787,-0.044246133,-0.105219096,-0.15921731,0.039661765,-0.07478517,-0.21607547,-0.20265917,0.06821993,-0.22650255,-0.0036643674,-0.25718957,0.024839845,0.036008764,-0.14852764,-0.15650955,-0.1728843,-0.26728982,-0.29412124,-0.24349909,0.24732798,0.29016924,0.25628877,-0.011449752,0.25075763,0.36771488,-0.19130386,-0.35392016,-0.017694283,-0.046377204,0.23905909,-0.11453087,0.11017827,0.09169911,-0.15197012,0.081840135,0.028768074,0.23492734,-0.032194726,-0.12137066,-0.08366445,-0.07912928,0.13131577,0.17702873,-0.18396166,-0.2761525,-0.4205072,-0.46418437,-0.15335633,-0.360552,-0.034617443,0.13376229,0.17172478,0.80150056,0.43612817,0.047727697,-0.15708557,-0.03443417,0.10749912,0.17699021,-0.13908656,0.15789935,0.11276371,0.039975774,0.06993221,0.35018843,0.17047553,-0.21213953,0.040723454,0.18598087,-0.054085035,0.07119319,-0.20648108,-0.04580544,-0.21425004,-0.18241312,-0.03934642,-0.03650155,0.6436828,0.34918824,0.47681493,0.3571828,0.24627057,0.0737757,0.17377338,0.3855101,-0.11200396,0.052521788,0.0438378,-0.07583932,-0.0180312,0.26669315,-0.10439449,0.27172145,0.099565096,0.11045701,-0.049385477,0.1749316,-0.39983994,-0.35040045,-0.072363965,-0.06943323,0.1981937,-0.014612282,-0.25334674,-0.2945689,0.2415798,0.2835935,0.077197924,-0.26565352,-0.20107207,0.3400747,0.521257,0.393791,-0.28424758,0.23918788,-0.11232526,-0.21276057,0.00046499562,0.005015323,0.32987356,0.09540712,0.033634186,-0.040613394,-0.030909859,0.000786511,0.05036676,-0.23432748,-0.1991736,-0.5157589,-0.09281904,0.5140609,-0.25719386,-0.10154585,0.21625246,0.08441094,-0.42265183,-0.448951,-0.030926377,0.052849136,-0.01830115,-0.15449567,-0.15005141,-0.21468164,0.27420557,0.001979815,-0.21536748,0.4025453,0.24870619,0.1337179,-0.27873746,0.31133735,-0.2851698,-0.22856453,-0.19800009,0.010078043,-0.1736268,-0.06307268,-0.14972076,-0.17012085,-0.22290517,0.23165621,0.05070689,0.33747151,-0.13842215,-0.58154064,0.06535228,0.1932663,-0.317468,0.16311227,0.18156542,-0.3111337,-0.1083678,-0.20265873,0.2843816,0.15923935,-0.012470648,-0.031754628,-0.04009034,0.037856255,-0.13592285,-0.258651,-0.029800314,-0.42393973,0.15505314,-0.016512359,0.019253906,-0.010790921,-0.030542912,-0.11033759,-0.16372037,0.16042496,0.25789627,-0.08468488,0.05382538,-0.18973404,-0.15796109,-0.17050473,-0.08091553,-0.14367184,0.02512565,0.07670374,-0.21192169,-0.31616402,0.040720142,-0.3517666,0.21386036,0.23845753,0.21283112,-0.17913184,-0.47358757,0.353915,-0.42500418,0.28955403,0.17181304,-0.06932663,-0.05121483,-0.11652125,0.28625,0.07538717,-0.17178664,0.14478616,-0.113165766,0.14632766,0.26800945,0.23503688,-0.09712277,-0.022594992,0.14344779,-0.11875686,-0.35198396,-0.049121182,-0.04035924,0.024776941,-0.22669114,-0.1947105,0.23665574,-0.020728013,-0.28979826,0.01767933,-0.43501157,0.26781175,-0.17699808,-0.11136632,-0.47154188,-0.17330892,0.11769074,-0.10323372,-0.054121412,-0.2616841,0.2050041,0.17244834,0.078273274,0.11312258,0.15274239,0.22047237,0.051867153,-0.08642959,-0.1871785,0.16921552,-0.21892527,-0.022799907,0.25616288,-0.018642388,-0.014863014,0.22827376,-0.33704466,0.01775705,-0.35172004,-0.1545571,-0.31172326,-0.18528567,0.42902362,0.1579213,0.19972284,0.15600291,-0.34432426,-0.13657746,-0.46923515,0.0060117845,-0.17872071,-0.13619737,0.061645277,0.094410464,-0.18306348,-0.00011399994,-0.023658354,-0.15951006,-0.03992626,-0.1782468,-0.2575167,-0.016515484,0.3334266,0.092718944,-0.25196865,-0.34507665,0.092403434,-0.32915044,0.071057275,0.31259766,0.20431237,-0.03437664,0.2640937,0.17523602,0.07498909,-0.1209112,-0.64167327,0.094818614,0.061240315,-0.35300437,-0.2766634,0.12994903,0.19925004,-0.27991214,-0.35553652,-0.3930069,-0.06804955,-0.053084668,-0.071061105,0.07030174,0.14111306,0.35050476,-0.057378456,-0.41009545,0.3665561,-0.5963197,-0.00476579,0.27649742,0.06347388,-0.18209259,0.18082295,0.07694546,-0.076180704,-0.22783598,-0.129196,-0.515373,-0.14420514,0.24801953,-0.055750255,0.10832596,-0.021588065,-0.066052996,-0.08481513,-0.43961105,-0.29910085,-0.17624024,0.013513012,0.038634077,0.118300594,0.13909583,0.13276108,-0.08031577,0.13752155,0.037301615,-0.17039278,-0.13782284,-0.038907878,-0.30420414,-0.11075255,0.056147113,-0.22157669,0.08154564,-0.3239663,-0.7333815,-0.75827813,0.091746315,0.42714396,-0.10662249,0.005256476,-0.11298242,-0.061859775,-0.25179175,0.04014228,-0.20939486,0.0144327115,-0.11459934,-0.105954334,0.19552304,0.088370726,-0.1580739,-0.20273738,-0.08275239,-0.6450885,0.077427715,-0.3621088,-0.37204206,-0.08778316,-0.015514879,-0.18502094,-0.101775594,-0.3165096,-0.112652615,-0.1952391,-0.2793755,-0.10189027,-0.05519092,-0.07998589,-0.11617729,-0.29350168,-0.22383517,-0.15788738,-0.1690735,-0.2969786,-0.08804472,0.21169621,-0.1355989,-0.2106278,0.039461408,-0.5397136,-0.57022065,-0.18357795,-0.54940426,-0.6649183,-0.54897964,-0.0065288655,0.10137102,-0.31262702,-0.4386135,-0.084713645,0.18982297,-0.34205797,-0.01366912,-0.4607131,-0.03826188,0.12604451,-0.14099373,-0.32934856,-0.22879556,-0.5921579,0.0003871373,-0.29423746,0.16569892,-0.2622822,0.09481356,-0.5083481,-0.3893179,-1.1419085,-0.42851043,-0.49227452,-0.56299055,-0.78143454,-0.4815815,-0.01676797,-0.1143409,-0.23234889,0.1461425,0.0104142055,0.5065523,0.288474,0.1563443,-0.15817425,0.19656618,-0.08694259,0.5645561,-0.23842098,-0.23422551,0.015143177,-0.1147336,-0.22727141,0.08724189,-0.38795543,-0.14387158,-0.5768393,-0.9383821,-0.55227923,-0.53589875,-0.14791514,-0.7839477,-0.6458601,-0.56705916,0.016998209,-0.014141687,0.04411816,-0.043939978,0.35292265,0.3055962,0.21010193,-0.24171913,0.03920506,-0.1033693,0.033382356,0.54842085,0.12885724,-0.18568638,0.106874585,0.16833074,-0.014479706,-0.1845338,-0.3531647,-0.48939493,-1.071638,-1.1214442,-0.46851945,-0.43659228,-0.74518025,-0.34703127,-0.43030596,-0.11946059,-0.03507292,0.040962573,0.29440415,0.16985804,0.13248685,0.2966229,-0.074416086,0.6299003,-0.13137244,0.22550488,0.23860331,0.012798408,0.040359408,0.26585063,0.1744593,0.012878766,-0.04467793,-0.29502982,-1.0315366,-0.55819815,-1.0258734,-0.42590746,-0.39913172,-0.6222542,-0.44119048,-0.31471148,-0.5353194,-0.35008544,0.03832427,0.15935355,0.0883355,0.1708255,0.5238481,0.0961885,0.3220057,-0.0189199,0.31148908,0.06842263,-0.14628196,0.1528034,-0.00126322,0.24179083,0.22411984,-0.013908284,-0.29282266,-0.112666614,0.052033626,-0.07355632,-0.35806242,-0.36095756,-0.6577952,-0.35592875,-0.46443367,-0.23849452,-0.028254151,-0.07433176,0.04987832,0.19749379,-0.29483446,0.04632779,-0.09018546,-0.085538305,0.37153366,0.34368208,0.18180753,-0.02983747,0.26294482,0.15684307,0.4202,0.43828872,0.4970739,0.24302256,0.00070531224,0.06412326,0.2929363,-0.010454265,0.4784099,0.054466367,-0.0848735,-0.047343075,0.14652772,-0.08948487,-0.09040922,-0.006500825,0.03482499,-0.24125652,-0.06381821,-0.21454999,0.027649105,0.43988788,0.11896433,0.041691393,0.12605815,0.18176046,0.060418293,-0.12158412,-0.012868787,-0.11496274,0.49575266,0.22996788,0.19434237,0.7466588,-0.04901322,0.10238327,0.25468785,0.51070905,-0.07356332,-0.15465447,-0.19912648,-0.117902994,-0.31983224,-0.11432325,0.35366294,0.35767922,-0.31636292,-0.21190916,-0.025067966,0.0053922804,0.2973149,-0.27134943,0.12036947,0.28886974,0.18939719,0.24515735,0.22671272,0.46290943,0.18923402,0.11553946,0.053135313,0.59094715,0.18485788,0.20124564,0.2556386,-0.01740358,-0.1798167,-0.036412932,-0.35973847,-0.16479222,-0.28726268,-0.3418026,-0.17004508,0.29506877,0.54245347,0.1383642,0.24848334,0.508607,0.3523436,0.15562291,0.2747741,0.35593262,0.36016595,0.36857432,0.36014453,0.2595041,0.279835,0.29174682,0.26137105,0.24039423,0.3303029,0.13684317,0.23420882,0.18145053,-0.18858752,-0.16263308,-0.57372975,-0.19580354,-0.18236838,-0.28483045,0.004344402,0.48159358,0.37563664,0.5728935,0.53880584,-0.059678186,0.4133751,0.3936324,0.012408746,-0.006141164,0.5568482,0.50262034,0.1692656,0.25162286,0.039156128,0.43348947,0.14816943,0.5828901,0.6711153,0.4697313,0.45924932,0.24043815,-0.0032207775,-0.32259992,0.14182626,-0.1246728,-0.23861289,0.008818758,0.02446095,0.20243476,0.4060204,0.002050574,0.13746867,0.35199866,0.46587422,0.14107727,-0.27645063,-0.22707707,0.49469665,0.22183357,0.18096904,0.26913363,0.21982293,0.023468696,0.113538176,-0.19887356,0.19423202,0.17043434,0.48167,0.7216211,0.5612565,0.037966736,-0.20712909,0.5355637,0.41128594,0.16860871,0.2999416
}, {0.3902841,0.19006221,0.10724965,-0.16428614,-0.22296545,-0.11095771,0.34630096,0.4225311,-0.11003337,0.3814197,-0.15951014,-0.11056986,0.05192231,0.15417151,-0.0097451415,0.024652245,0.136563,0.41896993,0.46514928,0.10802176,0.30248767,0.2437441,0.24898914,0.24380927,0.3425096,0.47615442,0.09784168,0.3646763,0.37716863,0.3157685,0.29231256,-0.03851285,-0.040276248,0.2464663,0.36246487,0.33887044,0.50637007,0.24362403,0.2131389,0.2502772,0.21564418,0.36079797,0.6013669,0.10639918,0.3166131,0.20443153,0.427155,0.5800905,0.3993302,0.7013956,0.6125493,0.35785133,0.34393883,0.3859269,0.14869764,0.059193436,0.24600457,0.5120806,0.08260265,0.45097318,0.24981637,-0.06996262,0.1390285,0.33134988,0.17268468,0.2802824,0.12778617,0.24894789,0.2599949,0.043187007,0.027208125,0.4301839,0.3744969,0.25022313,0.6453658,0.35940444,0.42010134,0.22817239,-0.18153588,0.16116208,0.25106698,0.13930167,0.2583348,0.26006624,0.16588397,-0.098215565,-0.25830993,0.07574547,0.14173102,-0.11475747,0.058517385,0.008978429,0.33450752,-0.005443223,0.45050898,0.20693757,-0.01808797,0.05347035,-0.17967741,0.5102607,0.2804047,0.35146913,0.46068886,0.112977244,0.2474689,0.09568396,0.3028712,-0.25883886,0.1895481,0.013889978,0.2191617,0.22207354,0.20963733,0.1589705,0.087042645,0.12127806,-0.16847748,-0.23272972,-0.15630841,-0.16276029,0.08757682,0.14821358,0.29964435,0.020853324,-0.03003654,0.4535425,0.30984184,0.15137391,0.25904512,0.32856017,0.052610587,-0.004085698,0.27097043,0.003994528,0.1619687,0.10537123,0.416485,0.37962312,0.022366766,0.3473104,0.09242028,-0.21668096,-0.35746926,0.17881148,-0.23837544,0.14370222,-0.16967593,-0.23693903,0.090516,-0.0100291,0.51988643,0.34546,-0.13153231,-0.12838863,-0.16398728,-0.08110936,-0.41714194,-0.22260986,-0.290463,-0.15980667,-0.21909137,-0.28437325,-0.463229,-0.56244177,0.24181435,0.061672315,-0.04816386,0.41068023,0.11638091,-0.3018902,-0.36024675,0.40841502,-0.21361662,0.29979372,-0.12699151,-0.1205791,-0.08713478,-0.23898317,0.02321323,0.41603392,-0.03276493,-0.43600053,-0.50876635,-0.79094106,-0.5180894,-0.4959185,-0.45697445,-0.58999705,-0.3830762,-0.60569715,-0.2915876,-0.53475696,-0.3984232,-0.1741224,-0.23439406,0.029025747,-0.092090204,-0.27120215,0.036253657,-0.13233365,-0.09172511,-0.31737062,0.21909992,-0.3667358,0.14996026,0.15747887,0.019899234,-0.2217702,-0.35535386,-0.4473066,-0.787182,-1.0795866,-0.8726089,-0.6094756,-0.545956,-0.7650878,-0.23667054,-0.4038818,-0.56637126,-0.33841234,-0.9441283,-0.6901122,-0.2658247,0.034345962,-0.038864896,-0.42534763,-0.1971235,-0.20395443,-0.5487719,0.03636083,0.22037536,-0.10395579,-0.10951208,-0.02920601,-0.04412899,-0.48091263,0.07436104,-0.15462078,-0.4854797,-0.32539105,-0.55263585,-0.49472958,-0.5855919,-0.39481038,-0.65552455,-0.72903246,-0.56722033,-0.55692005,-0.87668514,-0.5278307,-0.54725355,-0.0794141,0.1784009,-0.13878559,-0.27337682,-0.11003327,-0.19971786,-0.44462118,0.014610166,0.13824901,0.086295016,-0.17738082,-0.054238763,-0.21698461,0.08448937,-0.02832131,-0.2714779,-0.3612843,-0.40414628,-0.13954745,-0.05902506,-0.13182268,-0.1422796,-0.50131285,-0.61266524,-0.5217011,-0.42800152,-0.7733847,-0.31300747,0.16434234,0.2442889,-0.1997635,-0.6643778,-0.193544,0.27516657,0.051850237,-0.05651759,-0.13244602,-0.26470506,-0.025439406,-0.18490241,-0.19280119,0.13145077,-0.08498916,-0.11619455,0.046670392,0.027207246,0.40901127,0.21736957,0.5815922,-0.083952226,0.69004345,-0.30036417,0.0014717109,0.14901827,-0.18498641,-0.43186784,-0.037139043,0.234432,-0.16274759,-0.16982687,-0.3010606,-0.191365,-0.17859225,-0.36232367,-0.22978525,-0.41328877,-0.25347537,-0.15117052,0.036077164,-0.07609641,0.13805814,-0.124228865,-0.02401002,-0.37408313,-0.1263025,-0.3952767,0.21457754,-0.089957625,-0.016809596,0.08689892,-0.06385537,0.35887846,-0.15397744,-0.39386502,-0.02412616,0.37704358,-0.3117144,-0.35755345,-0.05254671,-0.51830035,-0.6637937,-0.1219791,-0.25290763,-0.3261989,-0.07812918,0.26045236,0.13535924,0.05127837,-0.0582788,-0.03448484,-0.10095609,0.018472154,0.021865876,0.14367779,-0.14804575,0.008315636,0.06865561,0.008842736,-0.08218873,-0.09230449,0.11537804,-0.26938713,0.06296744,0.14362514,-0.09443648,-0.13886832,-0.15671378,-0.24530233,-0.0015024405,-0.08486501,0.37683052,0.32573882,0.32394898,0.08286285,-0.007186346,0.019024493,-0.15434763,0.0911901,-0.016308343,-0.29492566,-0.13658267,-0.2902019,0.25354138,-0.20807646,-0.17115872,-0.045690287,0.09410734,-0.004889304,-0.06609547,-0.027835483,0.36395428,0.2045664,-0.18731564,-0.049915563,0.04702071,0.020115664,-0.047679394,0.031406965,0.28066382,-0.04414535,0.1047546,0.18113655,0.16408774,-0.17034978,-0.07394587,-0.017562574,0.10338655,0.03976203,0.09244929,-0.11728167,0.014868341,-0.06206159,0.06410555,-0.24427462,0.22002791,0.165172,0.06805518,0.14129704,0.4097918,0.21198358,0.24975574,0.23912965,0.3294761,0.10773792,-0.030287668,-0.023645215,0.08499883,0.11896675,-0.09923008,0.003953828,-0.052645825,-0.1656358,-0.04304264,-0.20484287,-0.0755053,0.28507257,-0.12706766,0.07728635,0.2732331,0.063726775,0.20098802,0.14759547,-0.17169006,-0.33097073,-0.14296,0.0040497645,0.62661433,0.4088572,0.46047848,0.39597753,0.47036126,0.61575764,0.45428038,-0.090151064,0.11370424,0.29285935,-0.14277846,0.028158301,0.12800536,0.1885024,0.3028316,0.05354615,0.114663646,-0.07246478,0.013897073,-0.12416697,0.057163376,-0.082218416,-0.14588271,0.30985564,0.11332745,-0.030125786,0.27199125,0.15053888,0.7595193,-0.083064936,0.08573291,0.12581207,0.23723413,0.26056722,0.12348472,0.1368932,-0.16129796,0.13946405,0.2313069,0.28254652,0.0942439,-0.13548546,0.18694055,-0.02604421,-0.023108521,-0.0042953016,-0.039222766,0.19099882,0.20208426,0.08601523,-0.16492404,0.27314368,-0.039753996,0.21957019,0.48216224,0.10753518,0.4312202,-0.0032217584,0.35357013,0.27753058,-0.07671341,0.70112777,0.020335944,0.03337864,-0.10371267,-0.019607022,0.07646987,0.13271095,0.040096514,-0.38248646,0.046957504,-0.007685268,-0.40604702,-0.030729305,-0.058100846,0.05532154,0.082549825,0.1695536,-0.06277563,0.36561587,0.26454788,-0.23141602,0.062278423,0.097665265,0.33091578,0.118918136,0.29145518,0.043287978,-0.10549509,0.26983258,0.076859675,0.36781493,0.20435531,0.09657657,0.46615112,0.065373965,-0.026359323,-0.14093673,0.04533435,-0.3104708,-0.59215176,-0.036096595,-0.24713035,-0.20644161,-0.24247082,-0.13655457,-0.37058046,-0.1127907,-0.10856255,-0.066294506,0.008474818,-0.08842841,0.21180096,-0.103253916,-0.15867676,0.12702993,-0.20216642,-0.06808865,-0.026342511,0.24922171,0.60171646,0.11803913,0.011616418,0.16318431,-0.007296871,0.27070078,0.042242717,-0.11519103,-0.08930363,0.24899942,0.19050561,-0.14116943,-0.4522805,0.029588569,0.0037438776,-0.20608541,0.09148823,-0.024470832,0.17377977,0.2261664,0.352441,0.11687472,-0.07976126,-0.13544594,-0.034503028,-0.33161214,0.0077673947,0.25944722,-0.111347705,0.020130586,-0.023561578,0.16731143,0.21721606,0.15240721,-0.006282571,-0.36753088,-0.44682127,0.096154206,0.22883531,0.24436145,-0.11104791,-0.13497387,-0.01684342,0.2313089,0.09804378,0.06891703,0.48858917,0.5852039,0.42698854,0.12171689,-0.06663042,0.19920403,0.30371675,-0.3847144,-0.13774608,-0.23141308,-0.029303161,0.08491291,0.24233465,0.039244108,-0.23272046,0.106878266,0.16859625,0.16463062,0.13856965,-0.07007231,-0.24322563,0.17848538,0.33782837,-0.15147573,-0.018768057,-0.15454163,0.41884074,0.30865362,0.13863233,0.33455408,0.38479063,0.113578126,0.01660747,0.3720584,0.16170333,-0.003913704,-0.15397082,-0.1763262,-0.07170762,0.2730367,0.21915708,0.03902748,0.24988824,0.14747402,0.018103193,0.056980144,-0.06164645,-0.20937969,-0.056406368,-0.1946587,-0.065018386,-0.17103213,0.012124607,0.2540613,-0.39253807,-0.07552116,-0.2608678,0.13005598,0.3025192,-0.023975695,0.35508782,-0.28077543,-0.29047257,-0.004048006,-0.21766825,-0.19225712,0.29216668,0.19743498,0.24383156,-0.13528721,0.1331006,0.2654132,0.12667945,0.06781669,-0.37824312,-0.49984246,-0.49265462,-0.44436264,-0.12925242,-0.12081742,0.025550084,0.026601898,-0.16799377,0.052460324,-0.15557581,-0.10628068,0.093920216,0.23288475,-0.045296445,0.09981955,-0.15074302,-0.20926581,-0.012940288,0.18825063,-0.025554933,-0.038751658,0.07528192,0.060436696,0.53908545,0.1534853,0.2173804,0.351057,-0.122016534,-0.045053385,-0.25933865,-0.59040284,-0.10774739,0.081623815,-0.17756487,-0.321599,-0.49286753,-0.24377128,0.026059793,0.07692016,0.30184782,0.15679045,-0.16765727,-0.30506912,0.1089664,-0.045048133,0.03141447,-0.0025392775,0.0067137238,0.09164641,-0.3060442,0.12813804,0.37725908,0.2620865,0.5505176,-0.2475858,-0.23913832,-0.13938963,-0.65590817,-0.31819704,-0.4297581,-0.20582834,-0.19880992,-0.72885054,-0.07687471,-0.01537799,0.08306492,0.15303351,0.3664978,0.31823015,0.20852126,0.2703653,0.28097308,0.58469534,0.07910546,0.21240222,0.57555616,0.079465024,-0.02039615,0.026830189,0.044824686,0.07015159,-0.44386718,0.086333096,-0.17417787,0.16265509,0.24987523,-0.029246725,-0.26802722,-0.3527985,0.06254896,-0.08406841,-0.0836012,-0.07318848,0.30266955,0.29008448,0.37135813
